nep4 4 Ga O C Si 
cutoff 6 4 178 51
n_max 8 8
basis_size 10 10
l_max 4 2 0
ANN 60 0
 -2.4296759e-02
 -1.6359472e-01
  1.2375085e-02
  4.6406709e-02
 -5.6031566e-02
  8.7829970e-04
 -3.8903445e-02
 -4.1824266e-02
 -7.5217597e-02
 -4.5232037e-03
  3.0823704e-02
 -1.2750992e-02
  3.0000838e-02
 -1.2415359e-01
 -5.4249480e-02
  3.5892542e-02
  4.4582386e-02
  2.5101611e-02
  8.2251638e-02
  1.6649678e-01
  4.4074446e-02
 -3.7534803e-02
  3.5966482e-02
  3.1667410e-03
  9.9529000e-03
  6.5711341e-03
 -4.3605614e-02
  2.9822811e-02
 -2.1110272e-02
 -5.0639492e-01
  6.4478762e-02
  3.0311169e-02
  4.1284217e-03
 -4.7612544e-02
  7.2012626e-02
  2.9543815e-03
 -1.4341836e-03
  1.7321816e-03
  7.7643357e-03
  3.2032117e-02
 -2.6093528e-02
  1.9547582e-02
  4.3709066e-02
 -5.5915881e-02
 -7.6406398e-03
 -6.4423983e-03
  4.3388712e-03
 -2.0978475e-02
  1.6792594e-02
  2.5781438e-02
 -6.6313809e-03
 -2.6334351e-02
 -6.8241112e-02
 -1.0051469e-01
 -1.0630691e-01
  9.3015932e-02
  8.0473032e-03
 -8.0127511e-03
  1.4634763e-02
 -3.5058206e-01
 -3.1243458e-02
 -8.3325565e-04
  5.3941095e-01
  3.7969027e-02
  6.3179214e-03
  1.4586714e-01
  1.2964556e-02
 -5.7959821e-02
 -2.1263972e-02
 -2.4313435e-02
 -4.8998356e-02
 -8.5900143e-02
 -1.9081231e-04
 -1.3574273e-02
 -8.3852522e-02
  1.4954202e-02
  7.0832826e-02
 -4.2522497e-02
 -1.5829435e-03
 -9.5502682e-02
 -1.4192691e-02
  1.7975178e-02
  3.4112379e-02
 -4.8901141e-02
 -1.0212021e-02
 -5.9583832e-02
 -7.0786133e-02
 -2.3264282e-03
 -1.2505507e-01
  1.4034167e-02
  3.9056670e-03
  9.9389106e-03
 -8.3366865e-03
 -1.4082616e-02
  1.3709025e-03
 -1.5489833e-01
  7.5426819e-03
 -3.2003473e-02
  1.4854616e-01
 -8.0973618e-03
  3.6006293e-04
 -2.9414104e-02
 -2.1382852e-02
  1.7343590e-02
  1.6412698e-02
 -8.4756063e-03
  7.8404294e-03
 -6.4686676e-03
 -1.6222104e-01
  3.7302595e-01
 -8.8874772e-03
 -7.4220328e-03
  3.7861704e-03
 -1.7679093e-02
 -1.9918238e-01
 -2.5518455e-02
  5.1740683e-03
  2.8398486e-02
  8.7890692e-02
 -1.5211063e-02
 -6.1288878e-02
  2.8456170e-02
 -4.6529602e-02
  5.7473961e-02
 -5.7590961e-02
 -6.9327198e-02
  5.6554913e-03
 -7.3529214e-02
  9.0035181e-03
  3.8665041e-02
  2.7060509e-02
 -4.0800413e-03
 -4.6944901e-02
 -1.6448534e-03
  1.4306473e-02
 -8.1028536e-02
  8.3287954e-02
 -8.3371792e-03
 -1.0270431e-02
  1.0313905e-02
 -1.0634057e-02
  3.7875080e-03
 -6.6811807e-02
  1.0904540e-02
 -1.0356664e-01
  5.7441436e-02
 -3.5625093e-02
 -1.4789097e-01
  3.7145843e-03
  3.2963853e-03
 -5.8854919e-02
  1.9598024e-02
 -5.8592111e-02
 -1.0266940e-02
 -9.7059002e-03
  3.0507112e-03
 -1.1849064e-02
  1.3778335e-03
  5.1346365e-02
 -1.9213988e-02
 -6.3528417e-04
  1.4988232e-02
  6.2162269e-02
  7.7839876e-03
  1.0780522e-02
  2.8300116e-02
  3.6524478e-02
 -6.8261482e-02
  3.1443047e-03
  1.4694481e-01
  1.4412236e-02
  7.4911694e-04
 -3.5979573e-02
 -2.9682441e-02
  6.4449189e-03
 -3.3926085e-02
 -5.6108225e-02
 -4.6378057e-02
  1.9371498e-02
  1.2280393e-02
 -1.8362563e-02
  3.2715183e-02
 -1.9234512e-02
 -2.7874831e-02
  6.4875677e-02
  2.7702834e-02
 -6.7035064e-02
 -2.5646981e-02
 -2.4491388e-02
  2.2639882e-02
  1.4224084e-02
  2.1840325e-02
 -2.4784153e-02
  8.0893487e-03
  3.7140347e-02
  3.9582647e-02
  4.2167082e-03
 -3.3998650e-02
 -3.0059478e-01
  3.8092267e-02
 -1.5950570e-02
 -2.3702690e-02
  6.9844667e-03
 -6.3950107e-02
  5.3012162e-02
  2.3581477e-02
  2.6160106e-02
 -2.8015962e-02
  6.5496728e-02
 -1.6195534e-01
  1.8354556e-02
 -1.5792122e-02
  7.1339533e-03
  9.4911397e-02
  2.0339826e-02
  8.0814445e-03
  2.9506522e-01
  1.8384121e-03
  1.5322008e-02
 -4.1727390e-02
 -1.8646063e-01
 -5.6627727e-01
  2.1260394e-02
 -3.2129638e-02
 -1.5027148e-02
  2.0469166e-02
  1.3483043e-02
 -1.5552782e-02
  2.8866163e-02
  2.0083770e-01
 -5.0655160e-02
  1.2236545e-02
 -7.2389007e-02
 -2.2703844e-01
  2.8766567e-02
 -1.1646139e-02
  6.0022388e-02
 -1.3346301e-01
  4.7906566e-01
 -2.0947635e-02
 -2.2781321e-01
 -1.2404816e-02
 -8.4563047e-03
  1.8187467e-02
  1.6081205e-02
  3.5066172e-02
  4.2704875e-03
 -1.0074016e-01
 -5.0374039e-02
  1.1950999e-02
 -1.3407239e-02
  4.6406084e-01
  3.5423229e-03
  1.1935837e-01
  1.4684893e-03
 -4.5812953e-02
 -2.0572970e-02
  1.1709994e-01
  4.3930620e-02
 -2.2180514e-02
  9.8934378e-03
 -1.3126791e-02
  4.8809577e-02
 -4.7722168e-02
 -3.2654192e-02
 -1.0320225e-01
  1.2689751e-01
  2.5263079e-02
  3.3934161e-02
 -7.3277913e-03
 -8.5813835e-02
 -1.7752118e-02
 -9.5174434e-03
  2.0855509e-02
 -1.4381102e-01
 -2.1521531e-02
 -4.7514167e-02
 -6.1416905e-02
  4.5764748e-02
 -3.4997772e-02
  1.3652433e-02
 -1.4537148e-02
 -8.8722020e-02
  3.5681620e-02
  7.0531979e-02
 -1.1043611e-01
  1.6509339e-02
 -4.5465920e-02
 -1.2488269e-02
  1.2108773e-02
  3.3706643e-02
  1.9712793e-02
 -1.1925793e-02
  5.5582449e-02
 -1.8693984e-02
  4.8832931e-03
 -1.4413812e-02
 -4.2183317e-02
 -1.5950899e-03
  5.1451866e-02
 -5.8005523e-02
  1.6877258e-03
  2.3331728e-03
 -1.0977861e-01
 -1.6155466e-03
  7.0299236e-03
 -3.4782474e-04
  2.9694876e-02
 -2.0505551e-02
  1.3401669e-02
  4.3114945e-02
  3.0038692e-02
  6.5284602e-02
 -8.4288688e-03
  5.6670047e-04
 -2.8735593e-02
  1.1962004e-03
 -8.5692732e-03
 -8.5826190e-03
 -2.0134646e-02
 -8.2015634e-02
  1.1975332e-02
  2.8915638e-02
  6.1975554e-02
  3.1721029e+00
 -3.7726650e-01
 -4.5641370e-02
 -4.9781963e-02
 -3.4101520e+00
  4.0376922e-01
 -3.0237326e-02
 -1.8427345e-03
  2.4063599e-01
  1.4364886e-01
  4.5401130e-02
  3.8486761e-01
  3.3041427e-01
  5.5782516e-03
 -1.9429342e-01
 -1.8693142e-02
 -1.9331725e+00
 -1.2929042e-02
 -4.0822174e-02
 -5.6658763e-01
  6.0571958e-03
  3.1464952e-01
  1.0917759e+00
  3.0209932e-01
  5.4176776e-03
  1.5626603e-01
  1.1580194e-01
  3.8349938e-01
 -2.4547013e-02
 -8.2210690e-01
  1.0617946e-02
  4.5234969e-01
  1.4919847e-01
  7.3076956e-02
  3.2829249e-01
  2.1026587e-01
  9.9173144e-02
 -1.2707742e-01
 -7.1142548e-01
  3.2112238e-01
  1.7077510e-01
 -3.1634971e-01
 -6.7512602e-01
 -7.5407124e-01
  2.1168153e-01
 -1.1275134e-01
  4.8847497e-02
 -3.3264574e-02
 -2.2083726e-03
 -2.1136578e-02
  5.0483372e-02
 -1.3356968e-02
  7.1165793e-02
 -5.4083355e-02
 -1.0430148e-01
 -4.4932771e-03
  6.1818436e-02
 -1.5710225e-02
  2.8991869e-02
 -6.4074382e-02
  2.6011100e-02
  8.2513569e-03
 -4.0782295e-02
  2.2602148e-02
 -7.9268180e-03
  1.8905156e-03
 -3.0177247e-02
 -6.2666744e-02
 -9.3304396e-02
 -9.0451277e-04
  5.9603084e-02
  3.9330564e-02
 -5.6463335e-02
 -3.2214310e-02
 -9.8232217e-03
 -1.4079824e-02
  2.2912918e-02
  1.3382531e-03
 -3.0575063e-02
 -2.8769538e-02
 -2.1779452e-02
 -1.0677990e-01
 -3.0811677e-02
  1.8357998e-02
 -2.3134267e-01
 -1.7644819e-02
  5.2019530e-03
  5.8472522e-02
 -3.6899976e-02
  5.4075971e-02
  1.3115272e-03
 -3.1432614e-02
  2.8253018e-03
 -3.7971976e-01
 -2.4989868e-02
  6.8853642e-03
 -1.9534044e-02
  2.2261418e-02
 -8.9791333e-03
  3.1924043e-02
  8.8254092e-03
  1.8973270e-02
  5.4373626e-02
  4.5340466e-03
 -2.4094224e-02
  1.3310612e-03
 -1.8991062e-02
 -1.1672877e-01
  2.0747930e-01
 -2.3386675e-01
  5.0970256e-02
 -1.2573404e-02
  5.2859057e-03
  2.4016391e-01
 -4.6463166e-03
  6.1291579e-02
  8.1847738e-03
 -1.0968357e-01
 -7.0928812e-02
  2.2417201e-02
 -3.7751680e-03
  8.5040234e-02
  1.6406460e-02
 -5.3189239e-03
  3.5752109e-01
  1.5083765e-02
  9.2281755e-03
  1.2158227e-02
 -2.2059664e-02
 -6.0689576e-02
 -5.1160630e-02
 -5.2414462e-03
 -1.4552378e-02
  1.5786725e-01
 -4.1367102e-02
  3.3998188e-02
  6.0387470e-02
  3.9565731e-02
 -1.2100390e-02
 -8.9921113e-03
 -2.2159910e-02
  2.0162468e+00
  1.9491412e-02
 -2.8796634e-02
 -1.5235363e-02
  2.0807717e-02
 -1.1477184e-02
  8.5954078e-02
  1.5855055e-01
  5.0765265e-02
 -4.1146569e-02
  2.9497951e-01
  2.2864632e-02
  4.0736552e-03
  6.9942581e-04
  5.0387971e-02
 -3.9653618e-02
 -5.0568003e-02
 -7.3998831e-02
 -2.0832606e-02
 -3.2370570e-03
 -1.1455333e-02
 -8.8717639e-01
  4.1083622e-01
 -2.0682812e-02
 -4.7859870e-02
 -2.8248772e-01
  2.6749823e+00
  2.1569364e-02
  7.1592785e-02
 -8.6837870e-01
 -3.5893756e-01
 -1.7895105e-01
  1.2593210e-02
 -7.5295317e-01
 -2.0201976e+00
 -1.2707995e-01
  1.0935481e-01
 -1.7597051e+00
  7.5462364e-02
  1.4584817e+00
  1.2605745e-01
 -7.9242867e-01
  8.2730770e-02
 -2.6978868e-01
  4.4628835e-01
  1.6234143e-02
  2.5239524e-01
  2.4159604e-01
  9.0517616e-01
 -1.3822345e-01
  8.2269264e-03
  5.2900767e-01
 -1.4689262e-01
  2.6986662e-01
 -4.5918986e-02
  5.1166695e-01
  5.3734225e-03
 -8.3826013e-02
  1.6584091e-01
 -1.8205930e-02
  7.7008551e-01
 -2.3814358e-01
 -3.7189864e-03
 -6.8935468e-03
 -4.9923465e-01
 -3.1131420e-03
 -2.3945017e-02
  6.8814792e-02
  3.3624183e-02
  4.8347437e-03
 -2.7334992e-02
 -2.1912143e-02
  2.0346953e-01
  4.5108393e-02
  1.1236733e-02
  1.3887540e-02
  1.0922172e-02
  3.9463378e-02
  4.2854767e-02
 -1.3982588e-02
  2.8784809e-01
 -4.7921982e-02
  1.5776826e-02
  4.6880919e-02
  4.7500376e-02
  2.6680324e-02
  9.5395409e-03
  1.2211360e-02
 -4.3127734e-02
 -3.8977996e-02
 -4.5866002e-03
  1.9333421e-01
  1.5643966e-01
 -1.0924981e-02
  8.2385316e-02
  8.5701691e-03
  1.1787198e-02
 -2.5167954e-01
 -4.4196803e-02
  7.7181898e-02
 -2.6758462e-02
 -4.0300835e-02
  4.1322090e-02
  4.7320675e-02
  1.1141582e-02
 -6.4491844e-03
 -5.1792096e-03
  3.6198772e-02
  9.7939628e-04
  1.2293441e-01
  4.6657726e-02
 -3.3883609e-02
  3.2345701e-02
  4.5527793e-02
  9.4126761e-03
 -1.8075511e-02
  4.9450163e-02
 -5.8717571e-02
  3.4731254e-01
 -1.9404215e-03
  8.7801352e-02
  6.9053657e-02
  3.3332106e-02
  2.7823081e-02
 -4.7039140e-02
 -1.7134991e-02
 -8.9678494e-03
 -5.0445005e-02
  4.1469578e-03
 -1.8692304e-01
  6.6183276e-02
  3.4491301e-02
  6.5121786e-03
 -7.6821111e-02
 -8.2600549e-02
 -1.9939451e-03
  1.6183164e-02
 -9.5575675e-02
  1.5315508e-02
  1.5841125e-02
  1.1731358e-01
  2.8750468e-02
  2.3423435e-02
  1.5546978e-02
  1.7974397e-02
  1.1975123e-02
 -5.2100703e-02
 -5.8232650e-02
 -7.7642404e-02
  1.1868249e-02
  9.0396572e-03
  2.8331678e-02
 -1.4306457e-01
 -4.3575726e-02
  5.3966828e-02
 -2.9650347e-02
  1.6010271e-02
  2.0351131e-02
  2.2943117e-02
  3.0366430e-02
 -2.2864553e-01
  6.1671593e-04
  4.9089570e-02
 -1.5642721e-02
  2.4987819e-02
 -1.2675540e-01
  2.6894258e-02
 -3.1042488e-02
  1.7357199e-02
 -7.4572153e-02
 -2.8991487e-02
 -1.0310068e-02
  2.8688937e-02
  7.8197114e-02
  3.2171343e-02
  1.2100490e-02
 -1.3804850e-02
  2.3353245e-02
  8.4896885e-02
  8.1490591e-02
 -7.1166724e-02
  5.0606299e-03
 -7.0000873e-03
 -8.2348317e-01
 -1.0938745e-01
  1.7001048e-03
 -2.0370942e-02
  3.9062598e-03
  2.2776417e-01
  2.0249750e-02
  3.5827756e-02
 -3.5883136e-02
 -5.1511258e-02
 -9.3643583e-02
 -1.5595472e-02
 -7.2904867e-03
 -2.1682551e-02
  7.5700399e-03
 -2.1704875e-03
  2.7246715e-03
  3.2155883e-02
 -4.8740935e-02
  2.1171419e-02
  3.3803713e-02
  5.3137295e-02
  2.0647964e-02
  1.0331915e-02
 -1.0933107e-02
  1.8415451e-02
  2.2585856e-02
  6.9066703e-02
  1.2808950e-02
 -2.9596493e-02
 -6.4957432e-02
 -1.1778546e-02
  1.6999038e-01
 -1.0192395e-01
  8.4954008e-02
 -8.8242635e-02
 -3.8788590e-01
 -1.6171508e-02
 -1.1469784e-02
  3.8355898e-02
 -6.8443090e-02
  2.0043789e-01
 -1.6939176e-02
  8.4555320e-02
  2.0127168e-03
  9.1878697e-03
  1.5696438e-02
  4.1215494e-03
  4.2569313e-02
  1.0404913e-02
 -3.0258941e-04
  2.6273515e-02
 -4.4424953e-03
  5.3363480e-02
  2.4771241e-02
 -9.0090024e-01
 -6.9833748e-02
 -6.1605547e-02
  2.0434368e-02
  3.7182890e-02
  1.6087359e-02
 -1.3577896e-02
 -4.0533267e-02
 -2.8923785e-02
 -6.4867765e-02
  2.9025961e-02
  8.9154821e-03
 -7.6320707e-03
  2.2672087e-02
 -7.1885906e-02
 -5.3255791e-03
  2.7065484e-02
  1.8606383e-02
  1.1030214e-01
  6.7029819e-03
 -2.4093412e-02
  1.5945340e-02
  4.4491187e-02
 -5.4258020e-03
  2.8689468e-02
  6.9396757e-03
 -1.2866590e-02
  1.3391951e-01
 -1.2496180e-03
 -5.2837752e-02
  6.0749501e-02
  6.0420424e-02
 -1.3073522e-02
  6.7548424e-02
 -1.1300988e-01
 -2.2254396e-02
 -4.9993813e-02
 -6.1897421e-03
 -2.1362513e-02
 -2.2795586e-02
  6.0360540e-02
  1.9718457e-02
  3.6698561e-02
  8.2212570e-04
  7.0400752e-02
 -4.9083181e-02
 -8.2236966e-03
  4.4877365e-02
 -7.2467312e-02
 -6.7157820e-02
  3.9599512e-02
  8.7419651e-02
 -3.2106429e-02
 -3.2206662e-02
  1.5106380e+00
 -5.6759257e-02
 -3.5863895e-02
 -2.0420203e-01
 -4.1794786e-01
  5.4567736e-03
  7.7647339e-03
  5.7913821e-02
  1.4624029e-01
  1.4070265e-01
 -2.1775760e-01
  2.9780293e-01
  2.0376198e-01
  1.1821036e-02
 -7.0006745e-03
 -3.4067705e-01
  1.2381237e-01
 -3.7039253e-01
 -1.5070937e-02
 -1.1824340e+00
 -2.4873706e-02
  2.8898874e-02
 -5.2394858e-03
  1.8225143e-02
  3.0441377e-01
 -6.8157792e-02
 -1.0261679e-01
  3.6802053e-02
 -3.0226004e-01
  4.7766369e-02
  1.2329771e-01
  4.9521055e-02
  3.5733219e-02
 -2.7290052e-01
  1.6814524e-01
  7.8793637e-02
  5.7016972e-02
 -3.0650684e-01
  1.3305001e-02
  3.5415509e-01
 -1.3035512e-02
 -9.5736697e-02
  2.1966781e-02
  2.2998919e-01
 -3.1908236e-02
  3.9862748e-03
 -2.6029723e-02
  1.5392457e-01
 -2.8326325e-03
  8.6060882e-02
  6.3482802e-03
  2.9007878e-02
  8.5467398e-03
 -1.6436666e-01
  1.3201317e-02
 -1.8710447e-03
  1.1448291e-02
  4.3079607e-02
 -7.4974000e-02
  2.1367693e-02
  2.4667295e-02
 -1.1778851e-02
 -3.5059219e-03
 -2.8447729e-02
 -4.2198330e-02
  4.3179993e-02
  5.0579128e-03
 -4.2559020e-03
 -5.6995419e-03
 -3.5849854e-01
  1.2933695e-02
  8.5115535e-03
 -3.9519921e-02
 -1.8255541e-03
  5.3249098e-02
  6.5511435e-02
  2.9286858e-02
 -1.2596276e-01
 -5.9316926e-02
  5.1799547e-02
 -5.2809443e-02
  1.9194314e-02
 -1.8402365e-03
 -3.1382471e-02
  9.9885100e-03
 -9.8386649e-03
  4.9886685e-06
  1.4635125e-01
  5.8938738e-02
  4.0874863e-03
  9.3026990e-03
 -4.8302416e-02
 -5.5943136e-03
 -7.8474455e-02
 -1.0294982e-01
  4.2543028e-02
 -7.1534798e-02
  1.1489288e-02
  2.7877327e-02
  1.0501986e-03
 -2.9087737e-02
 -7.1073864e-03
  3.3983447e-02
 -1.1183921e-02
  6.0942564e-02
 -1.9856106e-02
  3.4902699e-02
  8.4196217e-02
 -4.1813109e-02
  1.8658547e-02
 -7.7690318e-02
 -2.9283250e-02
  1.3550314e-01
  8.7238066e-02
  1.0490601e-03
 -8.5119001e-04
 -5.0115261e-02
 -1.5995139e-02
 -4.5312736e-03
  4.1287422e-02
  2.1309022e-02
 -2.5978710e-03
  2.2427011e-02
  1.6597745e-01
  4.3585990e-02
  3.7153903e-02
  2.8528694e-02
  4.7789723e-02
 -3.0140819e-02
 -1.0359510e-01
 -1.1190666e-01
  3.2016989e-03
  5.4166012e-02
 -1.1074797e-02
  2.2020347e-01
 -4.0020864e-02
 -1.5512778e-02
  3.1196130e-03
  7.7272430e-02
 -6.4671859e-02
  5.4767784e-02
 -6.7948267e-02
 -1.9295335e-02
  5.8357436e-03
  8.7503800e-03
  8.9405477e-02
  2.2556247e-01
 -1.8943893e-02
  9.7774938e-02
  4.5816645e-02
 -7.4172772e-02
 -6.9068624e-03
 -3.3375733e-02
  3.4094915e-02
  1.0197225e-03
 -1.4134305e-02
  4.9319719e-03
  2.3835093e-02
  6.0266317e-03
  4.3665592e-02
 -1.6403703e-02
  1.5378395e-02
 -6.6803999e-02
 -4.4979970e-03
 -1.1627284e-02
  8.0112116e-03
  2.5900468e-01
 -5.7130143e-02
 -7.4428156e-02
  2.2728372e-02
 -5.2095152e-02
  1.6917004e-03
 -3.2015212e-02
 -4.1638318e-04
  5.7598718e-02
  1.1186061e-02
 -2.4712135e-04
  3.9747901e-02
  5.2818507e-02
 -4.1878220e-02
  1.6215117e-01
  4.7533937e-02
  8.7514557e-02
 -2.0250221e-01
 -1.5139036e-02
 -3.2385878e-02
  7.5981230e-02
 -4.8940185e-02
  2.7272362e-02
  3.4429494e-02
 -1.2251759e-01
 -1.8121211e-02
  2.2468360e-02
  1.8741273e-03
  6.9369525e-02
 -1.5171018e-02
 -1.3404915e-01
  2.6032021e-02
 -1.3674852e-03
 -1.2122193e-02
  8.9607827e-02
  4.0326092e-02
  7.7741437e-02
 -4.8636436e-02
  4.5105550e-02
 -9.7832978e-02
  4.2280741e-02
 -3.6905669e-02
 -2.2315132e-02
 -1.6187872e-03
  5.4237913e-02
 -2.4150901e-02
 -5.1229945e-03
  2.0436116e-02
 -1.2265500e-02
  3.2855431e-03
 -1.2129842e-01
 -1.2302951e-02
 -1.0208942e-01
 -5.1539898e-02
  2.9621205e-01
  9.4483299e-03
  2.0269455e-02
 -7.5007663e-03
 -1.1028687e-02
 -1.0829815e-01
  1.0304613e-02
 -3.4483240e-03
 -6.2191788e-02
  9.0902589e-02
  3.8283775e-03
  1.0854028e-01
  6.2403284e-02
  6.1594822e-02
  1.1893672e-02
  1.6497895e-01
  1.7349606e-02
 -1.8214291e-02
 -4.6792220e-02
 -1.3981529e-02
  2.6650388e-02
  1.5741931e-02
  1.1170028e-01
  3.5969913e-03
 -4.6292052e-02
 -1.0361919e-02
  1.5860373e-03
 -2.0430462e-02
  1.2957029e-02
  9.9899527e-04
 -1.6773822e-03
 -2.7247712e-02
 -1.5152928e-02
  2.2117620e-02
  3.5473883e-02
  4.7431581e-02
 -4.9561425e-03
  4.2792857e-03
  2.0510804e-02
 -9.0363645e-04
  4.7991893e-05
  8.6505590e-03
  5.6997867e-04
 -5.1501291e-03
  2.3477538e-02
 -9.3547702e-03
 -1.5350966e-03
  1.7936463e-02
  9.0943193e-03
  4.1632771e-01
 -3.0998555e-01
 -2.6885182e-02
  2.3564335e-02
 -2.6055204e-02
  1.7579620e-01
 -3.7466758e-03
 -6.2588034e-03
  1.7245533e-02
 -3.5350569e-02
 -1.3963710e-02
  6.8028353e-04
  6.1395653e-02
 -1.3020515e-02
 -5.9827762e-03
 -3.9170783e-02
  1.4982413e-02
  1.0626585e-01
 -1.1926810e-02
 -1.0316866e-02
 -2.0226019e-02
 -7.0844986e-02
 -2.2020098e-02
  6.0923960e-02
  2.5876841e-02
 -1.7019358e-02
 -8.0953211e-02
  1.7251380e-01
  1.0471102e-02
  8.3414234e-02
  7.1808412e-03
  7.3409654e-02
 -3.4044802e-02
 -9.0536512e-02
  2.6839154e-03
 -1.2647398e-01
 -1.4364401e-02
 -8.5695488e-03
  4.2507924e-02
 -6.3792965e-03
  3.2641619e-02
  5.9920643e-02
 -1.1316821e-01
  1.3104048e-01
  3.5339633e-03
  2.6921418e-02
 -3.3262368e-02
  2.0252883e-02
 -1.3038874e-02
 -1.1998567e-01
  1.1207892e-02
 -1.2572486e-02
 -4.9218284e-03
  1.8932313e-02
 -1.9010082e-04
 -6.5368697e-02
 -2.6175160e-02
  1.7725177e-02
  1.8439025e-02
  4.2064344e-03
  2.8122732e-02
  1.7365746e-02
  1.0010420e-02
 -1.2976044e-02
  6.8685487e-02
 -1.8697932e-01
 -1.0771424e-01
 -5.5145990e-02
  6.2798962e-02
 -2.6170628e-02
  1.0225790e-01
  5.1727764e-02
 -2.2029933e-02
  4.9883116e-02
 -2.1636582e-03
 -4.9438551e-03
 -9.9495567e-02
 -3.5329239e-04
  2.1517245e-04
  5.6856060e-03
  3.7831264e-03
  9.7315805e-03
 -1.4155409e-02
 -6.5927627e-03
  6.6116221e-02
 -2.6555445e-02
 -2.7264828e-02
 -5.1366124e-02
  1.3055169e-02
 -1.0513471e-02
 -2.8460946e-02
 -1.5605739e-02
 -2.6512437e-02
  2.1041769e-01
  2.1581927e-02
  1.0726496e-02
  9.3484126e-02
  1.4410395e-03
  7.5238328e-03
 -1.5101300e-02
  1.5605508e-02
  3.0908419e-03
 -7.3647492e-02
  4.6037035e-03
  3.0526636e-02
  3.4561772e-02
 -3.4099279e-03
  5.4124307e-02
  1.8164710e+00
  1.6369554e+00
  1.0749621e-02
  5.5221207e-03
 -1.2865993e+00
 -1.6805454e+00
 -2.1218613e-02
  1.4205109e-02
 -5.5049001e-03
  2.5281649e-02
  4.6792114e-01
  2.8664812e-01
  4.6810444e-02
  3.2546666e-01
  1.5788107e-01
  4.1314818e-02
  6.2495083e-01
 -3.2960138e-01
 -1.0082167e-01
  3.2428507e-02
 -3.9906561e-01
  3.1764650e-01
 -3.8352239e-01
  6.9702011e-01
  2.0998949e-02
  4.4056261e-01
  2.3118100e-01
 -2.4802034e-01
  1.0772260e-01
  3.2752925e-01
  1.4847042e-02
 -6.9963986e-01
  9.7873676e-01
  2.3264241e-01
 -3.8935256e-01
  7.9939938e-01
  2.2234544e-01
  1.7654162e-02
  4.6500796e-03
  2.4851499e-02
 -5.4905152e-01
  1.1307570e+00
 -7.6480983e-03
 -2.6684868e-01
  1.8788832e-01
 -6.0800001e-02
  2.5558921e-02
 -7.9168595e-02
  4.4516786e-03
 -2.0244326e-01
  7.6741800e-02
  2.4734870e-02
  5.3605938e-01
  1.7510083e-03
 -9.3921544e-03
 -3.1146932e-01
  4.7982797e-02
  1.2242734e-01
 -4.8607719e-01
  6.6440797e-01
  6.1706132e-03
  7.0207536e-02
 -1.0740094e-02
 -2.0321734e-02
 -3.8367357e-02
  5.3540152e-03
 -2.8184885e-02
  3.1203858e-03
  7.8508191e-02
 -2.0928133e-02
  6.1230663e-02
  3.4554715e-03
 -4.3187730e-02
  1.0957350e-03
 -3.0090388e-02
 -1.6041793e-02
 -1.3220628e-01
 -4.2589031e-02
  6.9533326e-02
 -2.2821492e-02
 -2.5705026e-02
  8.9446912e-03
  5.6753459e-04
  9.3287127e-03
 -2.6364099e-02
  3.3459738e-03
 -1.6341986e-02
  3.9303834e-03
  7.1921483e-02
  1.2809052e-02
  3.0692114e-05
 -1.0525834e-02
 -1.5377298e-02
  5.0867241e-02
 -2.0795837e-02
 -3.6447242e-02
  9.3510538e-02
 -8.7057151e-02
 -1.0032397e-01
  2.3324203e-02
  3.6372512e-03
 -4.7731619e-02
  3.3918705e-02
 -1.6697746e-03
 -1.7596196e-02
 -2.9649108e-03
  3.9755073e-03
 -5.5498786e-02
 -2.0670243e-02
  9.6968889e-01
  1.3990189e-02
 -9.4019779e-04
 -3.0574927e-04
 -8.7700181e-02
 -3.5548426e-02
  7.2718952e-03
  1.3960487e-02
  1.5318163e-01
  2.2922583e-02
  5.5550564e-02
 -3.5383999e-02
  1.5191099e-02
 -3.2632776e-02
  1.5756208e-01
 -5.1424451e-02
 -7.3573433e-02
  5.1296938e-02
 -1.1169266e-01
 -8.5824184e-02
  3.8636357e-02
 -1.6522897e-02
 -1.0867971e-02
 -4.1211963e-02
 -9.2017595e-03
  1.5185714e-02
 -1.0071322e-01
 -8.0834433e-02
  1.5259151e-02
 -7.0745600e-03
 -1.6562963e-02
  2.6773613e-02
  6.2159032e-02
 -3.4758076e-02
  4.3919899e-02
  3.2068624e-03
  4.8917264e-02
 -6.8653904e-02
 -2.8078312e-03
  2.4059786e-02
  2.0971958e-02
 -2.7312960e-02
  4.4744082e-02
 -1.0053092e-02
 -2.7736163e-02
 -1.5735488e-02
 -7.9308361e-02
  2.8146109e-02
  9.6490774e-03
  3.8524345e-02
  1.2384249e-02
  9.8202273e-02
 -1.4592105e-02
 -3.0508300e-02
  9.8588914e-02
  2.5141895e-02
 -5.5747185e-02
 -2.8590048e-02
 -9.5573016e-02
 -8.9171333e-03
 -5.7648751e-03
  7.4729957e-02
 -1.9295068e-02
 -3.7088208e-02
  1.8887255e-02
  1.0231817e-02
  4.4125034e-03
 -8.5036159e-03
  6.3617751e-02
 -2.8140996e-02
 -2.3194950e-02
 -7.2658747e-02
 -7.0318780e-03
  8.0267424e-03
 -5.4266810e-02
 -1.5819602e-02
 -5.4895204e-02
 -1.2720093e-03
 -5.2478414e-02
 -8.3399694e-03
 -2.9496113e-02
 -9.9609703e-02
  3.6981445e-02
 -4.1551083e-02
 -2.8867498e-02
  1.2801440e-02
  1.8569079e-03
 -3.6660723e-02
  1.6127224e-01
  2.4287406e-02
 -1.3368072e-02
 -6.8883650e-02
 -3.4931537e-02
 -8.7123975e-02
 -5.4280344e-02
 -1.2654073e-02
 -1.7244083e-01
 -5.4900278e-03
 -8.1779540e-02
 -5.6691051e-02
 -3.7730299e-02
 -4.6403594e-03
 -1.2183820e-03
  5.5074575e-03
 -4.9182780e-02
 -4.0246551e-03
 -4.2422460e-03
  1.4788538e-01
 -5.1135980e-02
 -8.1278905e-03
  1.1674522e-02
 -6.1215091e-01
  4.4423941e-01
  7.1757488e-02
  4.7087749e-03
  3.3791766e-02
 -9.8275654e-02
  1.1850729e-03
  5.1178718e-03
  1.3256559e-01
 -1.5098815e-01
  2.3297331e-01
  4.9597621e-02
  1.9976711e+00
  1.1915880e-03
 -2.9334564e-02
  2.5624326e-01
  1.5724549e-02
 -1.3097900e-02
 -2.3877816e-03
  5.1151007e-02
 -6.8304405e-02
  6.1622578e-01
 -6.0023016e-01
 -3.8975734e-01
  5.6712802e-02
  2.0278312e-01
 -3.2481411e-01
  3.7817817e-02
 -1.7242508e-02
 -2.0044761e-02
 -2.4673091e-01
 -5.3447586e-01
 -4.3165869e-01
  1.9225489e-02
  1.3717155e-01
 -4.6685135e-01
 -1.6243747e-01
 -8.6513734e-01
 -2.2050781e-02
 -1.2876284e+00
 -2.9695493e-01
 -7.6493643e-02
  5.2952701e-03
  5.1499330e-03
 -1.5760781e-02
  1.2854214e-02
  1.2687828e-02
 -2.1000950e-02
 -5.0080079e-01
 -1.5217279e-01
 -6.8476290e-01
 -1.2295213e+00
  1.3128418e+00
 -3.4284737e-04
  8.0472517e-01
 -3.8573389e+00
  3.2887369e-02
 -5.3931292e-02
  2.7210061e-03
  5.3689033e-01
  1.9375423e-01
  1.9691916e-01
  1.4552020e+00
  7.2358090e-01
  1.0452652e-02
  7.5932100e-02
 -4.8691672e-01
 -9.2649665e-03
 -1.5252985e+00
 -5.4593594e-03
  8.2161218e-01
 -2.1358463e-01
  1.1361142e-01
  5.2036685e-01
 -3.5088927e-01
 -2.0760067e-02
 -3.7289310e-02
 -1.6433276e+00
  7.2217688e-02
 -2.6065087e-02
 -1.4266469e+00
 -3.5150331e-01
  7.5326884e-01
 -7.8432903e-02
 -9.5421404e-01
 -2.9991458e-03
 -2.4468188e-01
 -2.5571186e-02
  7.8383410e-01
 -6.4104682e-01
 -1.2603099e+00
  3.8164476e-01
  3.0703354e-01
 -8.9414907e-01
  3.2363258e-02
  6.2731998e-03
  1.7496757e-02
 -3.2971781e-02
  3.8019065e-02
 -2.9655506e-03
  7.1297891e-02
 -2.0074463e-01
 -5.7739305e-01
 -5.2859973e-02
 -3.6529556e-02
  1.4968236e-01
 -3.7372459e-02
  4.4025704e-02
  9.2037832e-03
 -6.4382426e-02
  4.3914363e-02
  5.1299524e-02
  1.1298154e-02
 -9.9243934e-04
 -5.1090671e-03
  9.9776022e-02
 -2.7360255e-02
  7.0294105e-02
 -7.2433569e-02
 -5.9355155e-02
 -1.7321141e-02
 -6.9622755e-02
  6.0087902e-04
 -1.6721101e-02
 -4.0871385e-03
  2.0905420e-02
  3.7081379e-02
  2.9856991e-02
 -6.0841389e-02
  1.2733213e-03
 -3.7180509e-02
 -1.6540822e-01
  1.9268323e-01
  2.3563494e-01
 -3.9820757e-02
 -1.4262463e-02
  1.3933394e-02
  1.4681241e-01
 -5.1429109e-03
  1.4056574e-01
  6.6884980e-02
 -9.8942101e-02
 -2.9324785e-02
 -3.8229052e-02
 -1.6807599e-01
 -3.5080705e-02
  4.3061212e-02
 -1.1755482e-02
 -4.4844624e-02
  9.1609573e-03
 -3.5492957e-03
  4.7646023e-02
  1.2771212e-02
 -3.6361668e-02
  1.8515864e-03
 -2.0557662e-04
 -3.3704415e-02
 -3.5020743e-02
 -8.1755914e-02
 -5.8471117e-02
 -8.2491292e-04
 -6.5898402e-03
 -9.0772463e-03
  3.0535641e-01
 -5.4076739e-02
 -1.8234681e-02
 -3.2162663e-02
 -3.0496954e-03
  4.1068051e-02
  3.7256684e-02
  6.1762449e-04
 -7.6246738e-02
  2.7703298e-02
 -5.5809427e-02
 -8.6693652e-04
  1.9679967e-01
 -7.6860948e-03
 -2.6459219e-03
  2.6330942e-02
  6.3477784e-02
  2.5214532e-02
  4.5997243e-02
 -3.7533445e-03
 -3.1385779e-02
 -4.6027070e-03
  2.7893703e-02
  1.0963652e-01
 -6.0354341e-02
 -5.9870511e-02
 -4.7987413e-02
  1.0083579e-02
 -5.0573930e-02
  6.0624494e-03
 -1.7296447e-01
 -4.1655712e-03
  9.7876536e-03
  1.9810252e-02
 -1.7775349e-02
 -9.3640340e-03
  1.4587529e-01
 -7.9261633e-03
 -1.0979861e-02
 -1.6229080e-02
  2.6176095e-02
  5.2288859e-03
  6.2452247e-03
 -3.3614025e-02
  4.4628726e-03
 -3.5454161e-02
  5.5526774e-03
 -3.3839464e-02
  3.0738820e-04
 -1.4585227e-02
  2.8469175e-01
 -1.0452887e-01
 -4.2662855e-02
  2.4504156e-01
  1.1471961e-02
 -8.1034213e-02
 -5.7951786e-04
 -5.3075505e-03
 -1.3656868e-02
 -6.8574411e-01
  1.3555313e-02
 -1.1588816e-01
  6.5508090e-02
 -1.4085682e-02
 -2.9533654e-02
 -1.4927214e-01
 -1.4856999e-01
 -5.5647246e-03
  1.3092288e-02
 -4.4019375e-02
  5.2484535e-02
  2.0256433e-01
  4.2879313e-02
 -4.7605306e-02
  7.5770639e-02
 -6.3516507e-03
 -1.4295762e+00
  2.4712032e-02
  1.1769578e-01
  5.6215890e-02
 -4.1487750e-02
  4.0353802e-01
  4.5686990e-02
 -3.2710567e-02
  5.4315433e-02
  1.8735472e-02
  3.7067027e-03
 -2.0589393e-02
 -4.9664561e-02
 -3.0149156e-01
 -3.9631425e-04
 -1.4958359e-01
  7.3545370e-03
  2.9277790e-02
  3.0720220e-03
 -1.1174296e-02
  5.2030861e-02
 -3.2801207e-02
 -1.9334508e-02
  1.9722706e-02
 -1.2867102e-02
 -6.3040317e-03
 -3.8643472e-02
 -1.0912101e-02
 -2.3213381e-01
 -7.6016467e-03
  1.4331564e-02
 -1.9047811e-03
  3.9634831e-02
 -9.9655485e-04
  2.6877476e-02
  5.5525057e-02
 -2.4381995e-02
 -8.3038565e-03
  3.5658255e-02
 -7.0862509e-02
  1.5412659e-02
 -5.2164830e-02
 -4.4772319e-02
  1.5347082e-02
 -1.5870882e-02
 -4.5095503e-02
 -7.9293199e-02
  6.1603235e-03
 -4.3173607e-02
 -1.4698588e-02
 -4.1877635e-02
 -3.6635857e-02
 -1.3826956e-02
 -2.8645864e-02
  8.7182052e-02
  3.0058738e-02
 -2.4001444e-02
  2.3449169e-02
 -2.6236873e-02
  3.4467965e-02
  4.0656604e-02
  5.3356610e-02
  5.1818755e-03
  9.4483010e-03
 -2.1087830e-01
  1.0909982e-02
 -5.8221560e-02
  8.5479029e-02
  2.0137338e-01
  7.6847216e-05
  4.1815557e-02
  7.2054304e-02
  2.4457283e-02
  4.5226280e-02
 -8.9202942e-03
 -2.6150201e-03
 -4.5530498e-03
 -5.6526912e-03
 -7.6933890e-03
  2.5229768e-03
  3.5598729e-02
 -2.1938285e-02
  1.2462241e-01
  6.7886211e-02
  6.1766889e-02
  7.9155445e-02
 -1.8711963e-01
 -1.6439395e-02
  1.2185779e-01
  8.0182217e-03
  1.7802099e-03
 -8.5822288e-03
  4.3544982e-02
  3.1385850e-02
  1.0211543e-01
  3.5403993e-02
  7.8091086e-03
 -1.2095784e-01
 -1.3471091e-01
 -2.7019607e-02
 -8.4496997e-02
 -2.1164317e-02
  5.9432700e-02
 -1.3466587e-02
  9.8888658e-04
 -5.2160020e-03
 -2.0202747e-02
 -3.2864850e-02
 -4.0357549e-02
  4.4623196e-02
  1.4674888e-02
 -6.0145864e-03
 -2.0934377e-02
  6.6788845e-02
 -6.4680628e-02
  9.4618574e-02
 -4.3380477e-02
  5.2165490e-02
 -3.7041631e-02
 -2.2483962e-02
 -1.8737252e-01
 -1.2997250e-01
 -3.2125413e-02
  6.8149660e-03
  9.9311739e-02
 -7.5651065e-02
 -8.6946292e-03
 -8.8215590e-02
 -3.6069695e-03
  2.5144280e-03
  3.1331636e-02
  2.7306264e-03
  2.9176842e-02
 -2.3784038e-02
  3.7055247e-02
 -3.0482894e-02
 -5.5199039e-01
 -8.4273638e-03
 -4.9780281e-03
 -2.9796476e-02
  6.1066583e-02
 -2.6087629e-02
 -2.4131024e-03
 -1.3356297e-01
 -3.9517570e-02
 -5.3610649e-02
 -3.5282280e-02
 -7.5700572e-03
 -1.0310777e-02
  1.1825593e-02
 -1.4075151e-02
 -5.5421540e-03
 -1.6439246e-02
  4.1916545e-02
 -5.1763419e-02
  6.0705706e-02
  4.1689061e-02
 -2.5105871e-02
 -5.9841782e-02
 -1.2000358e-01
 -1.2470954e-02
 -2.1233808e-02
  5.2408982e-02
 -5.4867862e-04
  1.6984966e-02
  8.8317841e-02
 -2.1646076e-01
 -2.3162293e-03
 -3.4341988e-01
  8.4931351e-02
 -5.3565066e-02
 -2.2823410e-02
  1.9693237e-02
  2.3617845e-02
 -9.2496740e-04
  1.3834610e-02
  1.4154642e-02
 -1.8693586e-01
 -9.5243249e-03
 -2.9731262e-02
 -1.2959052e-02
 -2.6527469e-03
  4.6063367e-02
  1.9093448e-02
  3.3881627e-02
  1.5585127e-02
 -3.8919389e-02
 -6.7896647e-03
  4.1084126e-02
 -7.2542862e-03
  2.0051101e-01
  1.1011466e-01
  2.1789212e-02
  2.9083526e-01
 -1.9877011e-01
 -5.3404886e-02
  6.5607026e-02
 -1.1729608e-02
  9.4715372e-02
  9.2196696e-02
 -2.0042766e-02
  9.1097448e-03
 -1.9218083e-02
  2.1389766e-02
 -5.4544099e-03
 -3.1939811e-01
 -5.6347544e-03
 -2.6298644e-02
 -1.7901586e-02
 -1.1498899e-02
  7.5194524e-03
  6.0996391e-02
 -3.0375007e-03
 -1.1997148e-02
 -6.4596936e-02
  1.2455310e-01
 -6.3401656e-03
 -6.7825788e-03
  4.5228928e-02
  8.5244253e-03
 -8.7966546e-03
  7.4498099e-03
 -1.4270002e-02
  1.9679090e-02
 -3.6422171e-02
  4.3439049e-02
 -2.9486097e-02
 -2.9825572e-02
  5.1688023e-02
 -3.6929063e-02
  5.2977712e-03
 -2.1158891e-02
 -8.3036073e-02
  4.2908236e-02
  7.5189389e-02
 -1.2943173e-02
  5.0656844e-02
  1.4777182e-03
 -7.2801951e-03
  1.5782306e-02
 -5.8642466e-02
 -6.7229919e-02
  1.3320767e-03
 -4.8810322e-02
  3.9329559e-02
 -3.6143472e-03
 -4.5598336e-03
  4.7648448e-01
 -1.8345925e-01
 -8.6665731e-03
  2.4928220e-02
 -1.4536195e-02
 -2.5365665e-03
  1.2938985e-01
 -2.4078529e-02
  2.8674299e-02
 -1.2311427e-02
  1.2560400e-02
  4.4010922e-02
 -1.0031950e-01
  1.3184291e-02
 -3.6010597e-02
  5.2300422e-03
 -1.0608458e-01
 -2.0831553e-02
  7.7347066e-03
 -1.9465514e-02
  9.9740112e-03
 -5.1324081e-02
 -3.6368597e-02
 -1.8336305e-02
 -3.7361041e-03
  2.0630650e-01
  1.0558594e-02
 -1.1156078e-01
 -5.3290740e-02
 -2.1771876e-02
  2.3030207e-01
 -1.2285276e-02
  5.1718879e-02
 -7.8031444e-03
  1.7524755e-01
  3.4562472e-02
 -6.8852097e-02
  1.5313838e-02
  3.5458386e-02
 -1.3809494e-02
 -5.5944830e-02
  6.0126977e-03
  2.4823228e-02
  3.0332400e-02
  3.6135993e-03
  1.3517633e-03
  2.3778367e-03
 -7.2529162e-03
  2.6456289e-02
 -3.1098307e-03
  1.5555321e-02
 -8.5703079e-03
  5.6042511e-02
  2.6652975e-02
 -8.3717946e-03
 -5.3043403e-02
 -2.0975733e-02
 -6.0582574e-02
 -4.7106020e-02
 -3.8558259e-03
  1.0856043e-01
 -1.6434548e-02
  2.8661029e-02
  2.3462977e-02
 -3.9278548e-02
  2.6369314e-03
 -8.5914440e-02
 -2.2500126e-01
  8.7199146e-03
 -2.1936407e-02
  2.2774031e-02
  1.6088678e-01
  6.2697373e-02
  1.2787862e-02
 -2.0945113e-02
 -4.2362310e-02
  4.2422600e-02
 -1.1008067e-01
 -4.2360205e-02
  3.0832443e-02
  1.6660072e-01
 -4.3199662e-02
 -1.1749710e-02
  8.4584527e-02
  5.9798237e-02
  4.0678222e-02
  1.8808167e-02
 -7.8982208e-04
 -8.8870444e-04
 -1.5770815e-02
 -2.5617624e-02
 -5.1051192e-02
  3.4900352e-02
  3.3659190e-02
  1.7273199e-02
 -4.6320431e-02
  3.5881810e-02
 -4.4826165e-02
 -4.0626070e-03
 -3.7145549e-01
  8.3821975e-02
 -5.3411718e-02
 -2.8128533e-02
 -1.8090341e-02
 -3.1995788e-02
  4.9967922e-02
 -6.8043955e-03
 -2.1641500e-02
  6.2240525e-03
 -1.2807740e-02
  5.3476293e-02
  2.3222700e-02
 -3.8219079e-02
  1.1754286e-02
 -1.0018273e-01
  2.3690848e-02
  1.0623300e-01
 -1.5432095e-03
  3.3601902e-03
  9.1731455e-03
 -5.4598026e-02
 -4.2625662e-02
 -3.6627088e-02
  8.6491704e-03
 -8.1915736e-02
  2.1076763e-02
 -2.5156984e-02
 -3.7417546e-02
  6.4754419e-02
  1.0529954e-01
 -2.8088650e-02
 -3.1911291e-02
 -3.9740246e-02
  2.5535999e-03
  6.0870172e-03
 -5.6938332e-02
 -1.7763587e-02
 -8.3447732e-03
 -1.8948095e-02
  2.6415387e-02
  5.1894682e-03
  1.5353692e-03
  2.4183909e-03
 -1.2262354e-02
 -7.8949645e-02
 -1.8063415e-02
 -6.7333110e-02
 -6.9283113e-02
  6.3780859e-02
  1.0556390e-02
  4.2305444e-03
 -2.5966376e-02
 -6.2055653e-03
 -3.5483912e-02
  3.8236566e-02
  1.8774468e-02
  3.7327129e-02
 -2.4149302e-02
 -1.1213344e-01
 -1.5624783e+00
 -1.0092843e-01
 -6.5356724e-02
 -1.2073932e-01
  9.5521480e-02
  9.5223077e-03
 -1.8911019e-02
  1.5409929e-03
  2.1761274e-02
 -1.0061610e+00
 -5.6413054e-01
  8.8474281e-02
 -7.1524596e-01
 -5.6118935e-01
 -2.5914963e-02
  9.6893385e-02
  9.8443162e-01
  3.7934312e-01
  4.5842946e-02
  2.8019962e-01
 -7.7709252e-01
  5.5688602e-01
 -2.2842142e-01
 -2.3614613e-03
  1.7904837e-01
 -2.5604653e-01
  2.2044736e-03
 -4.7816634e-01
 -3.7415911e-02
 -2.7714786e-01
 -6.1432905e-02
 -4.9193433e-01
  5.8325553e-01
  3.4885265e-02
 -1.6698226e-01
  1.4888148e-01
 -1.1053013e-01
 -6.6001284e-01
 -1.0561259e+00
 -2.1703260e-01
 -6.1643451e-01
  3.9940038e-01
  4.3291959e-01
  5.7998586e-02
  1.5498990e-02
 -1.7809650e-02
 -3.6619909e-02
  1.9232675e-02
  8.7628102e-01
 -1.2167164e-01
  1.9054672e-02
 -2.0077597e-01
  5.2412402e-02
 -7.9215486e-03
  3.9606333e-01
 -2.3913499e-02
  5.0929105e-03
  1.0183666e-01
 -5.0195587e-01
  1.7905761e-02
 -7.6097355e-04
  2.2209283e-02
  4.5004547e-02
 -2.0290425e-02
 -2.8726668e-03
  9.5013613e-03
  1.7640363e-02
 -7.7415623e-02
 -5.1715326e-02
 -2.6982887e-02
 -7.1307935e-02
 -2.6082741e-03
  1.1817605e-02
 -1.5893202e-01
  1.8711390e-02
 -1.6095573e-02
  4.4995051e-02
 -6.5363795e-02
 -1.8636487e-02
  6.7808232e-03
 -8.4785804e-02
  3.6423460e-02
 -1.4983103e-02
  5.9503499e-02
  1.0389506e-02
  7.8297116e-02
 -1.8720189e-01
  5.2249685e-02
  1.2643409e-01
  7.2672563e-03
 -1.3977206e-02
 -8.9234570e-03
  5.0095073e-03
  2.0085784e-02
  4.9436141e-02
  1.6870091e-02
 -2.9161704e-01
 -4.4725481e-02
  3.2062276e-04
  1.7811371e-02
  3.3892989e-02
 -5.0175589e-02
  6.8575352e-02
 -1.8777480e-02
  2.5664093e-02
  3.9859306e-02
 -4.8356280e-03
  3.5081517e-02
 -9.7217858e-02
  1.0304005e-01
  1.0826564e-03
  4.1677728e-02
  1.2366407e-01
  8.4811561e-03
  2.1167498e-02
 -3.1547900e-02
 -1.5673229e-02
 -1.8181839e-03
 -3.2334294e-02
  3.7564337e-02
 -1.1588018e-01
  3.9106164e-02
  5.4108012e-03
  1.1548352e-01
  6.6183411e-02
  3.3741064e-02
  1.3418590e-02
 -2.0321501e-02
  9.0286108e-03
  3.1539027e-02
  5.7028834e-02
 -8.7182410e-02
  1.0933938e-01
  2.9077068e-02
  5.0634384e-02
 -9.3509026e-02
 -8.0587752e-02
 -4.4103425e-02
  2.8967939e-02
  2.2044069e-01
 -8.3827280e-02
  5.9775330e-02
 -1.8772058e-01
 -1.8361365e-02
  1.1124468e-03
  1.8681308e-02
  1.7631354e-02
 -8.3411708e-03
 -1.4907563e-02
  5.1165532e-02
 -2.3208235e-03
  1.6750911e-02
  2.5028249e-02
 -8.1566963e-03
  9.3499377e-02
  1.1731080e-02
 -1.7375644e-02
 -4.8918564e-02
  4.3577463e-03
 -2.0862592e-02
 -3.6951192e-03
  5.7676751e-02
 -2.1461258e-03
 -3.4694143e-02
 -1.0875981e-01
 -4.1577924e-02
  1.5966208e-01
  2.4278682e-02
  6.4680604e-03
  2.3847423e-03
 -4.6062373e-02
 -1.0467352e-02
 -1.6630342e-04
  2.2053125e-03
 -8.9544142e-03
 -3.6347412e-02
 -2.0480677e-02
  7.3190607e-02
 -7.2019198e-03
  7.5293281e-03
 -1.1702665e-03
  3.2461852e-02
 -1.4428239e-01
 -1.9705908e-01
  6.2462082e-03
 -1.7129622e-02
 -2.4613380e-01
  3.9314039e-02
  6.9332309e-02
 -2.7049035e-01
  4.7484465e-02
 -9.2671417e-02
  3.5238437e-02
 -7.5370204e-03
  2.2508133e-02
 -1.1623357e-01
  3.0364318e-02
 -3.3846842e-03
  2.4747655e-02
 -2.1915685e-02
  1.3309256e-04
  4.8979901e-02
  7.9547465e-02
  3.5506894e-03
  7.0060752e-03
 -3.8360637e-02
  3.3038363e-02
  1.5463257e-02
 -1.8521235e-03
  6.6411696e-02
 -2.1911936e-02
 -1.5800964e-02
 -3.6209844e-02
  1.8271854e-02
 -6.0043860e-02
  1.1719676e-01
 -6.4052537e-02
 -1.9305691e-02
 -6.9454308e-03
  3.3582736e-02
  2.5888089e-02
  2.2386881e-02
 -1.6784225e-02
  1.4003573e-03
  1.6190836e-02
 -1.1341768e-02
 -2.0549575e-02
  3.9628400e-03
 -1.9147106e-02
  9.3686283e-02
 -2.0403018e-02
 -2.1911459e-02
  1.0199235e-02
 -9.4611578e-02
  4.4562318e-03
 -9.3317358e-03
  8.6566042e-03
  1.0013412e-02
 -1.9190082e-02
  2.5633475e-02
 -4.2293463e-03
  5.7576215e-03
  4.1396129e-03
  2.5950247e-02
 -1.2326245e-02
 -1.6004913e-02
 -2.8553578e-01
 -4.0092744e-02
  2.5918249e-02
 -4.6025261e-02
  3.8594764e-03
 -8.7071225e-02
  2.0793840e-02
 -5.8420174e-02
  1.4488661e-02
  2.4088614e-03
  2.6723534e-02
 -2.6057275e-02
  6.9994899e-03
 -2.6241018e-02
 -1.5845168e-02
  1.5990824e-02
 -1.2958465e-02
 -8.9191162e-04
  3.1516183e-02
  1.1285805e-02
  5.0978283e-03
 -1.1084336e-01
  3.3776384e-02
 -2.1726412e-01
  3.4390963e-03
 -3.7440851e-02
 -2.0820409e-02
  1.0923523e-02
 -2.6901901e-01
 -9.8345429e-03
 -1.0704537e-01
  4.7976319e-03
  2.4278378e-02
  2.4446987e-02
 -4.2727411e-02
 -1.2601592e-02
  2.8977325e-02
 -7.6239675e-02
 -1.2569071e-01
 -1.0975033e-01
 -8.2750618e-02
 -1.8971903e-02
 -1.0109903e-01
  4.1383237e-02
  3.0263126e-02
  7.6492131e-02
  6.5241372e-03
  1.5587618e-02
 -5.7732832e-02
 -1.8973792e-02
 -6.7544617e-02
  5.0082359e-02
  4.6178441e-02
 -2.3790861e-02
  3.8673831e-03
  4.9176220e-02
  4.0510278e-02
 -1.3680044e-02
  1.0292104e-02
  1.9415881e-02
 -7.7199866e-03
  4.0187199e-02
 -5.2887190e-02
 -3.5539065e-02
 -2.0327797e-02
 -3.4663141e-02
 -1.1606827e-01
 -1.2523840e-01
 -1.3005495e-02
 -1.0566515e-02
 -3.1894527e-02
  6.6787973e-03
 -2.7592365e-02
  1.1014947e-02
 -9.2412727e-03
  4.7721621e-02
 -2.1690486e-02
  7.8186393e-02
 -1.5110144e-01
  2.1752350e-02
  2.2196511e-02
  2.1567771e-02
  2.2808059e-01
 -1.2701636e-05
 -4.0607271e-03
  7.7774334e-03
  2.5689807e-02
  4.0045753e-02
 -7.9914117e-03
 -1.8634977e-02
  1.6457569e-03
  7.2668525e-03
  8.6745918e-03
  2.5566074e-01
  1.4645438e-01
 -4.1098157e-03
  7.0310250e-02
  2.1890965e-03
 -2.3707304e-02
 -1.0838192e-02
 -9.9053024e-04
  3.7239652e-02
  2.4426211e-02
  4.1352969e-02
  3.1843357e-02
 -1.0458546e-02
  3.0869624e-02
 -6.4818732e-02
  6.5266967e-02
  2.0600334e-02
  3.8582023e-02
 -1.8625303e-01
 -6.1519731e-02
  6.1060809e-02
  2.3526624e-03
  2.6186060e-02
 -1.1724745e-03
 -9.5621413e-03
  2.7182201e-02
  5.2274521e-02
 -3.1910010e-02
 -2.0829340e-02
  4.1422345e-02
  1.1703782e-01
 -2.8189175e-02
 -2.9430190e-02
  5.4092176e-02
  3.5008285e-02
 -2.3285197e-03
  3.4892207e-04
  3.6955453e-02
  4.5821335e-02
  1.0362416e-02
 -6.3927181e-02
  1.5664015e-02
  3.1256031e-02
 -2.1316433e-01
 -1.4966248e-02
  1.7293682e-02
  2.8507948e-02
  3.1847704e-02
  7.1194032e-03
 -6.3203699e-03
 -1.3413355e-02
  1.6735319e-02
  4.3657445e-03
 -6.8476140e-03
 -9.7125299e-02
 -1.6380411e-01
 -5.5742599e-02
 -2.1268126e-02
 -3.9627389e-03
 -3.5901405e-02
  5.5647250e-02
 -1.0777999e-02
 -3.5756588e-02
 -1.3642566e-02
 -1.0567619e-02
 -1.1500081e-01
 -4.3499690e-02
 -2.4548454e-02
  1.2289894e-02
 -2.7732342e-01
 -1.0436103e-02
  6.9268323e-02
 -8.8545270e-03
  5.1101584e-02
  3.1626527e-03
 -3.3784695e-02
  4.6938704e-03
 -2.5957383e-02
 -3.8493773e-01
 -2.3998369e-02
  7.7297934e-03
  5.6240510e-04
  1.2621161e-03
 -2.0962807e-03
  2.7484016e-02
 -1.4920545e-01
  3.4731392e-02
  3.6283992e-02
 -2.4256732e-02
  2.9968694e-02
  3.4774315e-02
 -3.4039654e-02
  9.2171204e-01
  5.3519434e-01
 -5.1553912e-02
  5.3793443e-03
 -6.7073798e-01
 -2.3789818e+00
 -4.3298323e-03
  1.2386860e-02
 -8.9226561e-03
  4.5746985e-01
  3.1943712e-02
 -5.4519251e-02
  4.3941857e-03
  9.3671501e-01
  1.0047234e-01
 -6.8983776e-03
 -1.1013724e+00
 -6.3494074e-01
 -3.6806607e-01
 -1.1504590e-01
 -3.1760058e-01
  4.2174414e-01
 -2.7104430e-02
  9.9391915e-02
 -9.2017084e-02
 -6.2813121e-01
  1.8757790e-02
 -3.6499137e-01
 -5.2184905e-03
 -1.2329756e-01
  5.3118205e-01
 -4.8388034e-01
  4.2161870e-01
 -2.6706854e-01
 -2.2019206e-01
  5.3417791e-02
 -7.7558875e-02
 -5.3483970e-02
 -1.4927065e-01
  3.8574380e-01
 -4.5501208e-01
 -3.4038965e-03
 -2.1050844e-01
 -3.1127357e-01
  2.6256558e-01
 -8.0892138e-02
  1.8808924e-02
  2.0644416e-03
 -1.5822707e-01
 -7.1918391e-02
  1.0753802e-02
 -1.1535994e-01
  3.8907871e-01
 -4.7806080e-02
  2.0711014e-01
 -1.6789887e-02
 -3.2121591e-02
  9.5843459e-03
 -1.5009896e-01
  1.5891218e-01
 -1.9726667e-03
  6.4166792e-02
 -1.5069714e-02
  2.1037675e-04
 -2.5261195e-02
  7.6644314e-03
 -1.8350525e-02
  3.9380908e-02
  3.2789964e-04
 -7.2053082e-02
  3.3835225e-02
  7.1234539e-02
  1.4482666e-02
  9.1074362e-02
 -4.6529924e-04
  1.3725837e-02
 -1.6675558e-02
 -2.2617809e-02
 -6.4204778e-03
  5.5054747e-02
  1.3165585e-02
 -1.7298449e-02
 -4.6036057e-02
 -2.9331991e-02
  2.9709463e-03
  4.2466324e-02
  7.7745467e-02
  3.0746814e-02
 -1.8464986e-02
 -8.8891173e-03
 -6.1617248e-02
  3.0189328e-02
  5.5871597e-03
  4.3895282e-02
  1.9143896e-01
 -4.5092348e-02
 -3.1183122e-02
  5.9069272e-02
 -2.5699971e-02
 -5.8456017e-03
  5.8218855e-02
  2.6900098e-03
 -2.7933409e-02
 -2.8055117e-02
 -2.5524545e-02
 -2.8497431e-02
  1.5006458e-02
 -5.7337034e-02
  4.7656032e-03
 -8.5171825e-01
 -2.2926336e-02
  6.0035046e-03
  1.9126087e-01
  1.2516100e-02
 -1.6754886e-02
  3.2071479e-02
 -2.7506329e-02
 -1.3502070e-01
  6.0751777e-02
 -4.7373214e-01
  2.1493388e-03
 -2.0752586e-01
 -1.6057927e-02
  8.5671522e-02
  3.5806006e-01
  4.8519561e-01
  3.4498185e-01
 -5.2724216e-02
  3.8587324e-02
  1.0865259e-01
  3.7464540e-02
 -1.8410687e-01
  6.2547126e-03
  2.1742487e-01
  3.2490820e-02
  4.3187134e-02
  3.2474678e-02
 -1.0454033e-01
  5.7104402e-03
  2.3601383e-01
  2.9204881e-01
  1.0093186e-02
  8.5416310e-02
 -4.4457477e-02
  3.4756090e-02
  2.2660546e-02
 -1.2843830e-03
  5.6829321e-01
 -7.5520448e-02
 -7.6389387e-02
  4.6724614e-02
 -4.4219238e-01
  5.4328233e-02
  2.6993288e-02
  3.1669170e-02
 -1.0182615e-02
  4.2168740e-03
  4.0668906e-03
 -1.0611987e-02
  1.2504117e-01
 -8.8206185e-03
  7.7553838e-02
 -2.5422561e-01
 -1.0294077e-01
  1.6564596e-03
 -9.7816065e-03
 -3.2234380e-01
 -9.5596118e-03
  2.6165516e-04
  1.6035545e-03
 -1.2014059e-02
  1.8493216e-02
 -2.8618409e-03
  4.3889311e-01
 -6.3663706e-02
  3.7310332e-02
  5.7447697e-03
  2.0748468e-01
  1.6062212e-01
 -8.0686202e-03
  1.6308427e-01
 -9.2359468e-02
  8.5782003e-01
 -2.3393799e-02
 -1.6416775e-02
  1.1864378e-01
  1.1503659e-01
  2.4307548e-01
  3.5852817e-01
 -4.5367107e-03
  6.0795684e-04
  8.8773364e-01
 -1.4166810e-01
  4.1794074e-01
 -1.4793241e-01
  5.9342146e-01
  2.8664139e-01
  2.7199748e-01
  6.3685432e-02
  3.1337015e-02
  6.2089264e-03
 -5.5309311e-02
 -8.4894814e-04
 -9.9307984e-02
  4.9129108e-01
  2.9850119e-01
  7.0179516e-01
 -6.2630430e-02
  2.8296063e-02
  1.8598095e-02
  1.5854593e-02
 -4.4586156e-02
  1.7761130e-02
 -2.7228374e-02
  9.2533179e-02
 -3.0042525e-02
 -5.7334308e-02
  2.4365183e-02
 -5.2273773e-02
 -1.6264144e-02
  7.1619649e-04
  4.3830338e-01
 -1.7695395e-02
  3.6595013e-02
 -1.2814232e-02
 -3.3688672e-02
 -7.2558653e-03
 -2.2532919e-02
 -8.6834647e-02
 -7.7895634e-02
  1.4029467e-02
 -5.9466022e-03
  2.2148021e-01
  5.1429622e-02
  2.2626076e-02
  8.0083355e-02
  7.3602937e-02
 -1.7032113e-02
 -5.9659973e-02
  5.2652057e-02
 -1.2463769e-02
  6.0750176e-03
  1.4190072e-02
  7.4449800e-02
 -1.2479199e-03
  7.1503915e-02
 -1.6137749e-01
  6.4282515e-03
  3.4817491e-02
 -2.6266789e-02
  8.6536124e-02
 -1.3664869e-02
 -7.1508490e-02
 -1.1752773e-02
  1.8252486e-02
  8.3832024e-03
  2.1291120e-02
  3.8332433e-02
 -3.3033121e-02
  1.2117140e-01
  2.8175559e-02
  6.5549396e-02
  5.3855043e-02
  4.6884660e-03
 -3.4683414e-02
  2.0405857e-02
  3.9596230e-02
  3.6433144e-04
 -8.5435249e-02
  2.5115842e-03
  3.0101821e-01
 -2.7078319e-01
  3.3665542e-02
  2.5241178e-02
 -4.2237438e-02
  3.3602189e-02
  2.9018733e-03
 -1.2227040e-03
  6.8903774e-02
  3.8757145e-02
 -1.3371181e-01
 -6.9080219e-02
  4.6384167e-02
 -2.5215039e-01
 -1.1715699e-02
 -2.5203260e-02
 -1.1385445e-02
 -1.0370485e-02
  2.4771309e-02
 -2.2325428e-02
  1.0084362e-01
 -2.9600529e-02
 -8.5032389e-02
  1.0268448e-02
  4.0505633e-02
 -7.9329911e-04
  3.6429722e-02
  2.0981243e-01
 -4.2561598e-02
 -1.6923521e-01
 -8.2978532e-03
  9.2408732e-03
  1.4150988e-02
 -1.2914713e-01
  2.0855151e-02
 -2.3876790e-02
  1.0304035e-01
 -1.9675599e-02
  3.3224069e-02
  2.6672965e-01
  4.3415379e-02
  3.3106159e-02
  1.7436549e-01
 -5.0121278e-01
  3.9313003e-02
 -2.8698692e-02
  1.6408598e-02
 -3.5871675e-03
  1.0883610e-02
 -5.1950797e-04
 -4.0198420e-03
 -5.0697764e-03
 -2.6319943e-02
  1.7099999e-02
  2.9015419e-01
  5.4943550e-01
  7.3431281e-04
  1.4306426e-02
  5.5771515e-02
  8.1072950e-01
  6.6553429e-04
  5.0619256e-01
 -1.6100943e-01
 -8.3772129e-01
 -1.5642531e-01
  3.0743027e-01
 -4.0432763e-01
 -1.5991533e-01
  6.5128030e-03
  4.2613983e-02
  3.2671517e-01
  1.2083723e-01
  1.6726699e-01
  1.3236652e-02
  1.8825455e-02
 -6.0861331e-01
 -1.2685880e-01
 -7.3977679e-02
  1.4091789e-02
 -1.9581009e-02
 -8.0721779e-03
  6.8548411e-02
 -7.3417318e-03
  1.6629888e-01
 -4.3117103e-01
  3.1004536e-01
 -2.1688798e-01
  9.9669300e-02
 -1.5175687e-01
 -2.9608989e-01
 -3.1014865e-02
  3.6318291e-02
  4.6985501e-01
 -1.1688232e-01
  5.3087991e-01
  1.8399504e-03
 -2.3053481e-01
  4.1734686e-01
 -4.0940322e-02
 -5.8348481e-02
  4.1376627e-03
  1.1127416e-01
 -2.3918713e-03
 -3.8701687e-03
  2.1000921e-03
 -7.0187128e-01
 -4.0241647e-01
 -8.4100649e-02
 -1.0004961e-01
 -2.2479104e-02
  4.9151629e-03
  9.3262261e-03
  3.8135465e-04
 -1.0488360e-01
 -2.8995907e-02
  3.3288993e-02
 -3.5588790e-02
  5.7367168e-02
  2.2818452e-02
  1.1557171e-02
  3.6223229e-02
  4.6706810e-03
  4.8629742e-02
  1.0489226e-02
 -8.1840567e-02
 -1.8697908e-02
  7.7573024e-02
  2.7589126e-02
  1.1757270e-02
  1.4567080e-02
 -5.6093778e-02
  6.7295708e-02
  1.3172205e-02
  3.5265543e-02
  1.8653973e-03
 -7.4790507e-03
 -1.4922224e-01
  1.8733511e-02
  7.6649589e-03
 -3.2943659e-02
  3.8778525e-02
 -2.8799182e-02
 -2.7977597e-02
  1.3510905e-01
  2.6771858e-02
 -1.8640431e-02
  8.8180602e-03
 -4.3792132e-02
 -3.1357814e-02
 -4.0113982e-03
 -1.3366226e-02
 -1.7548110e-01
 -1.5804078e-02
  3.4174100e-03
 -1.5262799e-01
 -3.5128620e-02
  1.1516710e-02
  2.7993133e-02
  4.0499743e-02
 -7.5984211e-03
  8.4591471e-02
  5.8116794e-02
 -3.9995858e-01
  2.6662524e+00
 -6.4216062e-02
 -1.6676951e-02
  2.1323383e-01
 -4.7365731e-01
  1.7778106e-01
  8.8494113e-03
 -4.3784240e-03
  5.2116728e-01
  7.1638685e-01
 -4.5156738e-01
  2.8546771e-01
 -1.4113332e+00
  4.0972596e-01
  4.5398432e-01
  1.4887133e+00
 -4.4002514e-03
 -8.4853917e-02
 -1.5663583e-02
 -1.7650686e-01
  2.9360420e-01
  1.2029060e-01
 -6.3468337e-01
  4.0386149e-01
  5.2266759e-01
  2.4312429e-02
  1.0700231e-02
  2.0390591e-01
 -1.1445031e-01
  2.1837610e-01
 -3.4895727e-01
  2.6081944e-01
 -7.8411520e-01
  3.5764080e-01
  1.0928799e+00
 -3.5886638e-02
 -1.1704119e+00
  6.9990617e-01
 -3.6886939e-01
  5.5489260e-01
 -5.7911515e-02
 -5.8576581e-03
  8.2893258e-01
 -4.3168911e-01
  4.6177115e-02
  5.5259216e-01
  5.0612199e-01
  3.2127973e-02
  2.1147491e-01
 -5.3858545e-02
  6.4207810e-01
 -5.5584002e-01
  2.0825562e-01
 -1.5578863e-03
  7.6530263e-02
  6.7099310e-02
 -9.5184548e-03
  1.0015544e+00
 -1.3842417e-01
 -1.3831651e-02
 -2.4730587e-02
  2.9053580e-02
  5.7425592e-02
  7.8565471e-02
  1.0661254e-01
  7.9154536e-02
 -4.4196628e-02
  1.7916087e-02
 -3.4037314e-02
 -7.2408654e-02
  1.9041615e-02
 -3.7152767e-03
  8.4020095e-03
 -5.9416573e-02
  2.9889103e-02
  4.9249228e-02
  7.0460573e-02
 -1.4776270e-02
 -2.5943927e-02
  1.5831093e-03
 -7.0511959e-02
  1.3770318e-02
  1.4737097e-02
 -9.7059160e-03
 -1.7507615e-02
 -4.1978210e-03
  4.7454495e-02
 -2.5125571e-02
  1.0144527e-02
 -1.0274613e-01
  6.5544449e-02
 -1.6386919e-02
 -1.0246724e-02
  5.4884531e-05
 -1.3307278e-01
 -3.2473214e-02
 -4.6110291e-02
  6.0030583e-02
 -2.4309576e-02
 -4.4189267e-02
  5.1897755e-03
  3.8908854e-02
 -3.6377376e-03
  7.0040666e-02
 -1.8670250e-02
 -1.4992438e-03
  8.6104255e-03
 -1.4608686e-01
  2.5607622e-01
  3.9976083e-02
  2.9370653e-02
 -5.3179557e-03
 -3.4064446e-02
 -8.8582542e-03
 -7.5490898e-03
 -2.3014178e-02
  1.6272580e-02
 -2.5333090e-02
  4.8678111e-02
  1.1220106e-02
 -6.6256262e-02
  2.2036352e-03
  3.1525366e-02
 -1.1258838e-01
 -6.7432071e-03
 -3.3870179e-03
  4.9345626e-04
 -6.0677943e-03
 -4.0601768e-02
  2.0580033e-02
 -2.7766941e-02
  8.4023654e-02
 -3.1240048e-02
  1.1795955e-03
 -3.4651335e-02
  1.1654513e-02
  8.4515825e-02
 -5.0177209e-02
 -9.9436857e-02
  2.4554981e-02
  1.9344151e-02
 -1.7537747e-01
 -6.3194364e-02
  6.6140115e-02
 -2.7985957e-03
  5.8637932e-02
 -3.7945248e-02
 -1.2770518e-02
 -3.2697648e-01
 -6.9328048e-03
  3.8684852e-04
 -3.6446839e-03
  1.4159708e-02
  1.6485933e-02
  6.3140623e-02
  1.2879660e-02
  6.0742576e-02
  2.6963819e-02
 -9.0174153e-02
  3.5579562e-02
  8.7513223e-02
  1.3645394e-02
  1.3899404e-01
 -2.6725505e-02
 -2.8210152e-02
  1.5947020e-02
 -8.1070080e-02
  3.8097729e-04
  2.0821355e-02
 -9.3979733e-03
  3.6275741e-02
 -5.7967022e-02
  1.8987801e-02
  2.4187751e-02
 -6.9752964e-03
 -1.6548665e-02
 -4.2368639e-02
  7.2770286e-03
 -2.9989287e-02
 -9.7599458e-03
 -1.6114101e-02
 -8.3649382e-02
 -3.5652697e-02
  3.5050590e-02
  1.2490298e-02
 -3.9371792e-02
  4.8497520e-02
 -1.8311497e-02
  5.0633788e-02
  3.9961621e-02
  7.5666034e-03
  4.9231516e-05
 -8.0681778e-03
  4.3198331e-03
  7.5010478e-02
 -1.4728164e-02
 -3.8515443e-03
 -4.0405039e-02
 -2.3418229e-02
 -1.1786523e-02
 -3.1658284e-02
 -8.1256360e-02
  4.7361493e-02
  1.4700062e-02
  5.6295607e-02
 -5.5379900e-03
 -2.1162899e-02
 -1.2696515e-02
  5.9636706e-04
 -5.2975975e-03
  5.0017018e-02
  3.0027032e-02
 -3.4411199e-02
  2.1334967e-02
 -2.8279758e-04
 -3.1401392e-02
 -1.5496203e-01
  7.6134577e-03
  9.9215200e-03
 -1.4130082e-03
  7.4876845e-02
  1.0970676e-03
  1.5881940e-03
  1.5879473e-02
 -1.3816901e-02
 -5.1336043e-02
  2.4832208e-02
 -7.9302534e-02
 -1.3380160e-03
  7.9700220e-03
 -1.4837641e-02
  8.3888546e-03
  8.9225238e-03
 -7.5518496e-02
 -2.7613219e-02
  3.5371922e-03
  2.8312935e-02
  2.1561144e-02
 -1.9092517e-02
  2.6145585e-02
 -3.8348550e-03
 -6.1280627e-02
 -3.9358409e-03
  7.9856627e-03
  1.7472688e-02
  4.3449596e-02
  9.7080448e-04
 -3.5651963e-02
 -1.1788411e-02
  1.8162206e-03
 -5.8935503e-03
 -5.0051417e-03
  1.4440924e-02
  3.8663290e-02
  3.0356059e-03
  3.2067921e-02
  4.2935456e-03
 -1.6853888e-02
  1.9385901e-01
 -1.0675644e-04
 -2.2503089e-02
  2.1774534e-02
 -3.3610318e-02
  1.0247530e-03
 -1.0860546e-01
 -9.6299574e-02
  2.0866333e-02
 -1.5642840e-03
 -8.4750414e-02
  6.0218148e-02
  1.8105957e-01
 -1.8804900e-02
  2.1711938e-02
  2.0574500e-01
 -9.2542395e-03
 -6.6208243e-02
 -1.1154150e-03
 -1.3253752e-02
 -2.4001623e-02
  6.1871455e-04
 -1.2305041e-02
 -7.3328607e-02
  9.9129612e-03
  2.0858627e-03
 -4.5153104e-02
 -8.0134846e-02
 -4.2132195e-02
 -6.8384027e-03
 -1.2094997e-02
  9.1592199e-05
 -2.7628554e-02
 -4.7599254e-03
  1.1654674e-01
  4.7089932e-03
 -1.8407237e-02
 -3.6735740e-03
 -2.7670473e-02
 -5.2765522e-02
 -3.1956402e-04
 -3.4302302e-02
 -3.1439972e-03
 -7.9669841e-02
  3.3621710e-02
  1.2391018e-01
  2.8365217e-02
  1.3102806e-01
 -7.2067596e-02
 -7.7895066e-03
  2.1526957e-02
  6.7097722e-03
 -3.0186409e-01
 -2.2151528e-02
 -2.6666665e-02
  8.3140068e-02
 -1.1479352e-01
 -4.2903919e-02
  1.3050683e-03
 -2.5129784e-02
 -1.1225290e-02
 -9.5772438e-02
  8.5470285e-03
  9.1701085e-03
 -2.2907026e-02
  3.5155017e-03
 -1.6971745e-01
 -2.9749921e-04
 -1.2307159e-02
  2.3563208e-02
  3.1433187e-02
  6.5806527e-03
  8.8576442e-03
 -8.3178561e-03
  2.5747063e-02
  1.4606900e-02
 -2.5486825e-02
  5.3245039e-03
 -3.5107560e-02
 -5.0489255e-03
  3.1238766e-02
  3.4439951e-02
  3.2620687e-02
  6.4794240e-03
  5.0315680e-03
  1.1081453e-02
  4.8700627e-02
 -1.9633599e-02
 -1.1273756e-01
 -1.0230180e-03
  1.5067160e-02
 -8.3629876e-02
 -1.4547227e-02
  2.8702244e-03
  7.6408954e-03
  2.9857224e-03
 -2.2052867e-02
  2.1004047e-02
 -3.2077266e-03
  3.5444507e-03
 -9.1786496e-03
 -8.6085442e-05
  1.0283663e-02
  3.7235331e-02
  3.2492328e-02
  4.7805142e-02
  1.1679309e-02
  1.3108519e-02
 -4.4813614e-02
 -3.1728219e-02
  6.0301749e-03
  5.4974854e-04
 -7.9965321e-03
  3.6520425e-02
 -7.6990714e-03
 -4.5428637e-02
 -3.9333091e-03
 -2.7357813e-02
  1.4864510e-02
 -7.6569307e-01
  1.1994671e+00
  1.2126549e+00
  2.7384939e+00
  1.6144208e+00
 -9.0232182e-01
  1.5522969e+00
  1.6861261e+00
 -1.4922353e+00
  8.6139441e-01
 -1.6764227e+00
  2.3619713e-01
 -1.6792978e+00
 -2.5477663e-01
  6.9886345e-01
  2.0235627e+00
 -1.0651637e+00
 -1.3628117e+00
 -1.7251254e+00
 -1.5429648e+00
 -1.9059954e+00
  1.3367260e+00
 -7.2509849e-01
  1.9964300e+00
  7.9487669e-01
 -2.1390231e-01
 -1.3855699e+00
  1.2297068e-01
 -1.4978763e+00
  9.3867791e-01
 -1.3784220e+00
  2.0153279e+00
 -1.4509254e+00
  1.9646995e+00
  1.3647007e+00
  1.5033617e+00
  1.1397133e+00
 -1.1781232e+00
  1.6522105e+00
 -1.7998466e+00
 -2.1034603e+00
 -1.8169469e+00
  2.1046743e+00
 -1.0769120e+00
  1.7825526e+00
  1.5748458e-01
 -1.3638854e+00
 -1.0628225e+00
  1.7906779e+00
 -1.6093128e+00
 -1.4438748e+00
 -1.1445808e+00
  2.2642000e+00
  8.9063442e-01
  1.9589748e+00
  1.1557825e+00
  1.5597285e+00
 -1.2603813e+00
  1.3464047e+00
 -7.2561765e-01
 -6.1124462e-01
  1.6643161e+00
  1.8721119e+00
  6.0791945e+00
  3.5720100e+00
 -4.6908003e-01
  8.3258706e-01
  1.4715713e+00
 -2.2968378e+00
 -1.2678716e+00
 -4.1730399e+00
  4.0135735e-01
 -1.9647821e+00
 -3.2888174e-01
  2.5409837e+00
  6.3019834e+00
 -1.5613818e+00
 -2.0175049e+00
 -3.7688050e+00
 -3.3566375e+00
 -3.6538360e+00
  2.7750552e+00
 -1.0158647e+00
  7.8722591e+00
  4.7199893e-01
 -6.0379404e-01
  9.9547541e-01
  4.3418032e-01
 -3.2293899e+00
  1.3503586e+00
 -1.4688568e+00
  5.8946681e+00
 -1.8326752e+00
  7.4633622e+00
  2.1319442e+00
  3.0281725e+00
  7.0988220e-01
 -4.4702573e+00
  5.6053190e+00
 -4.5983562e+00
 -5.9122801e+00
 -2.4241560e+00
  8.2437220e+00
 -1.3877171e+00
  4.6398191e+00
  1.4436219e+00
 -1.2773805e+00
 -2.8432763e+00
  4.8385954e+00
 -3.7987900e+00
 -2.9084990e+00
 -3.1843185e+00
  9.8975773e+00
  7.6813865e+00
  8.4201822e+00
  1.0995588e+00
  1.4212362e+00
 -8.7163365e-01
  1.8805237e+00
 -5.3210562e-01
 -1.0956521e-02
  6.4079030e-03
  3.7641477e-02
  1.6717002e-02
 -4.0652830e-02
  1.7841088e-02
  8.5048117e-02
 -6.6120154e-03
 -4.5333784e-02
 -6.7262757e-03
  6.4498484e-03
  2.8008465e-03
  6.7644991e-02
 -1.6718959e-02
 -2.1325799e-02
  2.3238968e-02
  3.9013419e-02
 -1.8438486e+00
 -2.4048330e-02
  1.0705190e-01
  2.2109194e-02
  3.4819136e-03
  8.3129928e-02
 -1.1732421e-01
  6.2070799e-04
  6.5854858e-03
 -3.0093944e-02
  3.5638474e-02
  7.4515045e-02
 -8.6849732e-03
 -5.7541177e-02
 -3.1489483e-03
  7.2962664e-02
 -3.7154178e-03
 -8.8580549e-05
 -4.9330047e-03
  3.4010489e-02
  7.1845837e-02
  1.0303526e-01
  7.6058038e-02
 -4.4092704e-02
 -4.7124773e-01
 -3.4918852e-02
 -1.8915685e-02
  7.3807061e-02
  5.7137161e-02
 -2.7663779e-02
 -1.6633334e-02
 -1.8020365e-01
  6.0086302e-02
  4.6920352e-02
  1.7041814e-02
  6.1954586e-03
  3.4274954e-01
 -8.8918746e-02
  5.3701764e-03
 -3.7708908e-02
  2.7485663e-01
  1.9187918e-02
 -5.6274482e-03
  1.5946770e-01
  1.1008061e-01
 -1.1454771e-02
  3.7003194e-03
  1.5489038e-02
 -5.4187648e-02
 -4.0443640e-02
  7.2759371e-03
  8.2031623e-02
  2.8191585e-02
 -2.3833893e-03
 -1.1211078e-02
 -6.5512195e-02
 -1.5043132e-02
 -2.0913862e-02
 -3.2787386e-02
 -7.4130897e-03
  6.6011683e-03
 -2.8892331e-02
 -4.5412529e-02
 -1.4448316e-04
 -9.9546807e-03
 -5.8860714e-03
 -2.5434397e-02
 -9.7419962e-02
 -1.1810575e-01
  4.8015479e-02
 -2.4283338e-01
  2.0028878e-02
 -7.6608742e-03
 -3.7096699e-03
 -1.8371578e-01
  3.0350024e-02
 -1.7491923e-01
  9.3313822e-05
 -1.9460173e-03
 -8.2233675e-02
  8.4481435e-03
  3.6408224e-03
  6.2665432e-03
  1.0533202e-02
  5.2372444e-02
  4.2029325e-02
  1.6824984e-04
  3.9750161e-03
 -8.0952391e-02
 -5.5129893e-02
 -3.6503959e-02
  1.2078918e-01
 -6.1744343e-02
 -9.4626406e-03
  1.9105306e-02
 -2.1576206e-01
  1.7675832e-02
  2.6975568e-02
 -1.4349261e-02
  7.5398139e-03
  8.5492216e-02
  2.8398711e-02
  5.9682202e-02
 -4.4009334e-01
  5.5497270e-02
  1.1039225e-03
  2.7261237e-03
  1.0235150e-01
  3.4860581e-02
 -2.8719448e-03
  7.7586412e-02
 -7.1199597e-03
 -1.6821535e-02
 -2.0571586e-02
 -8.4103411e-03
  2.7852517e-03
 -5.1616589e-03
 -5.6750397e-03
 -7.3507592e-02
  4.0160543e-03
 -1.0583073e-02
  8.1840895e-02
  6.9871187e-02
 -1.2216844e-02
 -1.5283019e-03
  1.1513761e-01
 -2.0041901e-03
 -3.8684804e-02
  1.7982265e-01
  3.2989837e-02
 -4.3030951e-02
  3.6136713e-02
 -6.5300423e-03
 -1.3330111e-03
  1.1411815e-01
  2.0424528e-02
  3.6552612e-02
  2.4910759e-02
 -5.8697317e-02
 -6.7562029e-02
  3.2263126e-02
 -4.8829243e-03
 -1.3706572e-02
 -1.2981932e-02
  6.4754910e-03
  4.2413590e-03
  1.8426875e-02
  2.7273729e-01
 -2.0488474e+00
 -6.6338811e-04
  2.8434478e-02
  3.9124179e-01
  5.8440376e-02
  3.4611268e+00
  4.7870111e-02
  2.5296802e-02
 -6.5833926e-03
 -7.3046125e-02
  2.3792409e-03
 -2.7287070e-02
  1.5471777e-01
 -2.3083925e-02
 -7.5701228e-03
 -2.0997023e-02
  2.2192555e-02
 -2.8304812e-02
  1.2702989e-02
 -1.3794217e-02
 -4.7993235e-02
 -9.0101929e-03
 -2.8652318e-02
  1.2752473e-02
  1.6030489e-02
  4.9014993e-02
 -2.6877469e-01
  2.2949615e-02
 -6.0042827e-03
 -1.5357375e-02
  1.1120730e-01
 -1.4818100e-02
 -8.8127755e-02
  5.4028772e-02
 -1.2086840e-01
  9.6993065e-03
 -7.2442084e-03
 -6.9374986e-02
  9.0301512e-03
  7.4134834e-02
 -3.2645918e-02
  1.4811779e-02
 -3.9087750e-02
 -5.0990768e-02
  6.0502440e-03
 -1.8820465e-02
  3.0561363e-02
 -7.1099163e-03
 -1.1715649e-02
 -2.4781479e-02
 -1.4396941e-02
  7.2945607e-01
 -4.2901970e-02
 -7.2473407e-02
 -9.7563937e-02
  9.7858541e-02
 -3.8379278e-02
  8.0446887e-01
 -1.1989428e+00
 -3.2485204e+00
 -9.6317254e-02
 -3.6853263e-01
 -2.3652881e-01
 -5.6234604e-01
 -5.9339274e-03
 -6.3128614e-01
  1.6114715e-02
 -6.8887798e-03
 -2.1620162e-03
 -8.6817640e-01
 -2.7036902e-01
 -1.4967047e-01
  1.7371194e-01
 -5.9101343e-01
 -4.3304229e-01
 -1.8748808e-01
  3.8428597e-02
  7.7960700e-01
 -1.9273825e-02
 -4.2720497e-01
 -2.4247360e-01
 -2.9254434e-01
 -7.1708612e-02
 -9.0869129e-02
 -1.6945985e-01
 -4.5255587e-01
 -1.4809191e-03
 -2.3502710e-01
  1.2471943e-02
  1.1847568e-03
  5.0439465e-01
 -5.3882849e-01
 -4.2029417e-01
 -2.1289086e-01
 -3.8676855e-01
 -1.1780585e-01
 -9.2905127e-02
  3.0415311e-02
  3.5626270e-02
 -3.2035160e-01
 -6.0935932e-01
  8.1939688e-03
  3.3382571e-01
 -2.5413476e-03
  3.0542931e-02
  1.6339473e-02
 -7.9052346e-03
  3.0783783e-03
  9.5703984e-03
 -3.7347272e-02
 -5.9727773e-02
 -1.7942676e-02
 -1.9182669e-02
  5.5536893e-03
 -4.8307747e-02
 -1.4551245e-02
  3.5986854e-03
  2.2992341e-02
  2.9771695e-01
  4.8086643e-03
  3.2373361e-02
 -7.5341053e-02
 -1.0994531e-02
  1.7428003e-02
  3.2017253e-02
  1.0063812e-02
 -1.5758235e-03
 -3.5672616e-02
 -1.9848397e-02
  3.8553423e-03
 -6.5070242e-02
  4.4663582e-02
  1.4532262e-02
 -1.9447165e-02
 -2.4055110e-02
 -1.1010646e-02
  3.7787374e-02
 -5.1828410e-02
  7.6719992e-02
 -3.0545495e-02
 -2.9686285e-05
  1.8442297e-02
  1.5945164e-02
 -6.8895268e-04
  1.3735482e-02
  3.4976862e-02
  2.0689121e-02
  3.8787022e-02
 -3.3132413e-03
 -2.4671078e-02
  1.0805854e-02
 -6.4983643e-03
  2.0006094e-02
 -1.6090352e-02
  5.3375170e-02
  3.4599792e-02
  7.3599026e-02
  9.7617498e-03
  7.4892733e-03
 -3.1610165e-02
  5.1879842e-02
 -4.2448700e-03
  3.4921128e-02
 -9.6383523e-03
  2.3168100e-01
 -5.9959747e-02
  2.1078367e-02
  5.0853319e-02
  6.7376100e-02
  4.3305304e-02
  5.2628748e-02
 -5.2269951e-02
 -9.2065483e-03
  6.4456195e-02
 -3.6701933e-02
  8.0911018e-02
 -2.1378415e-02
 -2.2848099e-02
 -2.2851717e-02
  3.1084465e-02
 -6.2542330e-03
 -1.5953034e-02
  1.3890812e-03
 -1.8660244e-02
  2.9216371e-03
 -8.0210036e-03
 -4.8034698e-02
  1.1599382e-01
  9.9967094e-03
  1.7932737e-02
  3.1228482e-03
  8.3005324e-02
 -3.1249419e-02
 -1.7207546e-02
  1.4842066e-02
 -9.4447985e-02
 -1.6112546e-02
  1.1526775e-02
 -4.8689134e-02
  3.4525864e-02
  8.8654853e-02
  3.2334704e-02
  1.4820953e-02
  6.4352274e-02
 -6.7928345e-03
  5.5506513e-02
 -3.5606980e-02
 -7.1851867e-03
  9.8228443e-04
 -6.4159252e-02
 -6.2260456e-02
  6.3044745e-03
 -5.2232556e-02
  3.3113409e-03
 -1.0641815e-01
 -7.7735404e-03
  2.4129374e-02
  7.0294790e-02
 -1.7278907e-01
 -1.3207337e-02
 -7.5754777e-02
 -1.1774673e-02
  8.9682117e-03
 -7.4236743e-02
  3.4177378e-02
 -1.5798777e-02
  8.8170385e-03
  2.2766693e-03
  9.2201242e-03
 -4.0085193e-02
  1.5188390e-02
  4.1078762e-03
 -1.7786574e-02
 -2.6538715e-02
  5.5256058e-02
  2.5989020e-02
 -7.5309262e-02
  9.6609872e-03
 -1.9338122e-02
  1.5869917e-02
  3.4929298e-02
  3.6593504e-02
  1.7940698e-02
  9.6940575e-03
 -2.8722867e-02
 -1.0376160e-02
  1.2323295e-02
  1.5349820e-02
  4.7251236e-02
 -2.5629716e-03
  1.1581738e-02
  1.5992444e-02
  2.9607797e-01
  3.1801721e-01
 -3.6674775e-02
  2.9599569e-03
  4.6118307e-03
  4.8275482e-02
 -4.4313192e-02
 -2.5586979e-02
  1.0465818e-02
  1.9147484e-02
  4.9274702e-02
  9.8342553e-02
  7.1233340e-02
 -1.8422125e-02
  3.4743462e-02
 -1.3020894e-02
 -4.3579742e-02
 -3.7064722e-03
  4.2144310e-01
 -2.4671990e-02
  4.6565835e-03
 -6.7241520e-02
  5.2814180e-04
  2.3887476e-02
  5.7598166e-02
  2.9725561e-02
  1.1170125e-02
  1.2168137e-03
 -2.1370875e-02
  5.8895070e-03
 -4.4623706e-02
  5.7607843e-03
  4.5219106e-03
 -1.4927909e-02
  2.4587676e-02
  1.4863966e-02
 -2.6923306e-02
 -4.3080520e-02
  1.7289378e-01
 -1.2247125e-03
 -7.3275819e-02
  2.1963110e-02
 -6.1595580e-04
 -2.0184239e-02
 -1.5470305e-02
  1.0037850e-02
  7.2738834e-02
  7.3737348e-03
  7.3285140e-03
  7.7223415e-03
 -7.0034765e-02
  1.5152798e-02
  2.2104664e-02
  2.0823997e-02
 -2.1392237e-03
  8.2180548e-01
 -2.6267206e-02
  2.4250785e-02
  1.0053740e-02
  1.1764084e-02
  1.3154556e-02
  1.2426070e-01
  1.7137554e-02
  1.9080881e-02
  3.3991411e-02
 -1.6096673e-03
  5.5329960e-02
  2.3223092e-03
 -4.7877781e-02
 -2.0835305e-02
 -3.4858094e-05
  1.9962041e-02
  1.4442901e-02
 -1.2802407e-02
 -3.0427970e-02
 -4.9853768e-02
 -2.7180174e-02
 -5.6077961e-02
 -6.7394942e-02
  6.8830036e-02
  3.6937047e-02
  1.1457486e-02
  5.1029392e-02
  6.1799049e-02
 -7.4198127e-02
 -7.8652389e-02
  1.0305802e-02
  2.5574299e-02
 -2.2552235e-02
 -1.9939526e-03
  7.7243554e-03
  6.6148402e-04
  5.3346511e-02
  8.9744251e-04
 -3.4440532e-02
 -1.1082930e-02
  1.4362150e-02
 -2.0405515e-03
  2.2282084e-02
 -7.9083584e-02
  2.1560829e-02
 -3.3441896e-04
 -2.1748699e-02
  1.0709684e-02
 -5.3534503e-03
  2.3776190e-02
 -6.4685061e-03
 -6.2879227e-02
 -1.1092063e-01
  3.0136935e-03
  1.1232526e-02
  7.1570888e-02
  4.1665514e-03
 -8.1671335e-02
 -9.7237248e-03
 -4.1396018e-02
 -1.7606417e-02
  2.1202007e-02
 -7.1268138e-03
 -5.9618030e-02
 -1.1869971e-02
 -8.9961598e-03
 -1.2996245e-02
  3.2739422e+00
  3.0838795e-02
  1.1647984e-01
  1.5969582e+00
 -1.7940605e+00
 -2.4214265e+00
  2.2205363e-01
 -2.0757477e+00
  3.7139475e-01
  3.2245421e-01
  1.0699931e+00
  1.5576115e+00
 -8.6064625e-01
  1.3391158e-02
 -1.7654153e-02
  2.3669112e-02
  5.9919423e-01
  8.2701880e-01
 -9.6331543e-01
  9.5498490e-01
 -9.3536578e-02
  2.8950879e-01
 -6.2573624e-01
  9.9611717e-01
 -3.1383757e-02
  6.3597463e-02
  3.6983523e-01
 -1.5166360e-01
  2.6020575e-01
 -5.7920009e-01
  5.0978178e-01
  2.3666734e-03
  1.2443389e-01
  4.6013664e-02
 -5.8150642e-02
  1.2563657e+00
  1.0302234e+00
 -3.3932500e-02
 -4.5973292e-01
  1.0472988e+00
  4.2148390e-01
  8.9363284e-02
 -2.2686057e-01
 -1.8938432e-02
  4.9987927e-01
  2.2417291e-03
  7.8643244e-03
 -3.6514471e-03
 -3.9279994e-01
 -5.2042399e-02
 -5.4828007e-02
  1.3026747e+00
 -1.1764963e-02
 -4.1278589e-01
 -3.3491924e-02
 -5.2418862e-03
  1.5047090e-02
 -8.5724749e-02
 -1.3469956e-02
 -8.7157950e-02
  2.2085005e-02
  1.4108023e-02
  2.9376697e-02
 -3.1600621e-02
 -5.3278874e-03
 -5.4871034e-02
 -7.0604268e-03
 -2.4977526e-02
  3.5934873e-02
 -2.0573759e-02
  1.2103813e-02
 -4.3533906e-02
  7.5689539e-02
 -3.9564606e-02
  2.4390724e-02
 -6.2899292e-02
  4.4880688e-02
  7.4363104e-03
  9.0542436e-03
 -1.7249055e-02
  7.4853793e-02
 -5.2475732e-02
  7.5334888e-03
 -9.1001727e-03
  8.9178476e-03
 -1.8627306e-02
  3.3321220e-02
  4.0003352e-02
  1.8718990e-02
  4.1678336e-02
  5.0941296e-02
 -1.5983608e-02
 -7.3923759e-02
 -5.4590266e-02
  5.4398379e-03
 -7.4638240e-02
 -5.0620887e-02
 -6.7817830e-02
 -5.3326316e-02
 -5.9398250e-03
  1.3887679e-04
 -1.8855408e-02
  2.5306344e-01
  1.9589562e-03
  3.7180137e-02
 -1.5745305e-02
  3.1461086e-02
 -3.5696159e-04
 -4.7571585e-03
  1.0630174e-02
  8.3386153e-02
 -8.4124407e-04
 -9.8063529e-01
  2.2649362e+00
  2.9260248e-01
 -8.5541464e-02
  1.1513592e-01
 -2.1511473e-02
 -3.4165478e-03
 -4.0470704e-02
  2.0613216e-02
  5.0152149e-02
 -6.8083733e-02
  5.3920459e-02
 -6.1453409e-02
 -1.2204275e-02
  2.3730632e-02
 -4.1285962e-02
 -1.5419724e-02
  3.4676779e-02
  1.3328313e-03
 -1.2126021e-03
 -7.0463466e-03
 -4.5638289e-02
 -3.4402244e-02
  3.9532915e-02
  7.3035128e-02
  2.1873126e-02
  4.1069869e-02
 -3.5166185e-02
 -2.0773804e-02
  8.8383518e-02
 -2.8544573e-02
  9.3737185e-02
  6.2012603e-03
  7.5571756e-03
  7.7939980e-02
  2.1295160e-02
 -3.6614728e-03
  4.7653258e-02
 -1.0545789e-01
 -7.2583221e-03
  3.2746099e-02
  4.0768392e-02
 -2.4861546e-02
 -5.8029208e-02
 -2.3901664e-02
  3.3670273e-02
  1.7429750e-03
  1.1200501e-02
  6.7890987e-02
 -8.5577302e-02
  2.5222453e-01
  5.2439179e-02
 -1.2934708e-02
 -1.2339082e-01
 -2.2971259e-02
  1.6933791e-02
  2.9463354e-01
  2.4506217e-02
  3.9778158e-02
  7.2434716e-02
 -1.5391499e-05
 -3.4418561e-02
  1.2986422e-02
  9.2587890e-03
  2.9904598e-02
  3.0585030e-02
  5.6858067e-03
 -5.1849950e-02
  4.4923130e-02
  7.6719597e-02
  2.9337995e-02
  1.6176166e-01
 -1.0011207e-03
 -6.6885777e-02
  2.0743284e-02
  5.2964094e-04
 -5.2234113e-02
 -2.0474803e-02
  4.7641858e-03
  6.4968936e-02
  4.9330909e-02
  2.2143234e-02
 -1.2210043e-01
  2.1926165e-02
  3.7415069e-02
  5.6080613e-02
 -2.1516440e-02
  1.2399873e-01
 -2.4246385e-02
  4.2169109e-01
 -5.6081917e-02
 -1.7629821e-02
 -1.4555624e-02
  3.5275249e-03
  3.8304500e-02
  1.0479629e+00
 -4.6524443e-02
 -1.1700914e-01
  2.5042938e-02
 -1.4118407e-02
 -1.8038753e-02
 -6.9954498e-03
 -1.0788295e-02
 -8.6782634e-04
  6.3115573e-01
  2.5722874e-02
  2.3291826e-01
 -9.5339835e-01
  4.3422616e-01
 -4.0246168e-01
  1.6889460e-01
  8.0626374e-01
 -1.0604403e+00
  1.6441244e-01
 -4.0128669e-01
 -1.1878543e-02
  2.9405820e-01
 -7.8162506e-02
 -1.4491197e+00
 -6.6537291e-01
 -2.0616190e-03
 -3.9796619e-04
 -6.6609383e-03
 -1.6824216e-02
 -6.1614655e-02
 -1.2640596e-02
 -4.8554484e-02
 -7.2455049e-01
 -9.0977885e-03
 -1.3933473e-02
 -1.5225647e-01
 -2.6254922e-02
  3.6997892e-02
 -5.6047046e-01
 -1.0425694e-01
  2.3438977e-01
 -1.0220922e+00
 -3.6636564e-01
 -5.5069089e-02
  7.3557609e-01
 -1.0338682e-01
 -2.6185164e-01
 -4.4808915e-01
 -1.2401993e-02
 -6.5863594e-02
 -5.1860124e-01
 -9.9497139e-02
 -2.1278828e-02
 -3.6136371e-01
  4.2195503e-02
  2.4377292e-02
  1.0176405e-02
  3.9361930e-03
  9.8941680e-03
  7.4086435e-02
  9.9028118e-02
  1.7777093e-02
 -1.0116900e-01
  4.2987089e-03
  2.7618784e-01
  8.3959617e-02
  1.8194085e-02
 -3.6365435e-02
 -9.7782409e-04
  8.0567509e-02
  5.5209687e-03
 -5.6653742e-02
  2.0314494e-02
  1.0812992e-01
  9.6789096e-04
  1.4841527e-02
  2.6390914e-02
  4.4779885e-03
  1.5019497e-02
  2.6802609e-02
 -5.9474185e-02
 -2.5190091e-02
  1.1867669e-02
  5.6489743e-04
  1.4590769e-01
  6.0739290e-02
 -3.4030896e-02
  8.5823815e-03
 -4.0627137e-02
 -1.3361604e-02
 -1.3147317e-02
  3.7433345e-02
 -6.5108068e-02
  5.2275524e-02
  1.1002585e-01
  2.0330746e-02
 -5.1262658e-03
  3.8231490e-03
 -3.3360612e-02
 -4.1269448e-02
 -3.1112479e-02
 -2.9441668e-02
  9.9709749e-02
  1.2748324e-02
  8.0108056e-03
  2.3897821e-03
  2.2646137e-02
  1.1184170e-01
  4.1787349e-02
 -7.4854530e-02
 -9.6550845e-03
  2.6356664e-02
  4.5735653e-02
  3.2697726e-02
 -4.4250335e-03
  4.2985883e-02
  3.4553863e-02
  2.6823612e-02
 -1.9463510e-03
 -1.1863156e-02
  2.0539360e-01
  3.1593198e-01
  5.5823365e-04
  2.4170641e-02
  5.7846215e-03
 -2.8433653e-02
  2.3888586e-02
 -4.8679136e-02
  3.8695335e-02
  4.8995528e-02
 -4.9063773e-03
  2.9699882e-03
 -1.3691609e-03
  4.5330938e-02
 -4.5267090e-02
  2.4059037e-02
  3.3554401e-02
  1.3420152e-02
  8.1679277e-02
  9.8128758e-02
 -5.4613549e-02
  7.4934691e-02
  9.2863753e-02
 -2.6552558e-02
  7.7738330e-02
  1.4702307e-01
  1.4901003e-02
  1.3978755e-01
  9.1462120e-02
 -1.5421151e-01
  3.9493853e-01
  4.4204444e-02
 -2.3203988e-02
  1.1860850e-01
  1.9947906e-01
  1.3789044e-02
  9.0951778e-02
  4.6026487e-02
  2.7069282e-02
  1.4365788e-01
  6.8504135e-03
  6.1389428e-02
 -1.1132610e-02
 -4.7885410e-02
 -3.1768136e-02
 -2.3908127e-02
 -1.1021907e-02
  2.2690604e-02
 -6.7828715e-02
  8.1437407e-03
  6.6119102e-03
  1.6335160e-02
  8.3081601e-03
  1.8919276e-02
  7.0061572e-02
 -4.1672818e-02
 -1.4168929e-02
  2.5836420e-01
  6.5960012e-02
 -5.7876389e-02
 -1.8785264e-02
  8.0230590e-03
  2.1982709e-02
  1.3197219e-02
  7.5862207e-02
  7.6760505e-03
  6.6686245e-03
 -1.0927472e-01
 -6.7116488e-03
 -1.2045251e-02
  1.0668301e-02
 -4.1496933e-02
 -1.0198351e-02
  1.1876022e-02
  1.0873288e-02
  1.3705072e-01
 -2.0233819e-03
 -8.1485491e-03
 -1.7556937e-02
 -1.1133703e-02
  1.4324510e-01
 -1.6854286e-04
 -7.8263814e-03
 -2.4415480e-02
  1.4678854e-02
  1.3223773e-02
 -6.9327399e-02
 -1.9785039e-01
 -1.4252041e-02
 -4.7029376e-02
  1.4984331e-02
  6.7465089e-02
  2.9638836e-02
 -3.8174100e-02
  2.0210681e-02
  2.5023500e-02
 -2.7733618e-02
  6.7269392e-02
  9.9921219e-02
  8.6384907e-02
  1.7353354e-02
  8.1196241e-03
  4.3307506e-02
  8.5088573e-03
  1.7451930e-01
  5.2665379e-03
 -8.5998875e-01
  6.1594364e-03
  3.7126172e-02
  8.3164852e-03
 -4.6829514e-02
 -2.6826969e-01
 -3.2694042e-03
  2.5790514e-02
 -9.1327906e-02
  1.2063691e-02
  1.2512445e-02
 -1.4903605e-01
  3.1073859e-02
  1.0149536e-01
  2.0596487e-02
 -1.2130789e-02
 -1.8464606e-02
 -3.2070745e-02
 -3.8891841e-02
 -1.7872852e-03
 -6.1557502e-02
 -9.1632225e-02
  4.8014736e-03
 -2.2843882e-02
 -8.3425373e-02
  1.6310127e-02
 -1.3727543e-02
 -3.4830641e-04
 -1.5932722e-02
 -1.5167232e-01
 -4.3596696e-02
  7.2916090e-02
 -1.0875070e-01
  1.2938819e-02
  1.5666908e-02
  3.7147615e-02
 -2.0443691e-02
 -5.6089938e-02
 -7.5447649e-02
  1.7527528e-02
 -2.7852790e-02
  2.9255494e-02
  2.8007550e-02
 -1.5090410e-01
  1.9647893e-03
  2.1473236e-02
 -1.1471391e-01
 -5.4007312e-03
 -2.2000352e-02
  2.7617994e-03
 -2.5046131e-02
 -4.2227310e-01
 -1.8717912e-03
  2.9752392e-01
  4.4762507e-02
 -7.8637183e-02
 -1.6935524e-01
  9.8752163e-02
 -4.4205830e-02
  5.7050627e-01
 -2.4747171e-02
 -2.8472532e-02
 -1.9565724e-02
 -4.7155399e-02
  1.0818513e-02
  2.4626881e-01
 -1.9122425e-02
 -8.3020449e-01
  8.5340603e-04
  9.0388358e-03
 -4.3570879e-01
  3.5233364e-02
  1.9940796e-01
 -1.7769892e-02
  1.3693106e-01
  1.8955393e-01
 -7.4000418e-01
 -3.6755174e-02
 -1.8917190e-02
 -1.5181173e-01
  2.8281402e-02
  2.5627172e-01
 -2.8845206e-01
  9.8910503e-02
  2.9068908e-01
 -1.9809742e-01
  2.2415672e-03
 -1.7097732e-01
  9.3017491e-03
 -1.2187886e-01
  1.2039299e-02
 -9.7842760e-02
  1.5748622e-01
 -4.8835627e-03
 -3.4386852e-01
 -2.5533892e-02
  5.7940006e-02
 -1.5951660e-03
 -3.4116104e-02
 -9.7289374e-03
 -4.5362268e-02
  5.9434082e-02
  2.1959411e-02
  1.7820568e-01
  3.9414912e-02
 -9.6765503e-02
  2.7749421e-02
  7.4448690e-02
 -2.3230091e-02
  9.5479876e-02
  7.9934113e-02
  6.4101137e-02
  8.3951671e-03
  1.7544439e-02
 -3.2916709e-03
  8.6183116e-02
  1.5887303e-03
  1.3327247e-02
 -6.5520801e-02
  1.3332179e-01
 -8.8354889e-03
 -7.2700297e-03
 -2.6347665e-02
  3.9664596e-02
 -4.2466488e-02
  1.0445410e-02
  2.4702004e-01
  3.1090122e-02
  1.4493966e-01
  2.3536619e-02
 -2.0275647e-02
 -1.1938349e-02
  3.4590089e-03
 -8.5400222e-03
  1.1579778e-01
 -3.0396570e-02
 -2.2706056e-02
 -8.6179778e-02
  2.1861854e-01
  4.1737203e-02
  8.0144472e-02
  7.7920564e-02
 -3.0450702e-02
  1.7329006e-03
  6.6066217e-03
 -3.1921122e-02
  1.0519633e-01
  1.1417124e-01
 -2.2927290e-02
  8.5183419e-02
  2.0968372e-03
  1.1972812e-01
 -1.3893545e-02
  3.6467079e-02
 -5.1461332e-02
  1.7420727e-01
  8.9966357e-03
  4.5918461e-02
 -4.0635136e-03
  2.4233934e-02
  1.4389520e-02
  1.8546626e-01
  2.2107761e-02
 -5.0942614e-03
 -5.8937860e-01
  1.1028290e+00
 -2.8550234e-01
 -2.7666886e-03
 -1.4429149e-02
 -3.1371766e-01
 -1.6078609e-01
 -2.9646024e-01
 -1.1151696e-01
 -5.2742649e-02
 -4.4120241e-02
 -1.2414892e+00
 -2.5240026e-02
 -3.7885811e-02
 -7.9668766e-01
  2.9461553e-02
 -1.6049272e-01
 -5.5176150e-02
 -1.0544267e-01
  9.1129832e-02
 -3.7534180e-01
  4.7515783e-02
 -5.0977653e-01
 -1.4387123e-01
  5.3659219e-02
 -1.0539480e-01
 -7.1059608e-01
  6.1325729e-01
  2.8343660e-01
 -6.5355057e-01
  4.2190582e-01
 -1.6874962e-01
 -1.4966905e-01
 -1.9235998e-01
 -2.2952413e-02
 -2.3150186e-01
  6.2845419e-03
 -7.7095018e-03
 -4.7443530e-01
  7.9047740e-02
 -4.2429966e-01
  2.2674246e-02
  6.2290061e-02
  3.8314674e-02
  1.8945731e-01
  3.3801082e-01
  5.5743611e-01
 -8.1584908e-02
 -8.5007600e-02
  4.2594939e-02
 -1.3671945e-02
 -2.7404863e-02
 -2.3760494e-02
 -1.0642241e-02
 -2.1813424e-02
 -8.9416193e-04
 -4.3775748e-02
 -1.0268348e-01
 -1.2653131e-02
 -1.0683295e-01
  4.4150366e-03
 -1.3422819e-02
 -1.7456619e-02
 -5.8649208e-02
 -3.4909019e-01
  5.5023045e-03
 -1.5124394e-02
 -6.5196685e-02
 -2.5884505e-02
 -7.2670937e-02
 -1.2908465e-02
 -5.9340924e-02
 -5.0145961e-02
  1.1186172e-02
  6.1665205e-03
 -8.9020230e-02
 -1.8800216e-02
  3.5180885e-02
 -5.5557054e-02
 -3.6173869e-02
 -1.6466381e-02
 -1.1187600e-01
 -1.4398363e-01
  2.1537639e-02
 -7.0631891e-02
  5.2529082e-02
 -8.3257249e-03
  3.3923488e-02
 -2.4281163e-02
 -4.2545710e-02
 -3.4539995e-01
 -3.6687326e-02
 -2.4575372e-03
  3.1315099e-02
  3.3358650e-03
  1.5985768e-02
  1.5856970e-02
  8.8060945e-03
  2.9687781e-02
 -1.1235668e-02
 -3.9696284e-02
 -9.8853582e-04
  9.4753709e-03
 -1.8390275e-03
  3.3420406e-02
 -9.1254562e-02
 -1.2519348e-02
 -5.7881139e-02
 -7.7630512e-02
 -6.0639158e-03
 -2.3392951e-03
  1.3271278e-01
  5.1713657e-02
  2.6214559e-02
 -2.7596487e-02
 -3.0476309e-04
 -7.5151816e-02
 -7.4804775e-02
 -1.1197436e-02
  3.5848670e-02
  8.1380196e-02
  4.7835506e-02
  1.4418121e-01
 -2.7041905e-02
 -3.6917884e-02
  5.0948077e-01
 -5.5766338e-03
  3.7069265e-03
 -5.5783945e-03
  2.2230972e-02
 -4.2864457e-02
 -6.1820451e-02
 -1.8276859e-02
 -1.0622168e-02
 -6.9088235e-02
  1.5131664e-02
 -9.7017787e-02
  6.5116704e-02
  8.7303035e-03
 -2.1555521e-02
 -1.0681854e-02
  2.4572348e-02
 -3.5792816e-02
 -1.3530966e-02
 -1.1818240e-02
  2.1364041e-02
  1.0217101e-03
 -1.2503059e-01
 -8.7912343e-03
 -2.3350973e-02
  3.9158873e-03
 -6.9845463e-03
 -1.6283302e-03
 -5.2016727e-03
 -6.8665914e-02
  7.6234870e-02
 -2.6458533e-02
 -1.0756409e+00
 -4.5481343e-03
 -1.8791920e-02
  1.6429665e-05
 -1.4232750e-02
  1.7271608e-01
  2.0918548e-02
 -1.9327652e-02
  1.4679049e-02
 -1.0088173e-01
 -2.6487553e-05
  6.3091428e-03
  1.4360555e-02
 -5.2765915e-03
  2.2580437e-02
 -6.2085371e-03
 -2.5838462e-03
  5.7078211e-04
  8.3650775e-02
 -3.8754098e-02
  7.0845231e-02
  1.0264884e-01
 -4.0474858e-02
 -3.2542725e-04
 -1.9632975e-02
  3.3968415e-02
  7.0877001e-04
  6.4251921e-04
  3.7885875e-02
  9.0754190e-03
  3.3442382e-02
  2.8198557e-03
  9.4629578e-02
 -2.2965053e-02
 -3.1488460e-02
  7.8810364e-02
 -2.4142444e-02
 -7.9457827e-02
  3.5645362e-02
  2.9102536e-02
 -6.9909859e-03
  7.5646348e-02
  9.9630058e-02
 -3.2221619e-02
 -4.7618258e-04
  2.3958109e-02
 -6.8265334e-02
 -3.8081814e-02
 -9.7154458e-05
 -8.3452359e-02
  1.9524926e-02
 -4.4169817e-02
  4.2211223e-02
 -3.5318671e-04
  2.7425021e-02
 -1.6188553e-02
 -6.8295315e-02
  5.6275297e-03
 -4.2470905e-04
  9.3189436e-01
  1.3522284e-02
 -5.3942101e-03
 -3.5868654e-01
 -2.4877160e-03
 -7.0017678e-01
 -6.1520126e-02
  4.8095486e-04
 -2.2441942e-04
 -1.0717865e-03
 -1.8373432e-02
  3.8017545e-02
 -7.4901477e-02
 -1.3030817e-01
 -2.0357830e-02
 -1.7096747e-02
 -2.8830219e-02
 -2.2945091e-02
 -9.9971004e-02
 -9.1384858e-02
 -6.8421043e-02
  2.3484733e-02
 -1.3000264e-02
 -7.0766717e-02
  3.0210091e-02
  3.2832753e-02
 -8.4986733e-03
 -3.0692717e-01
  1.9599013e-03
 -1.7979668e-02
 -5.1624756e-02
  3.8424566e-02
 -1.6486175e-02
 -2.1466658e-02
  1.9286772e-02
 -4.4192333e-02
 -2.3547001e-02
 -4.4479921e-01
 -2.4677994e-02
 -1.1284137e-02
  3.8185786e-02
 -1.5401958e-02
 -2.2956783e-02
  1.0361936e-02
  5.1560704e-02
 -7.1111627e-02
 -3.2523721e-02
 -2.6087267e-03
 -1.6665438e-02
 -5.0111629e-02
 -4.7424518e-02
  3.5301948e-01
  4.4522110e-02
  1.5183906e-03
  6.1004254e-04
  1.4064293e-01
  5.5442091e-02
  1.8091090e-01
 -6.8431194e-03
 -9.8101199e-02
  6.9020145e-02
 -1.9011609e-04
 -7.5088209e-03
  3.1301536e-02
  1.9169647e-02
  1.4408113e-02
  8.6425990e-02
 -2.0721998e-02
 -3.5317171e-02
  6.5446370e-03
  1.5696179e-02
  1.8182149e-02
  3.7089393e-02
 -1.3305744e-02
 -3.8059153e-02
  9.2599252e-03
  1.2698938e-02
 -3.2553550e-02
 -3.4137968e-02
  3.0490335e-03
  7.3196352e-02
  7.1493134e-02
  1.2600353e-02
  4.9018100e-02
  7.1238473e-02
  3.9498311e-02
  4.5526125e-02
  1.6974015e-02
  4.9941397e-01
  4.4412009e-02
  2.3072235e-01
  2.3392440e-01
  2.9319590e-02
 -1.3096096e-02
 -4.7301045e-03
  4.0707443e-02
 -9.9422066e-03
  3.5562757e-03
  2.6578099e-02
 -1.8691598e-02
 -2.8406292e-02
  2.9479219e-02
 -5.0648555e-02
 -5.2353729e-02
 -1.3562490e-02
 -8.1159603e-03
  7.0848004e-03
  3.7021291e-02
 -1.1700910e-01
  2.1963196e-01
  2.3320796e-01
  4.5343772e-01
  9.1391462e-01
 -2.5296101e-01
 -1.2947590e+00
 -1.8599981e-01
 -6.0240153e-02
  2.7280715e-01
  4.1706998e-02
 -4.6997416e-01
  5.0310828e-03
  4.6232209e-01
 -4.6957042e-02
 -5.0832182e-01
  8.1346786e-01
 -1.3399143e-02
  2.8797539e-04
 -1.4171934e-01
 -2.4265865e-02
 -4.5665675e-01
 -5.6262231e-01
 -8.3617896e-02
 -1.3686159e-02
  2.2051144e-01
 -2.8065485e-03
  1.0152541e+00
  4.7593111e-01
  5.1282726e-02
  1.3908295e-01
 -1.2226318e-01
  1.6435123e-03
  1.5063937e-03
  7.6961482e-01
  4.4749599e-02
 -1.3572850e-02
 -8.0871992e-03
 -2.2401238e-02
 -2.4267934e-01
 -2.8775698e-03
 -3.1148253e-03
  1.1101473e-01
  3.4996208e-02
 -8.0012679e-02
  1.3801700e-01
  7.8194086e-03
  2.9722343e-03
  6.1986452e-01
 -5.3737857e-03
  3.6528277e-01
 -6.4024431e-01
 -7.2808042e-02
 -1.0872892e-01
  1.5363984e+00
 -1.8692194e+00
  7.3637271e-01
 -1.6340454e+00
 -1.5922120e+00
  2.0336907e+00
  1.9185315e+00
  1.5035631e-04
  1.1541361e+00
  2.0499415e+00
  4.7596734e-02
  4.3913502e-01
  2.0316718e+00
 -5.1381290e-03
  5.8778870e-01
  4.6276659e-01
  1.1381290e-01
 -1.2647470e-02
  8.7343824e-01
 -2.1825215e-01
  1.5519542e-01
  1.2413353e+00
  8.7037869e-02
  7.4945068e-01
  1.3384617e-02
 -2.4108122e-01
  3.2752499e-01
  2.3046124e-01
 -4.0816929e-02
  1.3029872e+00
 -1.9239485e-01
  2.7035326e-01
  7.5492895e-01
  8.3053809e-01
 -1.4008953e-01
  3.9293912e-01
  6.3739771e-01
 -2.8132874e-01
  8.2572347e-01
  3.7838629e-01
 -1.1872815e-01
  2.0577556e-01
 -4.8193812e-01
  4.6358919e-03
  3.5967936e-03
  3.1560294e-02
 -2.6606941e-01
  1.7401403e-02
 -4.0796295e-02
 -2.7328837e-01
 -3.6794847e-01
  1.6824708e-04
 -4.5211494e-02
 -1.1922459e-01
  4.3289080e-02
  7.8635914e-03
 -8.3431855e-02
 -5.7463995e-03
  1.7427208e-02
  2.8964847e-03
  4.3232806e-02
  3.5932872e-02
 -3.1504266e-02
 -5.0825272e-02
  3.8623650e-02
  3.2819916e-02
 -5.1483727e-04
  2.7016358e-02
  4.1718263e-02
 -1.7767210e-02
 -8.9929692e-02
  5.6943139e-03
 -8.9956224e-03
 -1.1412297e-01
 -1.1461498e-02
 -1.7761727e-01
 -2.4527381e-04
 -2.6787391e-02
 -2.0143596e-02
 -3.0656721e-02
  2.0841852e-02
 -2.9322684e-02
 -1.0637172e-02
  7.4002696e-03
 -1.1623290e-02
  1.6022567e-02
  1.6390091e-03
  6.8319418e-02
 -1.0727699e-02
 -4.4591025e-02
 -1.0047963e-01
 -2.4411609e-02
  1.1199503e-02
 -1.4007585e-02
 -6.0073059e-02
 -8.8626206e-02
  3.2733120e-02
 -6.2972307e-02
 -1.0081328e-02
  1.9998513e-02
  4.5112111e-03
 -9.7321719e-03
 -1.6985640e-02
 -1.8042447e-02
 -3.7911925e-02
  5.0472304e-02
  2.2605306e-02
  2.2635981e-03
  1.7006701e-02
 -2.7208796e-02
 -5.8608204e-03
  6.7413025e-02
  1.2166593e-03
  2.4781909e-02
  1.3515509e-02
  3.6622420e-02
 -8.1138201e-02
  2.0152142e-02
  6.6561671e-03
  2.3980828e-02
  3.0836862e-02
  1.9650882e-02
  5.2359961e-03
  7.7498034e-02
  2.8402863e-02
  4.4752276e-03
  2.6938111e-02
 -5.4052616e-03
 -3.8280472e-02
  9.0800757e-03
  1.1925154e-02
  7.1439691e-02
 -4.4784427e-02
  5.8642615e-02
 -4.8313788e-03
  6.6941231e-02
  9.8919431e-03
 -2.3705417e-03
  2.2764066e-02
  1.2038085e-02
  9.3426062e-03
 -5.6410011e-02
 -4.8376746e-02
  6.4089221e-01
 -1.1195638e-02
  6.1340120e-02
 -2.0759817e-02
  4.3051627e-02
 -1.7443096e-02
  8.9345379e-03
  3.2186400e-02
 -4.4368710e-02
  1.2097230e-01
  2.4609378e-02
  7.0140600e-02
 -8.4881326e-03
  1.7199837e-02
  2.0506810e-03
 -3.2719385e-04
  6.0811739e-02
  4.1891806e-02
 -2.6859123e-02
  1.7676914e-02
 -2.0078573e-02
  9.2814360e-03
 -1.2064706e-02
  1.0948901e-01
  3.3951433e+00
  4.4992208e-02
  1.5354139e-02
  3.0730462e-02
  8.1031263e-02
  5.9749085e-02
  2.6804654e-02
  3.4545317e-02
 -8.9412127e-03
 -1.4414619e-02
  7.6859263e-03
  3.4356660e-03
  4.8276931e-02
  7.9915322e-02
  1.1516209e-01
 -5.0525513e-02
  1.1465034e-01
 -2.6665488e-02
 -1.5321120e-02
  7.2892115e-02
 -1.6344734e-02
  1.6839398e-01
  5.1081412e-02
  4.0377334e-02
  1.9922813e-02
  9.2192434e-02
  5.4672672e-03
 -5.1085036e-03
 -7.9506468e-03
  2.0647224e-03
 -8.5760169e-02
  1.1182460e-01
  2.1574928e-01
  2.1597642e-02
  1.3417913e-01
  5.7735339e-02
  9.8355673e-02
  1.3915961e-02
  4.8524956e-03
 -1.5426592e-02
  2.1240341e-03
 -7.0312485e-04
 -2.3833867e-02
  2.6012693e-02
  4.9697720e-03
  9.2602223e-02
  3.2406053e-01
 -6.6086642e-02
  6.0601640e-01
 -4.3331477e-01
 -1.8847908e-01
 -4.3307688e-02
 -4.0084701e-02
  6.2651061e-02
 -1.3724804e-01
  1.4324276e-02
  8.8213543e-05
 -1.6102897e-02
  1.5045050e-01
 -3.6233585e-02
 -7.6740615e-02
 -2.1378891e-01
  2.8394140e-02
 -9.2219040e-03
  5.6933630e-02
  4.5225475e-02
  1.0310300e-01
  1.4534325e-02
  2.2613488e-01
 -4.4686768e-02
 -2.9185577e-04
  2.1507245e-02
  1.9416632e-02
  8.9452900e-02
  2.1633312e-02
  1.8264605e-02
  4.1796961e-01
  2.1252304e-01
 -6.4161569e-03
 -5.8398149e-03
 -9.2577264e-03
  1.2587060e-01
 -3.7105929e-02
  5.0721627e-01
 -2.6892708e-03
 -1.3025540e-02
  4.9424626e-02
 -1.5165738e-03
  2.4995953e-02
 -2.0545598e-02
 -2.1734595e-02
  2.7892774e-01
  3.8160555e-02
  3.3135453e-04
  1.9981777e-02
 -7.9093296e-03
  3.2206139e-04
  1.7065778e-02
 -2.5382973e-02
  5.6916215e-02
 -3.7564777e-02
 -5.5073844e-03
  4.1344117e-02
  1.1708407e-02
 -2.2423264e-02
  8.2212910e-02
 -1.1530748e-01
  2.8059280e-02
  3.6457989e-02
  1.0139532e-05
  7.4111708e-02
 -1.8321268e-02
 -2.9698502e-02
  1.1077137e-02
  1.5580758e-01
  7.8063938e-03
  3.0909050e-03
 -1.3762671e-03
 -4.5919945e-03
 -8.8160735e-04
 -1.4876395e-02
 -4.4961208e-03
 -1.5527568e-02
 -9.5011927e-03
 -5.5859409e-02
 -1.3246032e-02
 -6.0195122e-03
  2.8843416e-02
  3.3052478e-02
 -4.8189722e-02
 -5.3774912e-02
 -4.1508254e-02
  3.0444227e-02
 -2.9829837e-02
  1.8394489e-03
  1.0396089e-01
 -1.6569594e-03
  2.7839933e-02
 -6.4783625e-02
 -4.0794961e-02
 -5.7322185e-02
  3.4859069e-02
 -5.5812392e-02
  1.6689826e-02
 -3.2385716e-03
  3.9699879e-02
 -1.5827551e-01
 -3.2515109e-02
 -3.0145608e-02
 -4.6073310e-02
 -3.6566578e-02
  1.9300263e-02
  2.4898017e-02
 -2.3194006e-02
 -4.5359604e-02
 -9.6349362e-03
 -4.5036402e-02
  3.9793001e-04
 -2.9367726e-02
  2.4904924e-02
 -1.0365728e-01
  7.2745476e-03
 -3.4315459e-02
 -5.3374851e-03
 -3.3499662e-02
 -2.0738220e-02
  9.7032264e-03
 -1.4763399e-02
 -7.4209534e-03
  3.0193942e-02
 -2.6043521e-03
 -1.0939139e-02
  1.2079398e-02
 -8.7099053e-02
 -1.2266601e-02
 -5.5561736e-03
 -2.1850392e-02
 -2.0793196e-02
 -1.7707186e-02
 -2.2650329e-02
  4.3237753e-02
  4.4434533e-02
 -2.1370868e-01
 -4.8628156e-03
  2.7372580e-02
 -2.6585778e-02
 -1.0504195e-03
 -1.6044557e-01
  2.6963679e-02
  6.9028251e-02
  2.4292909e-02
 -5.7598823e-03
  9.0766639e-02
 -7.4140280e-02
  3.0973831e-03
  4.6785858e-02
 -6.1253022e-02
 -9.5176049e-02
 -1.1961098e-01
  7.3310668e-03
 -1.2979627e-02
 -1.1891775e-02
 -5.1133625e-02
  2.9050983e-02
 -1.1544820e-01
 -1.8649656e-02
 -5.6284736e-03
 -7.7445008e-02
  4.0426838e-01
  2.2591736e-02
 -1.2716696e-02
 -5.2403075e-01
  1.0113756e-03
  7.7800885e-02
  2.4189167e-01
  2.3189576e-02
 -2.0694122e-01
 -9.5489301e-04
 -1.5573734e-02
  4.5618266e-02
 -6.4157150e-03
  2.4951078e-02
 -8.2453880e-03
  2.3950739e-02
  1.8540593e-03
  1.3361392e-02
  6.7078635e-02
 -4.4310279e-02
  1.1408636e-01
 -1.9087467e-02
  3.8991296e-01
 -4.1869294e-04
 -1.4309483e-02
  4.1919169e-03
 -2.0066790e-02
  1.0788700e-02
  2.1421291e-02
 -2.6699757e-02
 -2.0435603e-02
  4.0269982e-02
 -2.1077175e-02
  1.5306988e-01
 -8.9308079e-03
 -1.1760591e-03
 -5.2428883e-02
  3.5331495e-02
  3.3275709e-02
 -7.6872897e-03
  2.4607091e-03
 -3.6217589e-02
  1.2358883e-02
  6.0441000e-03
  7.0495084e-03
 -2.0191304e-02
  1.8483280e-01
  3.6303915e-02
 -3.8297106e-02
  1.8420905e-03
  1.1518217e-02
  4.5583285e-02
 -1.6339766e-02
  2.1576909e-02
  3.1788549e-01
  3.2198831e-02
  1.6839911e-03
 -3.2505706e-01
  2.7883226e-01
  5.5738723e-01
  1.9346243e-01
  5.6465600e-02
 -1.5263598e-01
  3.1837690e-04
  1.3050448e+00
  1.5252544e-01
  6.8798536e-01
  3.6516581e-02
  9.2944978e-03
 -1.5454653e-01
  8.0597413e-01
 -1.7919974e-01
 -1.0206356e-02
  1.1079391e+00
 -6.6778414e-02
 -3.6947659e-01
  3.6600858e-02
 -1.0965889e-01
 -6.5233612e-01
  8.3848619e-01
 -5.6861537e-03
 -2.5262639e-01
  5.3635042e-02
 -3.8843679e-03
  1.3847339e-01
  5.7674363e-02
  3.5821471e-01
  1.9365318e-01
 -4.2006364e-03
  6.1056010e-02
 -7.9490215e-02
  3.8736099e-01
 -2.0123985e-01
 -1.3485161e-02
  5.3136230e-01
  7.3939198e-01
  7.2230883e-03
  6.6299014e-02
 -5.5442160e-01
  2.1402465e-01
 -4.2546973e-01
 -6.4340629e-02
 -5.0752409e-02
  3.2025002e-02
  2.2158245e-02
  1.8864011e-02
  9.4433330e-02
  5.6821686e-01
  1.7979270e-02
  3.6807831e-02
 -1.9335588e-02
 -5.1955450e-02
  2.9447699e-02
 -1.8164020e-02
  2.3137616e-02
  1.9061584e-02
 -7.9071298e-02
  2.1547277e-02
 -2.5866047e-02
 -9.3576396e-03
 -2.6033290e-02
 -1.4045178e-02
  6.2292241e-02
 -5.2151210e-03
 -6.2918512e-04
 -2.6237662e-03
 -1.9702487e-02
  6.6174613e-03
 -3.1060281e-01
 -4.3664578e-02
 -2.8492622e-02
 -3.0907532e-02
  6.7226283e-02
 -1.1571709e-02
 -8.2106497e-03
  2.5026305e-02
 -4.6472881e-02
 -3.1176131e-02
 -6.8414308e-02
 -4.7255843e-03
  2.0520901e-02
 -2.0931655e-01
 -4.9739957e-02
 -2.2780323e-02
  3.2882832e-02
 -4.1990733e-04
 -5.1055284e-04
 -3.6102813e-02
  2.5665402e-02
  1.7318735e-02
 -2.2667954e-02
 -3.1568371e-02
 -1.7820146e-02
 -4.9663992e-03
  3.9343219e-02
  3.0106191e-02
 -2.5004830e-02
 -1.4429823e-02
  6.5494739e-03
  2.5090907e-02
 -1.4924976e-02
  1.1027005e-01
  1.9836532e-02
 -2.4150617e-02
 -4.9574293e-02
  5.4600719e-02
  7.6513164e-02
  1.8078150e-02
 -4.1569713e-01
  7.0144591e-04
  5.8860611e-02
 -1.0092349e-03
 -8.7049669e-03
 -1.2135728e-03
 -5.8497828e-02
  7.7155483e-04
  1.9587595e-02
  1.0895922e-02
 -4.1771520e-02
  6.2510043e-02
  1.6194759e-03
  9.5435135e-02
 -5.1761756e-04
  7.0898412e-03
 -8.1199966e-02
 -4.1719235e-02
 -4.7661051e-02
 -3.4956802e-02
 -2.8907204e-02
 -4.0006051e-03
  7.6721929e-02
 -5.7632390e-02
 -1.4478850e-01
 -2.1744207e-01
  3.9428696e-02
 -2.0472461e-03
 -1.9943373e-02
 -9.4546108e-03
 -4.2475741e-03
 -6.1545525e-02
  4.1846987e-03
 -8.2372531e-02
 -3.1865153e-02
  4.2335307e-03
 -2.5774278e-02
 -3.0847412e-02
 -2.3908521e-01
 -1.0647557e-02
  3.4040466e-03
 -7.8456046e-04
  2.0360768e-02
  3.8627386e-02
  3.4992460e-02
 -6.7339867e-02
 -1.2536050e-02
 -3.1427812e-02
 -4.9526077e-02
  3.0639553e-02
 -3.1520139e-02
  7.0778164e-03
 -2.1500835e-01
 -1.2510529e-01
 -2.1906617e-01
  1.7595345e-02
 -6.3674027e-01
  4.5728266e-02
 -1.1779894e-02
  2.6450350e-03
 -5.3733643e-02
 -9.7743492e-04
  3.9898410e-02
 -5.3612120e-02
  2.9550375e-02
  3.4545206e-02
 -4.9150460e-03
 -1.2024801e-01
  1.9791722e-02
  2.6898872e-02
 -1.0879511e-01
 -4.7004785e-02
 -5.8284845e-02
  1.2833389e-02
  3.1775467e-02
 -4.1728608e-02
 -8.1733521e-03
 -3.0285260e-02
 -1.1215520e-01
 -9.3223140e-02
  3.3488236e-03
 -1.1836894e-01
  2.4820864e-03
 -3.6979392e-02
  7.7871387e-03
 -2.0719904e-02
 -9.3668988e-03
 -5.3424362e-02
  3.4606182e-03
 -4.6979832e-03
 -2.1995406e-01
 -2.1290367e-02
 -8.7358579e-02
  1.0707518e-01
  1.0690930e-02
 -2.7985279e-02
  5.7700038e-02
 -5.7492401e-02
 -5.8251292e-02
 -2.0954122e-01
 -2.2179952e-02
  2.5930246e-02
  3.8326206e-03
 -8.7005742e-02
  3.1372208e-02
 -1.2909850e-01
  1.1952661e-03
  6.5162003e-02
 -1.8273327e-01
 -1.2554701e-02
 -1.3173458e-01
 -1.9733291e-02
  2.7701065e-02
 -2.0126073e-02
 -3.4788724e-02
  1.8836515e-02
  6.8101438e-04
 -1.4411061e-02
 -7.3113167e-03
 -8.9775641e-03
  2.8149677e-02
  7.1319692e-02
 -3.8578901e-02
 -7.6228797e-02
 -8.4175915e-02
 -5.9496816e-02
 -2.7685296e-02
  1.8730646e-02
  1.2283094e-01
  3.3146318e-02
 -1.8731605e-02
 -1.2821071e-02
 -5.3802427e-02
 -2.3939788e-02
  1.9377068e-02
  4.5303078e-03
  6.0002051e-02
  7.4998606e-03
  1.0726554e-02
 -3.0846586e-02
 -2.6079856e-02
 -2.1217383e-02
  4.9856654e-03
 -5.2016997e-03
 -1.2023748e-01
 -7.4999012e-02
  3.5006765e-03
 -9.7205482e-02
  2.9928034e-02
  2.9039217e-02
  5.1188864e-02
 -1.0915993e-02
 -2.0508380e-03
  8.2366560e-03
 -2.8668292e-02
 -6.9233412e-03
 -1.4347963e-02
  1.2869433e-02
  1.8821056e-01
  1.2711504e-02
  2.4739901e-02
  1.5227991e-01
  9.3733341e-02
  1.1125133e-02
  4.8672771e-03
 -3.0197976e-02
 -8.4920615e-02
  7.9883337e-02
  5.1431442e-03
  2.0987758e-02
  1.6170269e-02
 -1.0125184e-02
 -7.7172061e-03
 -2.0571963e-01
 -4.8106085e-03
 -3.7711520e-02
 -7.5068250e-03
  7.9080679e-02
 -1.7613156e-02
 -5.5634897e-02
  3.5086706e-02
 -1.7801058e-02
  5.8781379e-03
  7.8836735e-03
  1.4759238e-01
 -1.1278737e-03
  6.1417758e-03
  2.1833213e-02
 -3.9164133e-02
  7.8352079e-02
 -5.7215621e-03
  8.6168526e-03
 -2.2044927e-02
  1.8769342e-02
  1.0778312e-01
  5.7427315e-03
 -2.5960880e-03
 -5.4577950e-02
 -1.0961165e-02
  9.7162649e-03
 -2.2196434e-03
  2.7913788e-02
 -1.5069811e-03
  1.1099766e-01
  1.1648126e-01
  6.2807217e-02
 -1.7499628e-02
 -4.3119872e-03
  7.5293765e-03
 -2.0011827e-02
 -2.2084764e-03
  3.4625646e-02
  6.1134942e-02
 -2.5194174e-02
 -1.6832119e-02
 -1.7975165e-01
 -2.9744446e-02
  3.2585975e-02
 -2.7550703e-01
 -1.7812809e-02
  1.7055754e-02
 -4.3132219e-02
 -6.5595441e-02
 -6.9645084e-03
  7.3729949e-03
 -6.6430002e-02
 -7.0119269e-02
  7.5451419e-02
 -3.6539964e-02
 -4.5529789e-01
 -9.7776037e-03
 -9.5576476e-03
 -2.7745965e-01
 -3.7929233e-02
  2.0277255e+00
  1.1092936e-02
 -9.8189227e-03
  3.3625305e-02
 -6.8768792e-02
 -3.2048468e-02
 -5.7455242e-02
 -2.1880120e-01
 -1.7476643e-02
 -6.6725254e-02
 -9.8640516e-02
 -5.5572120e-03
 -2.1231705e-02
  1.5250761e-02
 -1.0169284e-01
 -4.3337516e-02
 -1.8106187e-03
  2.5460437e-02
 -7.3458768e-02
 -1.4126739e-02
 -3.4259897e-02
 -2.0466698e-02
  9.0846987e-03
  2.9268205e-02
 -8.7511040e-02
 -1.9382399e-02
  6.6129458e-03
 -1.0172430e-02
 -2.7063036e-02
  1.0221181e-02
 -8.8462937e-01
  3.3410888e-02
  2.6830593e-01
 -9.8183705e-03
  1.7646517e-01
  5.9813187e-03
 -3.3565333e-01
  2.0505266e-01
  2.7027363e-01
 -2.0689744e-01
 -6.6349823e-03
  1.3122360e-01
  1.0887339e+00
 -2.6256046e-01
 -3.6630739e-02
 -1.0031255e-01
  9.2139885e-02
  5.7081744e-02
  4.0576932e-01
 -3.9926037e-01
  2.1353364e-01
  1.2491664e+00
  2.3285362e-01
  5.2050635e-02
  1.2432304e-02
  9.0660028e-02
 -3.9724627e-01
  8.7699634e-01
 -1.8744882e-02
  3.5461706e-01
  8.0985075e-01
 -2.9219091e-01
  1.9317029e-02
 -3.8766289e-01
  7.1820267e-03
  9.1778198e-03
  5.6069873e-02
 -2.7594104e-01
 -3.9963663e-02
 -1.6675198e-02
 -3.6571386e-01
 -5.8927599e-02
 -6.5908718e-01
  4.4646140e-02
 -3.1136310e-01
  1.2034328e-02
  5.1217552e-02
  3.2801881e-02
  4.2869389e-01
 -2.4120213e-02
  8.1203962e-03
 -1.9116455e-01
 -5.4266936e-01
 -5.8251284e-02
 -4.3825704e-01
 -7.8620220e-04
 -1.7015472e-02
  2.3307258e-01
 -1.1731619e-01
  5.5983383e-03
 -3.3664736e-01
  2.0853968e-02
  9.0947719e-03
  6.2379424e-02
  1.4961231e-02
  6.9394535e-03
 -7.3665880e-02
  1.7644739e-02
  3.9262596e-01
 -1.0577833e-02
 -1.2014596e-01
  1.7404230e-02
 -4.6708368e-02
  1.8842436e-02
 -3.4637932e-02
 -1.1524885e-01
 -4.6278398e-02
  2.1579055e-02
  4.3904232e-03
 -1.3657819e-02
  5.2948132e-02
  2.3443089e-03
 -1.6696824e-02
  3.1502686e-02
 -6.9026627e-02
 -2.0970303e-01
  5.1659912e-01
 -9.3559690e-02
  1.2297997e-03
  1.2120653e-01
 -3.8875581e-03
 -2.4012132e-03
  1.9737005e-03
 -1.7240974e-01
 -1.3196790e-01
  2.8080603e-02
  2.9980857e-03
 -1.4039722e-02
 -2.2514749e-03
  5.0232913e-03
  8.2434928e-03
  4.2992223e-02
 -2.2147821e-02
 -4.6766918e-02
 -4.9097907e-02
  9.1766916e-02
  1.3039842e-03
  2.2421442e-02
  6.4951368e-02
 -2.0254771e-03
  1.4180247e-02
  2.9668866e-03
  7.3625469e-03
  1.3521047e-02
  3.1427860e-02
 -6.5534585e-03
 -1.7814748e-02
 -5.1303301e-02
  2.4012574e-03
  9.9177793e-02
  2.6788597e-03
 -8.9445710e-02
  2.0647494e-02
 -1.5762001e-03
  1.0034778e-02
 -6.9701739e-02
 -7.2183614e-03
  3.0166969e-02
  5.7477236e-02
  1.2700675e+00
  8.9278795e-02
  9.5696962e-03
 -3.7709821e-02
 -3.7200343e-02
 -2.7363950e-02
  9.2028268e-02
  8.8828199e-02
  1.2897505e-01
  3.2320123e-02
 -6.3814126e-02
 -1.2181947e-02
  6.7247547e-02
  2.6528446e-02
  8.5405353e-03
  7.6661073e-02
  4.9398001e-02
 -3.6646675e-02
  1.5561283e-01
 -4.6211607e-03
 -1.1906759e-02
  2.3565288e-01
  3.4817653e-03
 -2.4258967e-02
  4.4518821e-02
 -5.9486181e-02
 -3.5976760e-02
 -2.2141542e-03
 -1.5604361e-02
 -1.8121833e-02
 -1.9680623e-02
 -1.8969417e-02
 -2.2803120e-02
 -9.5208315e-03
 -3.6383938e-02
  2.8024636e-02
 -8.1123270e-02
  1.0769691e-02
  2.4243638e-02
  6.8213649e-02
  6.0715418e-02
 -1.0348534e-02
  4.5847874e-02
  6.0214945e-03
 -5.2981160e-04
 -1.4187118e-01
  2.4675382e-02
 -4.1840460e-02
 -1.3888310e-02
  2.8855124e-02
 -1.8981950e-02
  1.7200068e-02
 -6.5361229e-03
  7.1579151e-02
 -2.8318902e-03
  1.7252345e-01
  8.1545450e-03
  3.7889385e-03
  2.8093295e-02
  1.1720355e-02
  4.1439790e-02
  5.8286143e-03
 -1.0020254e-02
 -6.4553530e-03
  2.3082676e-03
  6.7694578e-03
 -2.7370658e-03
  1.2108967e-01
  1.8858716e-03
 -1.5113116e-02
  3.8641819e-03
  6.0640793e-02
  6.4312369e-02
  3.4339351e-03
 -5.9264340e-03
  5.8286656e-02
  1.4874996e-02
 -2.9530628e-02
 -2.2065051e-02
  2.2481058e-02
 -1.5363849e-02
 -1.4158622e-02
 -2.9643035e-01
  7.3107569e-03
  2.4853853e-04
  7.9117715e-02
  2.9035471e-02
  4.3355055e+00
 -1.0641221e+00
 -3.8672912e+00
  1.0329936e-01
 -2.5998228e+00
  2.4117927e-01
  2.4158282e+00
 -3.6813240e+00
  5.5054635e-01
  1.9258502e+00
  2.5343163e+00
  9.5849735e-01
 -2.0895844e+00
  9.6705043e-01
 -6.5439230e-01
  2.1008065e+00
  1.5938377e+00
 -1.1491033e+00
  2.9265299e-01
  1.5680488e+00
 -7.7863675e-01
 -1.0498940e-02
  2.5548536e-01
  7.1670067e-01
  1.0458308e+00
  1.7175771e+00
 -8.6868358e-01
 -1.2309067e+00
  6.6932988e-01
 -7.6028335e-01
  2.3381538e+00
  2.1119668e+00
  9.6555620e-01
  5.6596380e-01
  2.0370276e+00
  8.0320543e-01
  7.8049123e-01
 -4.3342258e-03
 -1.1359078e+00
  3.0069387e+00
  1.6502990e+00
  4.1256556e-01
  3.5895863e-01
  5.5018628e-01
  1.0642718e+00
  1.9681290e-01
  7.1874391e-03
  6.0715491e-01
 -1.3023445e-01
 -1.3727159e-02
  4.9552032e-01
 -7.0015264e-01
  9.3513615e-02
 -7.2127610e-01
 -1.3732211e-02
  3.0419942e-02
 -9.4585650e-02
 -9.2962287e-02
 -1.9921858e-02
  5.8150113e-02
 -4.0619660e-02
 -1.4090522e-02
 -2.7304519e-02
 -2.4686839e-02
  6.4250164e-02
 -3.1982120e-02
 -2.5690574e-02
 -3.8497728e-05
 -6.5198946e-03
 -1.5695389e-02
  1.6737558e-02
  2.2510538e-05
  9.3681579e-03
 -7.0287175e-02
 -2.8905304e-02
 -1.3827871e-01
 -6.9974914e-02
 -7.1155932e-03
 -2.1052551e-03
 -2.1068146e-02
 -3.4165788e-02
 -1.1872320e-02
 -1.9333811e-02
  4.2349469e-02
 -7.9127476e-02
 -1.2251998e-01
  8.4132507e-02
 -1.2951547e-01
  7.8256384e-02
 -2.2548908e-02
  2.2471709e-02
 -6.0911097e-02
  1.0870477e-02
 -4.5832947e-02
  3.4497667e-02
 -2.2865593e-02
 -5.6190420e-02
  2.3929613e-02
 -1.0941664e-01
 -2.2514693e-02
 -7.6881588e-02
  1.4238058e-02
  3.1944051e-02
  9.3553506e-04
 -3.1003784e-03
 -2.9743990e-02
  8.3736302e-03
 -1.4099738e-03
  3.5783239e-03
  4.3054499e-02
 -8.3953924e-02
 -3.0925427e-02
  6.2579229e-02
  1.7268108e-02
  3.2582652e-02
 -1.5169269e-02
  8.5527804e-03
  5.5335606e-03
  2.6548877e-02
  5.4270322e-03
 -1.4586431e-03
 -2.7174209e-03
 -2.5520336e-02
 -1.1640065e-02
 -5.8490202e-02
  1.4501722e-02
 -1.1655360e-01
  3.2723721e-02
  2.7204446e-02
 -6.3489079e-02
  2.0518351e-02
 -4.4286184e-02
  3.1940397e-02
 -2.6091445e-02
  1.9599957e-02
 -1.4228136e-02
 -3.0321075e-04
  1.5321727e-02
 -2.3013563e-03
  2.3887600e-03
  5.9852907e-03
 -1.2942187e-01
  1.4192387e-02
 -1.0304692e-02
 -4.4075657e-02
 -5.9975524e-02
  2.9613320e-02
 -2.1865778e-02
 -4.8731342e-02
 -3.6714221e-03
 -5.5866715e-02
 -5.0263852e-02
  9.9362312e-03
 -1.4206304e-02
  4.8282921e-02
 -4.6448477e-02
  9.3793355e-02
  3.0796256e-02
  3.8827749e-03
 -4.6327417e-03
 -7.9792812e-03
 -6.2448315e-02
  1.2827937e-02
  8.3358668e-02
  3.8985323e-04
  1.0507808e-01
 -1.7174045e-02
 -2.4817295e-02
  5.7035843e-03
 -9.0086190e-03
 -4.2799031e-03
 -8.8787442e-03
 -4.7803475e-03
  1.2923157e-01
  1.2383815e-01
 -1.2725039e-03
 -4.5615017e-02
  9.4975475e-03
  1.0265860e-02
  4.1770156e-02
  1.3473613e-02
  1.7765659e-01
 -1.5540993e-03
  6.2670462e-02
 -2.7688127e-02
 -1.2140261e-02
 -3.1363275e-03
  7.8907149e-04
 -8.9389080e-01
  9.1719113e-02
  1.3932222e-01
 -1.4129490e-02
  3.7196215e-02
  1.1672021e-01
 -3.0923875e-02
  3.5315160e-02
 -5.7713925e-03
  2.2179982e-02
 -1.5458885e-02
  5.3741783e-02
 -2.2073868e-03
  2.5817521e-02
  2.2968808e-02
 -1.1407250e-02
  9.5340349e-03
 -9.5303552e-03
  2.5642984e-02
 -1.8026555e-02
 -2.3254338e-01
 -8.9967037e-03
  9.4894012e-03
 -1.8300297e-02
 -6.2606588e-02
  8.4202746e-03
 -3.9841916e-02
 -2.7090204e-03
  3.5493464e+00
 -1.2207747e-02
 -1.7786837e-01
 -1.9975545e-02
 -5.2784503e-01
 -3.2403095e+00
 -7.9247624e-02
 -7.4881142e-01
  5.3100592e-01
  3.7960070e-01
  1.4214993e+00
  5.1693881e-01
 -6.1130244e-03
  1.3020854e+00
 -1.2389102e+00
  1.6222034e+00
  8.7861192e-01
 -9.3900639e-01
  5.8237016e-01
  1.5820032e+00
 -3.5325620e-01
 -5.0876057e-01
  6.9120753e-01
  6.8951941e-01
 -1.3490058e-01
  6.2275904e-01
 -1.0003723e+00
  1.1823716e+00
  1.2415931e+00
 -1.4740621e-02
 -8.6663976e-02
  1.0262358e+00
  5.5759537e-01
 -9.0988588e-01
  1.0612822e+00
  5.1329494e-01
  5.2261788e-01
  1.6108776e+00
 -8.3222769e-02
  5.4740846e-01
  4.1565269e-01
 -5.8244962e-02
 -4.7147661e-01
  9.4533098e-01
  7.1244264e-01
  3.7827715e-02
  2.4946888e-01
  3.4630626e-01
 -3.1019753e-01
 -9.3329169e-02
 -7.5442041e-03
  3.4811806e-02
 -9.7912216e-01
 -2.6548243e-01
  1.3403638e-01
 -5.1460996e-02
 -9.1339953e-02
  2.0200992e-02
  2.8377311e-02
 -7.0806280e-02
  3.0887720e-01
 -1.1779410e-02
  3.0758798e-02
 -1.1779680e-02
  4.6409066e-03
  2.1451887e-02
 -2.0796286e-02
  7.4311830e-03
 -4.1407071e-02
 -1.3381207e-02
  5.5782910e-02
 -4.1211065e-02
 -7.7665716e-02
  1.3814972e-01
 -1.9302430e-02
  1.5225396e-02
  1.9164045e-01
 -6.7492854e-04
  1.9526247e-02
  4.0398940e-02
 -1.3132221e-02
 -2.4712298e-02
 -1.0130568e-02
 -5.3223923e-02
  8.4414914e-02
  5.6622367e-02
 -4.4005841e-02
  2.7703121e-02
 -7.5242370e-02
 -8.5931972e-02
 -1.4730535e-02
 -1.9965169e-03
  1.0948993e-01
  1.3820999e-02
 -1.6933065e-02
  5.1997375e-02
 -6.2157903e-03
  1.6033659e-02
  6.4544119e-02
 -3.2260895e-03
 -7.6005948e-03
  8.3660206e-04
  5.7805035e-02
  3.4556985e-02
 -5.2159559e-02
  3.9274167e-02
  9.7481735e-02
 -1.8747076e-02
 -1.2031047e-01
  9.2874868e-03
  9.6828423e-02
  6.5530978e-02
  1.7842051e-02
 -9.3162857e-02
  3.7365691e-03
  1.8526800e-04
  7.1124053e-03
 -3.9170738e-02
 -1.1138755e-01
 -2.0377139e-02
 -6.7846179e-02
 -1.1431824e-03
 -5.7650447e-02
 -1.5297141e-02
  3.7828725e-02
 -1.1740575e-02
  2.6381124e-02
 -6.2703458e-03
 -1.5970892e-01
 -5.5986461e-03
