nep4 4 Ga O C Si 
cutoff 6 4 178 51
n_max 8 8
basis_size 10 10
l_max 4 2 0
ANN 60 0
 -1.6802647e-03
 -1.1158201e-02
  6.1939126e-01
 -6.1548366e-03
  2.1132322e-01
 -1.0889779e-02
  2.6319854e-04
  2.9186089e-02
  1.9842183e-02
  1.7217079e-02
  7.9224482e-03
 -2.3961824e-03
  2.0802636e-03
  1.4891291e-04
  1.1431020e-02
 -3.0616866e-04
  1.1229691e-02
 -2.9145425e-02
  4.1371523e-03
  7.5346730e-03
  3.8443541e-03
  7.3444465e-04
 -9.7095743e-03
  7.5484989e-03
 -5.9335651e-03
 -6.3670222e-03
  2.5191570e-02
 -6.2589431e-03
 -8.9527898e-02
 -7.6084789e-03
 -4.1475703e-04
  1.2807022e-02
 -1.7007759e-02
  9.5708594e-03
 -1.0290493e-02
 -4.0886253e-03
  3.3311478e-03
 -1.4207212e-02
  1.4143770e-03
  3.4280065e-03
 -5.4522343e-03
 -1.6966384e-03
 -5.2354075e-03
 -4.4275573e-03
  9.0769641e-03
  7.4651833e-03
 -4.2065971e-02
  3.9425003e-03
 -1.3101938e-04
 -1.5900457e-02
  6.4784321e-03
  3.0282813e-03
  1.7706010e-02
  7.5992937e-03
  4.6247444e-03
  5.1965215e-03
 -4.7014073e-02
  4.5382944e-03
 -1.5908125e-03
  4.4637178e-03
 -1.0476529e-01
 -1.1354709e-01
  2.9564139e-03
 -2.4829456e-03
 -1.8118541e-03
  1.7029878e-03
  2.8575838e-03
  1.3716862e-02
  6.8549424e-02
 -2.7666660e-02
  1.0033149e-03
  2.2298626e-03
  3.0434069e-03
 -2.6934494e-03
 -2.8541745e-03
 -1.4034461e-02
 -8.0167660e-03
  1.3339426e-02
 -9.2764311e-03
  5.6766788e-03
  7.4178813e-04
 -1.0247494e-02
  2.9873629e-03
 -3.6336100e-04
  1.3895384e-02
 -1.5037321e-03
  2.2020070e-02
  3.1642117e-02
  1.4540077e-02
 -3.6333568e-02
  3.4587474e-03
 -3.2131139e-03
  3.5519693e-03
 -6.4153671e-03
 -3.0886910e-03
  5.5872109e-03
  2.7015649e-03
 -1.4745908e-02
  2.4671592e-03
 -4.1319905e-03
 -2.9731011e-03
 -1.2257512e-02
 -6.1264946e-03
  8.1963101e-03
 -2.6625546e-03
 -5.4068753e-04
  1.4030149e-03
 -4.3632924e-03
  1.2537770e-02
 -2.5254411e-03
 -1.8321795e-02
 -6.9765723e-03
  1.4022796e-03
 -5.3279563e-03
 -2.1617834e-02
 -1.2302189e-01
 -3.1833522e-02
  7.3106453e-04
 -1.6404368e-02
 -5.9129279e-03
  6.4033397e-02
  7.5044455e-03
  2.8056132e-03
 -8.0761127e-03
 -1.5369770e-03
  5.8370181e-03
  2.2153385e-04
  3.8340658e-02
 -3.1829933e-03
  7.8370310e-03
 -1.6667768e-02
  8.9374743e-03
 -9.4537769e-05
  1.4492601e-02
 -9.8132796e-04
 -1.7913494e-03
  2.4271291e-03
  3.1941193e-03
 -1.7195013e-03
 -2.0089650e-03
  5.8654929e-03
  7.4837254e-03
  1.2671686e-02
  3.1857711e-05
  2.0432470e-03
  2.0737443e-02
 -4.5389044e-03
  1.4589895e-02
  1.1745797e-02
 -1.4264417e-03
  1.2356055e-02
  6.7961909e-02
 -1.5400007e-02
  4.9443133e-03
 -5.3120819e-03
 -1.8046176e-04
 -4.0535503e-03
  1.0727576e-02
  1.2699167e-02
 -1.8385926e-03
 -1.2172934e-03
  9.2976744e-04
 -6.0615106e-04
  6.0969824e-04
  8.1069462e-02
  4.1094064e-03
  3.9730640e-03
  4.6476580e-02
  2.1009755e-03
  8.4752727e-01
  1.3188791e-03
  2.4316104e-03
 -7.7002123e-03
  2.2252358e-03
 -1.1368264e-02
 -2.1871643e-02
 -1.9446738e-02
 -2.8657585e-03
 -1.5976067e-03
 -2.4204589e-02
 -8.6509697e-03
 -2.1748052e-03
  6.8669725e-04
  4.0422096e-03
 -2.4810250e-04
 -1.2183897e-02
  2.8136568e-02
 -9.4223081e-04
 -9.1554280e-03
  1.0267592e-02
 -4.6719626e-02
 -3.8282382e-05
 -2.0347442e-02
  3.3066757e-02
 -4.6301294e-02
 -1.2294084e-02
  8.8219233e-03
 -5.9751039e-03
  2.6161945e-03
  8.9637013e-03
  3.2734128e-03
  1.8528608e-03
 -1.2230213e-02
  8.4500201e-03
 -2.7654159e-03
  2.9379096e-05
  4.4735516e-03
  6.5076384e-03
  1.2846903e-02
 -9.6039061e-04
 -6.1207577e-03
  7.2908695e-03
 -3.1763494e-03
 -3.1487583e-04
 -1.2316294e-03
  1.1034070e-02
  4.4820908e-02
  4.5129340e-03
 -3.2036316e-02
 -1.6133213e-02
 -1.3646068e-02
 -9.8373489e-03
  2.6358133e-03
 -3.2694690e-02
 -9.4442774e-04
  2.8395974e-03
 -8.9838821e-04
  4.4300556e-03
 -1.0970927e-02
  2.9589622e-03
 -3.6975043e-03
  7.4156257e-03
  3.6055285e-02
 -1.1236725e-03
  1.1034094e-02
  3.4606436e-03
 -8.5848365e-03
 -1.1779059e-02
  2.9543713e-02
  2.1511414e-03
 -8.6499797e-03
  2.0498135e-03
  3.6128212e-02
 -2.7311193e-03
  7.0048464e-03
 -4.7841407e-03
 -7.1758684e-03
 -1.0226262e-03
 -2.8302142e-04
 -3.4877062e-03
  3.8608700e-02
  1.8070195e-03
  8.2849106e-03
  2.3233711e-03
  3.5783118e-03
  1.6915027e-02
 -1.1990331e-02
  8.0012530e-03
 -1.7316552e-03
  1.7638821e-02
 -1.4080292e-03
 -5.6487024e-03
  4.9553262e-03
 -5.7863998e-03
 -1.6735157e-02
  3.2643501e-03
 -1.2795303e-03
  2.1584476e-03
  1.8998802e-02
 -5.3819293e-01
 -2.1539635e-03
  1.4427276e-03
 -2.1332579e-03
 -6.5406584e-03
  7.5017493e-03
 -5.7591507e-03
  7.8479880e-03
  6.0885819e-03
  1.3988382e-01
  7.4726990e-03
 -3.5499485e-04
 -4.3449183e-03
 -9.9183589e-02
 -1.6447259e-03
 -3.4459326e-03
  2.4042202e-02
 -3.9534608e-04
 -1.5249166e-03
  2.6133186e-03
  3.5591695e-02
  9.3861083e-03
 -3.0596700e-02
 -1.3616310e-02
  1.9410111e-03
  5.0919550e-03
 -1.4801752e-03
 -1.1677750e-02
 -1.6202515e-03
  1.3398627e-03
 -4.3027811e-03
 -7.2109871e-02
  4.0762555e-03
 -4.7888029e-02
 -8.9513483e-03
  2.5957101e-03
  1.1126491e+00
 -9.1628358e-03
 -4.4205231e-03
 -1.9513322e-02
  6.9157131e-02
 -3.9563797e-04
  7.1679787e-03
 -1.9421902e-01
  1.7994433e-03
  5.4295675e-04
  5.8947480e-03
 -8.5993307e-03
  5.5392594e-03
  2.6914832e-01
 -7.7479775e-03
  1.3472202e-03
 -3.2297513e-03
 -9.6182879e-03
 -1.0075906e-02
 -1.3300296e-03
 -3.0282280e-01
  3.2887781e+00
 -1.7954912e-02
  1.0002165e-03
  8.2942741e-03
  8.2591921e-01
  7.5694937e-01
  9.5286047e-01
  9.9007852e-02
 -1.2320074e+00
  3.5834822e-01
  1.8366307e+00
 -1.1879191e-01
 -1.7706117e-03
 -1.2686676e-01
  1.0205783e+00
 -8.6058509e-01
  6.9655868e-04
 -3.6367390e-01
  5.0230068e-01
  3.7890986e-01
  3.5233742e-01
 -1.0637136e+00
 -3.8419738e-01
  4.4359225e-01
 -3.7733998e-02
  6.1379831e-02
 -6.5158796e-01
 -3.1043398e-01
  7.8326142e-01
 -4.4782105e-01
  8.6054552e-01
  2.7712947e-01
  1.5496458e-01
 -2.4224710e-01
  9.7056746e-01
 -1.8892448e-02
 -2.5453806e-02
  1.0471812e-02
  1.3685676e-01
 -3.5964641e-01
  5.0113514e-02
 -1.1207812e-02
  1.0232176e-01
  5.3533894e-01
  7.9868110e-03
  5.9987158e-01
 -5.4060942e-01
  3.4756753e-01
  1.4787062e-02
  1.1214643e-02
 -1.1248607e-02
 -1.1856514e-02
 -3.8990497e-03
 -3.2245161e-03
  4.4497889e-01
  2.4771211e-03
  2.1064174e-03
 -4.1329986e-03
  6.5490767e-02
  7.9553589e-02
 -1.5791614e-03
 -2.9893874e-04
  4.3280143e-03
 -4.2724586e-03
 -7.1230195e-03
 -3.0988675e-02
 -1.2891712e-03
  2.9484914e-03
  9.1392444e-03
 -1.3688436e-03
 -1.3684644e-02
  7.6001170e-03
  6.6395767e-04
 -1.1372729e-02
 -4.6527758e-03
 -6.0316455e-03
 -1.0872079e-02
 -1.2721730e-02
  7.3948377e-03
 -6.2959534e-03
 -9.7120576e-02
  8.9582345e-03
 -1.5455994e-03
  6.1574229e-03
 -2.6015779e-02
  2.4542972e-02
  7.9161376e-03
 -7.6596704e-03
  4.0691933e-03
 -2.0948976e-01
 -2.7752422e-02
  4.4859978e-03
 -8.1160069e-03
  1.5453097e-02
  1.1612757e-03
 -1.4153294e-02
  6.3744243e-03
  3.1665596e-04
  3.3150753e-03
  3.0158630e-03
  8.8248318e-03
  1.4824586e-03
  1.3682322e-03
  1.5878035e-02
 -6.8369368e-04
 -1.6185371e-02
  2.2926219e+00
 -1.0029303e-01
  1.6333700e+00
  3.9007175e-01
 -2.6802173e-01
  6.7645031e-01
 -3.0300672e+00
  2.2324315e-01
 -1.7179654e+00
  1.2786747e+00
  2.4761071e+00
 -4.6290493e-01
 -1.7489691e+00
 -1.1297435e+00
  1.8049869e-01
  1.1634132e+00
  2.0782561e+00
 -2.2422057e-01
  1.5632983e-01
  3.7666231e-01
  1.7920221e-03
 -4.0075445e-01
 -6.4017367e-01
  6.0045105e-01
  9.6053261e-01
 -1.3703763e-01
  2.7535522e-01
 -3.2795027e-02
 -1.6428131e+00
  1.1213568e-01
 -3.1381419e-01
 -9.3690246e-01
  4.1572031e-01
  1.6443012e+00
  2.0197680e-02
 -7.4121016e-01
 -1.6494090e-03
 -1.5889578e+00
 -7.2187334e-01
 -1.7249435e-01
 -2.3499253e-01
  5.6410831e-01
  8.4981328e-01
 -2.8298846e-02
 -1.0310844e+00
 -5.1129670e-03
 -1.5222152e-01
  2.1466766e-02
  3.1604829e-01
 -2.8218238e-02
  1.1797921e-02
  4.9804065e-02
  3.5625450e-02
  2.0427175e-02
  3.5116467e-01
 -7.8240609e-01
  1.3144355e+00
 -6.1364490e-01
 -6.2344301e-01
 -1.4079383e-01
 -3.2239690e-01
  9.8135519e-01
  2.1512980e+00
 -5.0611436e-01
  6.3094282e-01
 -9.0404730e-03
 -1.4145520e+00
 -1.6981758e-01
  4.6260534e-03
  1.1328842e-02
 -3.3539268e-01
 -1.0790455e-01
 -1.2006857e+00
 -5.7757837e-01
 -4.9382693e-01
 -1.1422049e+00
 -1.2276198e-01
 -4.2042672e-03
 -4.1843504e-03
 -6.3717932e-01
  1.0272305e-02
 -3.1183846e-03
 -2.0858933e-01
  1.6753995e-01
 -8.4938270e-01
 -1.6419262e+00
 -1.0264444e+00
 -3.0861285e-01
  8.8921112e-01
 -1.8756193e-01
  1.3601582e-04
 -1.8481036e-01
  4.3780234e-01
 -2.6919663e-01
 -6.6050726e-01
 -6.2923020e-01
 -8.7182008e-02
  2.1463491e-02
 -2.8630829e-01
  1.1619297e-02
  4.1220528e-01
 -1.1471957e-02
 -7.8963926e-03
  2.9645571e-03
  2.1265694e-01
 -5.5592161e-01
 -1.5807400e-02
 -2.4300953e-02
 -1.3302512e-02
 -3.5241030e-03
  6.5995550e-01
 -1.2512443e-02
  1.1674847e-03
 -5.2304048e-02
 -1.2961519e-02
  5.6818683e-02
 -1.3861411e-02
 -1.2542892e-02
 -6.4694782e-04
 -1.0727310e-02
 -3.9249044e-02
 -4.9521867e-03
  2.1069667e-03
 -8.9866528e-03
 -3.7426260e-04
 -1.6764151e-02
  5.0335201e-03
  2.5067795e-02
 -3.4464143e-02
 -1.0931429e-02
 -1.5635380e-03
  2.5058577e-03
 -4.9513701e-02
 -2.2869827e-03
  1.0703602e-02
  3.5697049e-03
 -9.0126572e-03
 -5.3700656e-03
 -1.2724789e-02
 -1.3177247e-03
 -1.1978950e-02
 -3.6039733e-04
  2.2689035e-04
  1.6837430e-05
  9.6549410e-03
  7.5876848e-03
  5.3377347e-03
 -3.7207876e-03
 -1.3874877e-02
 -1.8562404e-02
 -8.9160986e-03
 -1.1068364e-03
 -1.6597850e-02
  8.3996672e-03
 -2.1380745e-03
  2.3456637e-03
  4.6787784e-03
 -6.2110722e-03
 -3.2542120e-03
  9.2995428e-03
  7.8725256e-03
  1.3231632e-02
 -4.9834494e-03
  2.2352604e-02
  3.7963342e-02
 -8.9057069e-03
  2.2718642e-02
  5.0264940e-04
 -1.1330978e-03
  9.5913923e-01
 -5.6563178e-03
 -3.2420139e-04
 -6.7668678e-03
 -6.3459892e-03
 -7.3552066e-03
 -3.5199624e-02
  1.0248793e-02
  8.4610120e-04
  2.0732484e-03
 -1.1613921e-02
 -5.6520682e-03
  6.5558241e-03
  1.4960569e-02
 -3.4192139e-03
  1.1986569e-03
  3.0764204e-03
 -1.3702315e-02
 -9.7866487e-03
  1.6012691e-03
  2.5231733e-03
 -4.4657583e-03
  1.8416820e-04
 -2.6566759e-04
  1.3196388e-03
  2.3992651e-03
 -1.1790548e-02
  1.0183920e-03
 -1.8420637e-02
  1.0886579e-02
  4.5167808e-03
 -9.1185616e-03
  1.9789020e-02
 -6.6826823e-03
 -5.2236766e-04
 -1.0089084e-03
  4.2880967e-04
 -1.1280610e-03
 -7.7198842e-03
 -4.9189683e-03
  6.1859796e-03
  1.3234077e-03
  1.8426493e-02
  3.4106555e-04
 -7.0911422e-03
  4.8561444e-04
  1.3063506e-03
 -2.3761499e-03
 -3.7781935e-04
 -8.4007524e-02
  9.2525588e-04
  4.2319871e-03
 -6.0334564e-03
  2.9829731e-02
 -7.7736191e-02
 -1.9297636e-01
 -4.2733416e-02
  4.7878474e-03
  1.2480508e-02
  2.1223063e-02
  2.5154953e-03
  9.1397362e-03
  1.2297296e-02
 -4.5467345e-03
  4.7075488e-02
 -3.3738054e-02
 -3.7668380e-03
 -6.0358417e-04
 -2.7591917e-03
 -2.9289257e-03
  4.3279580e-03
  1.0002643e-02
  8.6084940e-03
  1.0087762e-02
  3.5923887e-02
  4.6225064e-03
  1.1874598e-02
  1.0062418e-03
 -1.1502135e-02
 -7.8521436e-04
  2.3670120e-02
  1.6598684e-03
  2.2144520e-03
 -5.7740603e-03
 -2.2493033e-03
  6.5091816e-03
 -1.3763077e-02
  3.1161397e-03
  5.9867892e-03
  7.6793679e-03
 -8.0282232e-03
  8.0625719e-04
 -4.7452752e-03
  3.1839040e-04
  4.3972535e-03
 -4.4109300e-04
  5.5881795e-03
 -5.8719404e-03
 -6.4308648e-03
  4.9320085e-04
 -1.2827617e-02
  2.3745624e-03
  3.3895057e-03
  3.8184866e-02
 -5.3034271e-03
  1.4539370e-03
  1.7264886e-03
 -4.1972129e-03
  1.1325364e-01
  3.7942417e-03
 -1.6236324e-03
  3.1546871e-03
 -1.7555226e-02
 -2.7145490e-03
 -3.2515973e-02
 -1.5235578e-02
 -1.2608704e-02
  6.2805824e-03
 -2.4548566e-02
  3.7440723e-03
  2.3027319e-02
  1.1730108e-02
  1.4100556e-02
  1.3192684e-02
  6.9273110e-03
 -5.0207148e-03
 -6.0719801e-03
 -3.5692055e-02
  2.0579561e-03
 -3.9779447e-02
  1.2512245e-04
  1.0289372e-02
  1.6942803e-02
 -1.9930786e-02
 -5.7834908e-02
 -2.3106519e-02
 -1.0050872e-02
  3.1627959e-03
 -6.5697306e-03
  1.3392928e-01
 -1.7872024e-02
 -1.2290112e-02
  1.4051502e-03
 -1.7538853e-02
 -1.1673590e-02
 -7.6266644e-03
  4.6409722e-03
  6.4964513e-03
  5.8520230e-04
  7.4609276e-04
  6.0272119e-03
 -1.3644276e-04
  2.4395990e-03
  3.9110696e-03
  2.0751417e-02
 -1.3081066e-03
 -1.0946678e-03
 -7.8999853e-01
  3.8184924e-03
 -7.7932207e-03
 -8.8272989e-03
 -3.0314038e-03
 -1.1276994e-01
 -1.7081032e-02
 -7.6708855e-04
 -4.7284467e-03
 -3.4417324e-03
  2.0209435e-02
  7.3122322e-03
 -1.6271917e-03
  3.9764848e-03
  1.6075253e-02
  2.1930983e-02
  9.6701980e-03
 -3.2241398e-03
  1.5532541e-02
  3.1492837e-02
  8.4074615e-03
  2.4687874e-03
 -5.0915889e-03
 -1.2587068e-03
 -7.6255999e-03
 -1.9746996e-02
  1.6898176e-02
 -9.6535925e-03
  3.1835627e-02
 -2.8550539e-03
  3.1273500e-03
  2.8500037e-02
  7.8157056e-03
  7.6561011e-03
  4.7876185e-04
 -2.0430166e-02
 -6.7268773e-03
 -3.6614877e-03
  1.0220270e-02
  5.5920607e-03
  1.6042596e-02
 -8.4165093e-03
  1.3887742e-02
  1.7726938e-03
 -1.6463926e-02
  7.0978762e-03
  5.3236727e-02
 -1.6175982e-02
  3.0452665e-03
  8.9661032e-03
 -2.9153069e-03
  7.8123370e-03
 -1.6588183e-02
 -1.3209674e-02
  3.6216646e-02
  2.0313604e-02
  1.2954056e-02
 -1.9860379e-02
 -2.7733813e-03
  1.3484953e-01
  5.4410320e-02
 -3.6299159e-03
  2.2440422e-02
  5.5210467e-04
 -2.0329030e-02
 -1.3315934e-03
 -5.1469780e-03
 -2.8255528e-03
  5.5625415e-03
 -3.2689881e-02
  2.6168888e-03
 -8.9728826e-04
 -8.2283672e-03
 -8.9430419e-04
 -7.2276528e-04
 -2.7812593e-02
 -2.9782602e-03
 -6.4347503e-03
  2.0839766e-02
  6.2839859e-03
 -7.7092596e-03
 -2.8965796e-05
 -1.2900027e-02
 -6.6728848e-03
  5.1910719e-03
 -7.5928912e-02
  9.5705816e-04
  4.6122377e-03
  4.8552318e-03
 -3.7671574e-03
 -9.3399752e-03
 -1.7596445e-03
 -4.4151642e-03
 -1.7592699e-03
 -5.3490824e-03
 -3.7132672e-04
  3.8120663e-03
  7.7040873e-02
 -4.0504490e-03
  1.0612500e-02
  3.5844531e-03
  7.8170393e-03
  1.9919174e-03
  4.3094205e-03
 -6.0803038e-03
 -1.4986964e-03
  1.8250743e+00
 -1.8485337e-02
  1.0822623e+00
  7.1903807e-01
 -7.1519423e-01
  5.2764203e-02
  4.1752644e-02
 -1.4407848e+00
 -6.0243410e-01
 -1.1013778e+00
  1.7033705e-02
 -4.0814340e-02
 -3.5812488e-01
  4.7576994e-01
 -4.6598177e-02
 -9.7787082e-02
 -3.9110999e-03
  2.8964067e-02
  6.1504310e-01
  1.1772981e-03
  7.3416734e-01
 -4.2318937e-01
 -4.0891901e-01
  3.6036238e-02
 -2.1812102e-02
  5.3195176e-03
 -5.0505751e-01
  2.3101196e-04
  1.5895952e-01
  5.3459680e-01
 -4.6262179e-02
 -1.5545538e-01
  3.6425927e-01
 -3.8656244e-01
  1.2668359e-01
  4.7465418e-02
 -1.5259659e-01
 -4.9298427e-01
  1.8763968e-01
 -1.1697782e-01
  1.8403578e-01
  1.1926869e-01
 -4.2358767e-02
  1.6417862e-01
  3.7307926e-03
 -2.8544869e-03
  2.5108486e-01
  2.7096495e-02
  1.7501889e-02
 -1.5819404e-02
 -4.7035538e-02
  7.6827221e-03
  3.4081053e-02
  9.9144010e-03
 -4.8297569e-03
  3.4990408e-02
 -4.2617198e-02
  8.1418986e-03
  1.6088260e-03
  2.9315811e-02
 -2.6388893e-02
 -5.3919822e-01
 -8.3110407e-03
 -4.0949494e-02
 -2.4997404e-02
  3.2684996e-03
  9.0064881e-03
  9.1529014e-03
 -4.5671184e-03
  3.4831532e-03
 -2.2445112e-02
 -9.0769550e-04
  1.5929561e-03
 -2.5644060e-03
  1.3787407e-02
 -3.2721555e-03
  7.7628694e-04
  4.3750131e-03
 -3.9900900e-03
  1.2117763e-03
 -7.3761689e-03
 -1.0035938e-03
  5.0052622e-04
 -1.5377862e-02
  1.3170230e-02
  1.2509293e-02
 -4.0536798e-03
 -2.8342530e-03
  8.1856297e-03
 -3.5092887e-03
 -2.7366096e-04
  3.4297470e-02
  2.7367586e-02
  9.4066240e-02
  6.2085401e-02
  1.3460082e-01
 -4.3953031e-01
  2.2965524e-02
 -8.3811656e-03
 -1.3950191e-02
  2.1605585e-02
  1.2277131e-04
 -2.9203830e-02
  3.0841664e-03
  2.0859495e-02
 -8.5519366e-03
  1.1165945e-02
  1.6042072e-03
  1.1868085e-02
 -5.3868121e-03
 -4.7071341e-01
  2.8580679e-02
  7.7727311e-03
 -4.6298392e-03
 -1.1388443e-01
 -4.9940780e-01
 -1.5593718e-02
  7.4211690e-03
  7.7166003e-03
 -1.3505331e-03
  3.0190278e-02
  8.7268129e-03
  9.3509695e-03
  5.9903790e-03
 -2.1385117e-03
  3.1198381e-02
 -9.3358653e-03
  2.5687227e-03
  2.8728100e-03
  3.4938157e-03
  8.7196147e-03
 -2.4088945e-03
  1.2886427e-01
  1.2591837e-02
 -7.6779793e-04
  7.6375232e-04
  3.9902162e-02
  1.9387921e-02
  4.4535920e-03
  1.3972814e-02
  3.9156960e-04
  1.6419154e-01
 -2.4877421e-03
 -1.7609660e-03
  3.4571940e-03
 -4.8671168e-04
  2.0618966e-02
  1.2985415e-02
  2.8476123e-02
 -8.3253131e-04
  6.0761303e-02
 -9.6131982e-03
 -4.4196746e-03
  4.3331604e-03
 -8.7060295e-03
 -1.5976127e-02
 -5.1719574e-03
 -6.0365233e-04
  7.9455040e-03
 -4.6813940e-03
  6.9304989e-03
 -1.1117650e-02
 -1.7467785e-03
 -2.9114003e-03
  3.1468615e-01
  2.2271248e-03
  1.5469235e-02
 -1.1995379e-02
  8.9354860e-03
  8.4082000e-02
  3.0204883e-02
  2.9173704e-02
 -7.9057012e-03
  3.2389667e-03
 -1.4835502e-01
 -1.9839885e-02
  1.9451416e-03
 -5.4622497e-03
  4.2364728e-03
 -1.6434452e-02
 -1.6351728e-02
  1.8191420e-02
  1.6254393e-02
 -7.1059661e-03
 -2.3180772e-02
 -1.1613671e-02
 -3.6370952e-03
 -2.5568575e-02
  4.1922405e-03
 -9.6990546e-04
 -5.5250108e-02
 -1.0159392e-02
 -5.3328932e-03
  1.0548995e-01
 -4.7058821e-02
 -1.2283335e-01
 -2.9978559e-03
 -2.0864310e-03
 -2.1178673e-03
 -2.7949072e-03
 -1.8454138e-02
  5.0088588e-02
 -9.7088777e-03
  7.6811803e-03
 -7.4553780e-02
  9.4394319e-02
 -6.1646313e-03
  8.2632815e-03
 -4.9270978e-03
  5.3096568e-04
  1.1776974e-04
 -8.5666706e-04
 -1.9899521e-03
 -1.6224207e-03
 -2.0973118e-02
 -1.7397539e-03
  3.4778225e-03
  2.2210170e-02
 -4.4109258e-01
  5.0000716e-03
 -1.8186698e-02
  3.1231172e-04
 -4.1984459e-03
 -1.9593336e-01
 -4.1111320e-04
  5.9489077e-03
 -1.9378785e-02
  2.0881242e-03
 -7.3961755e-03
  2.0358553e-02
  1.4116352e-02
  3.0218910e-03
  3.0831620e-03
  9.4954586e-03
 -1.5600224e-02
  6.9409488e-03
  1.8164411e-02
  4.3910984e-03
  6.3688341e-03
 -1.2917161e-03
 -1.4054240e-03
  5.4609925e-03
 -2.5591985e-03
 -8.4308786e-03
  1.1447266e-02
  1.0662482e-03
  4.6533961e-03
 -9.1760149e-03
 -6.5147732e-03
  1.1753432e-02
 -2.6903956e-03
 -1.4337554e-02
  5.7730237e-03
  8.5786097e-03
  2.0532119e-03
 -1.3661988e-02
 -1.7709646e-02
 -3.4996744e-03
  3.3776436e-02
  1.0090525e-02
 -1.3102123e-02
  9.7227376e-03
 -8.7905712e-03
 -6.7625428e-04
 -1.1270123e-02
  9.4365440e-03
  1.4691831e-02
  1.4803495e-03
 -2.0734128e-03
  2.5806311e-03
  1.7734955e-03
 -3.4762148e-03
 -1.2830034e-01
 -3.5674486e-02
 -1.4746735e-02
  4.6461150e-03
  1.2026753e-01
  6.8395650e-01
  1.6009863e-01
  2.0053556e-02
  7.3694848e-02
 -8.8910060e-04
 -2.2927430e-02
 -5.4051742e-02
 -2.3001648e-01
 -1.9143263e-02
 -2.7989628e-02
 -1.2344431e-01
 -6.6771456e-03
  6.1697699e-03
 -1.2335188e-02
  2.9106420e-02
 -8.8146143e-02
  2.0489305e-02
  3.0293460e-03
 -3.4008920e-02
 -1.8979332e-03
  8.9390613e-03
 -3.8529184e-01
 -3.3551328e-02
  7.9398295e-03
 -8.5463334e-04
 -2.4895805e-03
 -3.0580691e-01
  4.0385295e-03
  1.1922106e-03
 -6.5800124e-03
 -2.4187053e-02
 -6.5490524e-03
  3.5333068e-03
 -1.9003727e-02
 -2.1893946e-02
 -3.9122604e-02
  1.3624102e-02
  5.5199671e-03
  1.7459866e-03
  9.2323525e-03
  2.9163701e-02
  4.3632951e-02
  3.3783719e-03
  5.4910164e-03
  5.9799134e-04
  5.0835134e-03
 -1.3676792e-02
 -5.5075544e-03
  1.1288993e-02
  2.4762605e-01
 -3.8446872e-03
  2.4547473e-02
  4.7443779e-03
  3.8127596e-03
  1.3239509e-01
  9.7714132e-03
  1.2993964e-02
  8.4619783e-03
 -9.0405338e-05
 -8.8575855e-03
 -2.5870256e-02
 -2.4517238e-02
 -3.9397642e-02
  6.0273730e-03
  2.2175806e-03
 -9.2181214e-04
  2.7011055e-03
  3.7860230e-03
 -5.5083903e-03
 -4.0937554e-02
 -4.9048588e-03
 -5.7160249e-03
  3.8107105e-03
  8.5537918e-03
  6.1903195e-03
 -2.3140924e-02
 -3.0881220e-03
 -4.3088398e-03
  6.8550493e-04
 -5.8322202e-02
 -1.2709786e-03
 -1.4801880e-02
  3.7867110e-04
 -4.6293188e-02
 -1.5031515e-01
  1.9209272e-03
  1.3370351e-02
 -1.3109955e-02
 -5.0710891e-03
  2.0220657e-03
 -1.7311804e-02
 -2.2771396e-03
  3.9285910e-03
 -1.1548094e-01
 -2.9532665e-03
 -2.3703232e-02
  6.3785212e-03
  5.7141740e-02
 -9.8795379e-03
  4.0357099e-03
 -2.7312219e-04
  6.1557803e-02
  1.2058439e-03
 -2.0754239e-01
  1.2668373e-02
 -9.4547039e-03
  1.6735528e-02
 -2.4583859e-02
 -9.6400052e-02
 -3.8075898e-02
 -6.0525676e-03
 -4.3203575e-03
  2.9410245e-03
 -3.9024595e-03
  5.2117935e-04
  2.8071590e-02
 -1.4325609e-02
  4.4451104e-03
  3.4792330e-02
  1.0589917e-02
 -3.8634585e-03
 -4.9682148e-03
  1.3258483e-04
  1.3014828e-02
  4.1299304e-03
  8.8535044e-03
  2.7879982e-03
 -3.2160443e-03
 -5.0360896e-03
  7.3825672e-02
  1.3789564e-02
  1.3903802e-02
  5.7773609e-03
 -2.0108349e-03
  5.9877173e-03
  1.5821947e-02
 -8.3622197e-04
 -6.3667543e-02
  6.9274525e-03
 -6.9389897e-03
 -1.8652623e-03
  7.7127275e-04
 -5.7648821e-03
  2.2153868e-03
  1.3129018e-02
  2.3559225e-03
 -1.3176154e-02
 -1.1514458e-02
  2.0102153e-03
 -8.6640734e-03
  6.6125457e-04
  1.0979669e-02
  3.5938595e-03
 -1.2652755e-03
  6.8351324e-03
 -1.1071893e-03
  1.8914312e-03
 -2.9917112e-01
  2.3225822e-01
 -3.3408832e-02
  1.3747104e-03
 -3.3854240e-01
 -1.1549141e-01
 -5.6127375e-01
  3.8658965e-03
 -1.2421286e-02
 -1.7964934e-03
 -4.4540651e-03
 -2.8046474e-03
  2.5639979e-02
 -5.4920563e-03
 -4.4313888e-03
  4.9930975e-02
 -1.8640996e-03
  1.0173584e-02
 -4.4949818e-03
  1.2255860e-02
  1.4150409e-03
  6.9745965e-03
  7.5470908e-03
 -1.0515127e-03
  2.8884551e-04
  4.3067974e-03
  7.2729528e-02
  4.7071602e-02
  5.0870110e-03
  1.1605725e-02
  8.5545108e-02
  8.3482675e-02
  1.7541956e-02
 -3.9822659e-03
 -2.5809593e-03
  4.0907324e-03
  3.2126084e-02
 -1.9650979e-02
  1.5406271e-02
 -6.2543224e-03
 -2.3675854e-03
  1.0817629e-02
 -4.0101116e-03
  8.3499644e-03
  1.1659259e-03
  3.1593582e-03
  1.1339300e-02
  1.3136177e-02
  5.3138816e-04
  8.0879042e-03
  2.2084245e-02
 -4.7053507e-04
 -1.0359110e-02
  7.7898055e-03
 -1.2101088e-01
 -3.4242463e-03
 -1.7343923e-02
  7.1663889e-03
 -2.2242336e-02
 -1.3063498e-01
 -3.1820335e-03
 -4.7594132e-03
 -1.8811591e-02
  1.4345165e-03
  2.6589189e-02
  2.2084102e-02
  3.4042678e-03
 -9.6726120e-03
 -5.0738105e-03
 -1.4738412e-02
  1.5376142e-02
 -2.7562845e-03
 -2.1341802e-03
  1.8441722e-03
  1.4858876e-02
  1.2061322e-02
  1.2597779e-02
  1.6730474e-02
  1.2084297e-02
  1.3819212e-02
  3.2051776e-02
  3.5125960e-03
  2.2004437e-02
 -2.4458775e-03
 -6.0756919e-03
  2.1562561e-04
  1.8458415e-03
 -7.3692957e-03
 -1.1735491e-03
 -3.0312152e-03
  4.4589858e-03
 -6.3584284e-03
 -9.1755219e-02
  5.3440198e-02
 -7.1445503e-03
  2.3899357e-01
 -1.4174213e-02
  7.6596852e-04
  2.5256215e-02
  3.4555148e-03
 -1.0065671e-02
  1.0091839e-02
  4.5715049e-03
 -4.9620420e-03
  3.2053753e-03
 -5.8630371e-04
 -1.2235716e-02
  7.6869963e-04
 -7.4764615e-01
 -6.0257469e-03
 -4.8345672e-03
  6.3325320e-03
  3.5956709e-04
 -2.4231841e-01
 -1.3306404e-03
 -1.8557828e-03
 -8.2648045e-04
  1.8103503e-03
  1.3362703e-02
  6.2353835e-03
  4.2960696e-02
 -5.6055775e-03
  1.0083687e-02
  1.4860140e-03
  3.2888001e-03
  1.1097535e-03
  3.9532473e-03
  6.6939094e-03
  3.4238654e-03
 -3.8192710e-03
 -7.4088771e-04
  3.3089057e-02
 -6.2514297e-03
  5.8955783e-03
  5.4921685e-03
  4.4687134e-03
  3.7787824e-03
 -1.2975743e-02
 -2.4418174e-03
 -1.9378471e-04
 -3.1524731e-03
 -4.3581789e-03
  2.2662621e-02
 -1.9905305e-02
  2.5740182e-03
 -5.0247894e-03
  6.9069644e-03
 -2.4754863e-04
  3.8426556e-03
  6.0442705e-03
 -2.0919163e-03
  3.5592590e-03
 -1.6274728e-02
 -3.1436800e-03
 -1.9996919e-02
  8.8652922e-04
  1.0775940e-02
 -4.3687192e-03
  4.2410027e-03
 -9.5196220e-04
 -7.9497142e-04
 -2.0400241e-02
  8.0419295e-02
  1.5232590e-03
  8.0348887e-03
 -7.1829823e-03
  6.1899252e-02
  2.3443697e-02
  2.3851819e-02
  1.0247777e-03
  1.4553210e-04
 -3.4352220e-03
  7.9218764e-03
 -6.6419197e-03
  1.7713762e-03
  1.2117899e-03
 -3.8806067e-03
  6.1635487e-04
  1.1910972e-02
  1.7021330e-02
  7.5710118e-03
 -1.1689086e-02
 -1.2023420e-03
  1.4863149e-02
 -7.2252154e-03
  5.0735311e-03
  2.3539078e-03
 -1.0410543e-02
 -1.6206382e-02
  1.3214216e-03
 -1.3510467e-02
 -1.3042761e-03
 -8.3002757e-05
 -2.6319765e-02
  1.4898326e-03
 -5.6077421e-02
  7.9094833e-03
  1.5858180e-03
 -8.2698325e-03
  8.5369434e-04
  7.0693702e-03
  8.4271771e-04
  2.5605820e-03
  2.4088384e-03
  4.6371832e-03
  3.2651408e-03
  6.9680749e-03
  4.7931639e-03
  2.6354741e-02
  2.0241555e-02
 -8.0461716e-03
  4.5483722e-03
 -1.2123424e-04
 -2.4098344e-02
  1.3990172e-02
  9.9678524e-03
  2.0582277e-01
 -1.1250100e-02
 -1.2799860e-02
 -8.5973059e-04
 -9.3494661e-02
 -1.3202163e+00
 -4.8210742e-03
 -6.2356185e-04
 -1.4906410e-02
  4.2906306e-03
  9.7915391e-03
  3.7931327e-03
  3.4795993e-04
  7.4063352e-04
  6.7577641e-03
  1.0345950e-02
  2.5896756e-02
 -1.6419342e-02
 -4.4678333e-03
  1.9092291e-03
 -6.3486155e-03
  6.4686319e-05
  2.5837002e-03
  3.2596034e-03
  5.2138055e-03
 -6.1126864e-03
  7.0044488e-02
  1.7162323e-02
  2.3927426e-03
 -8.8161317e-04
  1.7170643e-03
  9.9244490e-02
 -1.6597272e-03
  7.4275036e-04
  5.9925737e-03
 -5.6395554e-03
  1.8271719e-03
 -4.7616856e-03
  1.9245459e-02
 -1.0916387e-02
  4.4829407e-04
 -1.5633162e-03
 -3.7787610e-04
 -4.0051871e-04
  1.6327822e-03
 -1.8219858e-02
 -2.2969402e-03
  5.7211430e-03
  5.2021700e-03
  4.4644313e-04
  4.0733721e-03
 -4.9807518e-03
 -6.6366291e-04
  4.5021772e-03
 -4.8050418e-01
  1.4092006e-02
 -4.0557655e-03
  2.0819055e-03
 -1.0982661e-02
 -5.9530988e-02
 -1.7686449e-02
 -2.2620957e-02
 -5.3430034e-04
  5.8834814e-03
 -9.6163116e-02
 -1.6787740e-04
  2.3598144e-02
  6.7950152e-03
  4.0503964e-03
  2.1987460e-03
  2.8202003e-03
 -7.6671415e-03
  4.6037354e-02
  7.2062765e-03
 -4.1997628e-03
  1.8807450e-02
  1.5739262e-02
  2.2791447e-03
  1.3597036e-03
 -1.3950015e-02
  5.8087097e-03
 -2.0508746e-04
 -6.9665862e-03
  3.7647167e-03
  1.3749163e-02
  3.1497862e-02
 -1.2294462e-02
 -2.7319169e-02
 -7.8886058e-03
  2.0742256e-03
  2.3029100e-02
 -2.7347701e-03
 -7.5600483e-02
 -5.2825231e-03
  2.7506391e-03
  1.5346484e-02
  5.2437396e-04
  1.1610214e-02
  3.9611254e-03
  4.7678933e-03
 -1.4583837e-02
 -2.0588289e-03
 -6.0482020e-03
 -4.5755063e-03
 -9.0109545e-04
 -1.9746139e-03
  5.9482930e-03
 -2.7203895e-03
 -7.5118890e-04
  1.4991512e-03
  5.3412822e-04
 -3.9166893e-04
 -3.2638859e-03
  3.0239812e-01
  3.3024731e-01
 -2.8953466e-03
  3.0368546e-03
  6.3761370e-04
  6.0990914e-03
 -6.0401433e-03
 -7.7481812e-04
 -1.1453842e-02
  5.0892322e-03
 -1.6783430e-04
 -2.7592776e-03
 -6.6681416e-03
  1.2895658e-03
 -1.4732478e-04
  4.0680025e-04
 -5.8032165e-04
  9.1015231e-03
  4.8202416e-03
 -7.6497728e-03
  3.1623498e-03
 -7.1369736e-03
 -4.1102576e-03
 -1.9067723e-02
 -1.0992399e-02
  1.6693637e-01
 -3.0694164e-02
  1.0228021e-03
 -1.6555693e-02
 -1.3898157e-03
  2.2494027e-03
  7.7332272e-03
  2.8319317e-03
  9.2304014e-03
 -1.4055219e-02
 -3.4171921e-01
  1.2003445e-02
  1.2725240e-02
 -1.0648603e-02
 -2.1991458e-04
 -7.1708481e-03
 -1.3268891e-02
 -1.0859633e-02
  1.9186895e-03
 -1.2148626e-02
  2.9418822e-03
  5.7028295e-03
  1.1283208e-02
 -3.4209401e-03
 -2.8406841e-01
 -4.3443292e-03
 -5.5457614e-03
  1.4224671e-02
 -2.4287276e-02
 -3.8370777e-02
  1.1086240e-03
 -4.3172136e-02
 -2.8583177e-03
  4.7924193e-03
  5.7355207e-03
  3.2486520e-03
  1.9647274e-02
  2.3814461e-03
  6.8641137e-03
  3.9211378e-02
 -1.5904512e-03
  4.5177422e-02
  1.0016617e-02
 -4.5230882e-03
 -3.0601732e-03
 -6.2539489e-03
 -2.3155623e-04
  1.3543124e-02
  1.3702047e-02
 -1.0081835e-02
  9.2097744e-03
  3.7226065e-03
  1.5759574e-02
 -1.3837374e-02
  4.3531661e-03
  1.4889350e-02
  1.1218854e-02
  7.4418443e-03
 -6.2451367e-03
  5.2351281e-03
 -2.1760145e-03
 -6.9304155e-03
  1.7134696e-02
 -7.6620029e-03
  4.1279979e-02
 -8.0080517e-04
 -1.0469435e-02
  1.5505014e-02
  9.7092520e-03
 -1.1685491e-02
 -2.9271431e-04
 -1.6705733e-03
 -1.0295657e-02
  2.2691622e-02
 -5.2763391e-02
 -2.2328338e-02
 -2.1616592e+00
  1.6630096e+00
 -2.7726573e-01
  7.1487427e-03
  5.5925769e-01
  1.1150422e+00
  2.6241916e-01
 -2.3989530e-01
  4.3410942e-01
  5.7382864e-01
  4.7271448e-01
 -1.5527955e-02
  1.5377954e-01
  5.9386635e-01
 -1.4739610e+00
  3.4184929e-02
 -7.1421624e-03
 -5.0979340e-01
  1.0715322e-01
 -5.0031906e-01
 -6.0975593e-02
 -4.5918807e-01
  5.0682235e-01
 -4.0404961e-01
 -1.7045932e-01
  2.5194891e-02
  6.2923622e-01
  9.2004192e-01
  7.7957475e-01
 -2.3926444e-01
  6.3977383e-02
  8.1172669e-01
 -2.0013822e-02
 -9.4823921e-01
  2.8662566e-02
 -2.6910737e-02
  2.3674983e-01
  7.5585753e-02
 -1.5330046e-01
  7.3630840e-02
  2.4034135e-01
  1.3550499e-01
 -1.8298538e-01
  6.6178277e-02
 -1.5303157e-03
  7.2375056e-03
 -5.9281653e-01
 -1.9607396e-01
  6.2863350e-02
 -4.1222950e-03
 -2.1411001e-03
  2.1030320e-01
  1.4223497e-01
  3.1188023e-01
 -1.9452047e-03
 -1.4558178e-03
  1.5456147e-01
 -1.2920225e-03
  2.4582302e-02
 -1.0627723e-02
 -1.4103512e-02
  8.4281795e-02
  4.8453726e-02
  7.1593286e-03
 -1.0207409e-02
  1.2012256e-03
 -1.9734597e-03
 -8.5114948e-03
  3.7300384e-03
 -4.5625903e-04
  8.4156701e-03
 -6.8353866e-03
  5.2006179e-03
  6.8227742e-03
  4.2586252e-03
  6.1400859e-03
 -3.8085496e-03
  2.9742774e-03
  6.1177061e-04
  1.1111415e-03
  9.7642113e-03
 -5.8960111e-04
 -4.6905387e-02
 -7.4972888e-03
 -2.7263381e-02
  4.5746588e-03
 -6.5735169e-04
 -2.0728923e-02
 -4.7098035e-03
 -2.7146217e-04
 -4.6346313e-03
  1.1990743e-02
 -1.6155072e-02
  3.9301882e-03
  2.9686157e-02
 -1.7312208e-02
 -3.5144151e-03
  2.3977116e-02
 -9.3313213e-03
  9.0679405e-03
 -2.5789451e-03
 -3.3085907e-03
  7.4535681e-05
  1.2731025e-02
 -1.1138301e-02
  2.8154582e-03
  1.0417528e-02
 -1.9090859e-03
 -3.6749048e-03
  1.0363964e-02
 -5.2449328e-04
 -4.6593673e-03
  1.4636117e-03
  4.5575169e-03
 -4.4433430e-02
 -3.0293951e-02
  4.2795794e-04
 -5.3696748e-04
  1.5307858e-04
  2.3373368e-03
  2.2093192e-02
 -1.2216136e-02
  7.7625050e-04
  1.9294757e-02
  2.3439493e-02
  2.4399284e-02
 -1.5098873e-01
  2.4917454e-03
  1.8743511e-04
 -3.2854492e-03
 -2.7885383e-03
  1.6056114e-03
  1.7177150e-02
 -5.6392942e-03
 -1.3869911e-02
  5.6389581e-02
  3.4714437e-03
  9.1513246e-03
 -1.2997375e-03
  8.9934804e-03
  4.5384569e-03
  4.2249286e-03
 -1.4497386e-03
  1.1597446e-02
 -6.7054601e-03
 -2.5341008e-03
  1.8918808e-03
  1.4294075e-02
 -5.5202814e-03
 -8.9233083e-04
  1.5520092e-02
 -3.0352080e-03
 -7.7092001e-04
 -1.9673523e-02
  1.1062356e-02
 -9.0427157e-03
 -7.2173047e-04
 -5.8957287e-03
 -8.2264346e-04
 -5.4499325e-03
 -2.8397092e-03
  1.8986186e-02
  3.8798593e-02
  9.5412992e-03
 -4.2242538e-02
  4.1383300e-03
  1.4456426e-01
  3.5780445e-03
  2.9607939e-03
 -4.3238513e-02
 -1.3558808e-01
  4.1942322e-03
 -1.4801772e-02
 -8.9253520e-04
  2.9561451e-02
  7.4989768e-03
  1.1900729e-02
  4.7722026e-03
 -7.5929798e-03
 -4.4726552e-03
  3.4719873e-03
 -8.8921851e-03
 -7.2396006e-03
  3.2090975e-03
  4.5311789e-04
 -9.1523267e-03
  4.3348176e-03
  3.4962227e-03
 -7.0504816e-03
 -7.8619076e-03
  3.6342561e-03
  9.2999369e-02
 -3.0366948e-03
  1.3263574e-02
  4.1896169e-04
  2.6822463e-03
  2.5717676e-02
  1.1508788e-03
  3.0473729e-03
  3.8230370e-03
  1.4207554e-02
  6.3427314e-03
  3.2920504e-03
  1.3075409e-02
  3.2825429e-02
 -1.4977608e-02
 -6.1074006e-03
  2.9680200e-03
  3.5650779e-03
  1.3078839e-03
  6.8164300e-03
 -4.5014946e-03
  1.7133100e-02
 -1.1389898e-02
 -3.4102064e-04
  8.7134866e-03
  1.9796395e-03
 -4.4479831e-03
  1.5350750e-01
 -1.2179722e-02
 -2.0950785e-02
  2.8297680e-03
  2.7192211e-02
  2.0280516e-01
  3.7110324e-03
 -8.8332500e-03
 -1.0557214e-02
 -2.9420205e-03
 -2.5208903e-02
 -3.6395963e-03
 -7.6544061e-03
 -2.8194319e-03
  3.6952194e-02
 -2.1034453e-02
 -2.4891421e-03
 -7.2568692e-02
 -2.4302261e-02
 -6.2197336e-04
 -4.1873911e-03
  3.1004255e-03
  3.3399055e-03
  8.8151125e-03
  1.0479198e-02
 -5.5186003e-03
 -8.1688404e-02
 -6.2532318e-03
  2.2508816e-03
 -1.4708487e-03
 -5.0536301e-03
 -5.8637995e-02
 -6.0715587e-03
  8.9834556e-03
 -1.1824357e-02
 -1.3528786e-03
 -9.1937641e-03
 -9.6206111e-04
 -2.5950927e-02
  5.0453474e-03
 -1.7075256e-02
 -9.7226594e-03
 -2.5123706e-02
  3.4092062e-03
  6.6907750e-04
 -1.0299653e-02
 -9.8283926e-05
  1.9037396e-03
  1.0699900e-02
 -4.6845730e-03
  5.2085794e-03
 -3.1716109e-03
  6.0172500e-03
 -1.4716986e-04
 -7.0580542e-02
  1.0927470e-02
  3.3741605e-03
  3.0982720e-03
 -1.4187315e-02
 -6.2544900e-01
  4.4564894e-04
  5.8929301e-03
 -4.5136316e-03
 -3.0965435e-03
  2.9618137e-03
  1.2582098e-03
  1.3022639e-02
 -5.0977762e-03
  5.7753734e-03
  2.6433676e-02
  9.9753877e-03
  6.5603387e-03
 -3.7561103e-03
  1.1521897e-02
  4.6009296e-03
  1.3072344e-02
  2.8272925e-03
  6.1447029e-03
  3.1220168e-03
 -8.4983334e-03
  3.3555556e-02
  2.5614938e-02
  6.1159949e-03
 -3.8114519e-04
 -5.1814672e-03
  1.7868237e-01
 -1.7273135e-01
  2.3875006e-03
  8.7976446e-03
 -8.2394952e-04
 -2.2387122e-04
 -5.0047343e-03
  1.3630839e-02
  1.5366010e-02
  2.4142427e-02
  2.7227362e-03
 -3.1397017e-03
 -6.0766153e-03
 -1.9510565e-03
 -4.8143398e-03
  3.4899523e-03
  6.4275651e-03
 -7.6528979e-03
  7.7863499e-03
  5.1624626e-03
 -3.2018134e-03
 -1.1377084e-03
 -9.1537805e-03
  3.6490732e-01
 -3.3089716e-04
  4.5745511e-04
  2.4964903e-03
  2.7936408e-03
  9.1810942e-02
  7.9075660e-04
 -1.4297410e-02
 -5.8266293e-04
 -4.5045884e-03
 -3.6297653e-02
 -6.8662828e-03
  5.3755003e-03
  4.5682364e-03
 -4.5721228e-03
  6.5664244e-03
 -7.3496439e-04
  1.7175537e-03
 -2.0424051e-02
 -1.3523200e-02
 -2.5006093e-02
 -8.5382052e-03
  1.4809634e-02
 -2.9658150e-02
  1.1670210e-01
 -5.5743135e-03
 -7.1254425e-02
  2.4741443e-03
 -9.0457695e-03
 -3.5632005e-05
  1.1560244e-02
 -2.3998218e-02
 -1.3383339e-02
 -6.5446380e-03
 -1.2931068e-03
 -2.2573506e-03
  3.3601932e-03
  7.5270697e-03
 -1.8792426e-02
  2.4536529e-03
  9.3755554e-03
  4.7202175e-03
  7.3306970e-03
  4.2600753e-03
 -1.4136706e-02
  1.4894878e-02
 -9.5455003e-01
  6.2794122e-03
  1.2053533e-02
  1.5476639e-02
  1.2649283e-02
 -1.9981156e-03
 -4.1312492e-03
  2.1988023e-03
  1.3431554e-01
 -3.2082000e-01
  1.7484774e-01
  1.6988769e-04
  3.9648242e-02
  1.1565918e-01
  1.1980356e-02
  1.3375444e-02
 -9.4463909e-03
  1.0791990e-03
 -1.9684870e-02
 -9.0024667e-04
 -6.3896691e-03
  8.8890046e-03
  1.0070344e-02
  7.3580665e-04
 -3.7032601e-03
 -2.4894217e-03
  8.2616443e-03
 -4.4551678e-03
  2.9998904e-03
  5.9464080e-03
  4.7152981e-04
 -1.5132152e-03
 -8.3097490e-04
  1.7074412e-02
 -7.8882733e-03
 -9.3016954e-04
  5.7987771e-03
  7.1696920e-04
 -7.8462614e-03
 -1.2927735e-02
 -1.3880215e-03
  1.1854524e-03
 -6.4145532e-03
 -1.2334554e-02
  8.2632778e-03
 -3.4648821e-02
 -2.0507077e-02
  4.5882980e-03
 -5.5915948e-02
  3.3105320e-01
  1.1328260e-02
 -3.4225930e-04
  2.1725311e-03
 -6.8039790e-04
 -1.9480698e-03
 -7.6222159e-02
 -4.4093169e-03
  2.8703018e-04
 -3.7375791e-03
 -4.3198569e-03
  9.8489551e-03
  2.6065917e-03
 -9.3832783e-02
 -1.9840577e-03
 -6.7030317e-03
  1.2152245e-03
 -5.9563797e-02
 -2.3401749e-01
 -5.5930833e-03
 -1.2435631e-02
  1.2162166e-02
 -1.0244320e-02
  4.5981812e-03
  7.4151717e-03
  7.2636162e-03
  3.2029394e-02
 -2.4112379e-03
  2.9850386e-02
 -2.0876317e-03
  2.0724159e-02
  4.8279320e-03
  1.1411975e-02
  1.0939526e-03
 -4.9975370e-03
 -4.3618949e-03
  2.4773328e-02
  1.6861053e-03
 -1.6852180e-02
  3.5093967e-02
 -1.3420481e-02
  2.7510391e-03
  1.3324410e-03
 -1.3952577e-04
  3.0924495e-02
  1.0709085e-02
 -1.0225894e-02
 -2.8835807e-03
  4.4649672e-03
  1.5996527e-02
 -7.6186694e-02
  1.1615822e-02
  7.4476833e-03
  2.3208301e-01
  1.3550989e-02
 -2.6181387e-03
  9.7548403e-04
  2.4033005e-03
 -1.1698182e-02
  2.0803986e-03
 -6.2638556e-04
 -8.3995657e-03
  3.8347431e-03
  1.2968618e-02
  5.1342822e-03
  8.7468866e-03
 -4.9698870e-03
  8.9820541e-02
  6.6364869e-03
  1.1087229e-02
  3.8881602e-03
  1.0044550e-04
  4.6579842e-02
  5.4847770e-03
  1.1544708e-03
 -9.5210103e-03
 -7.1876537e-04
 -4.1712276e-03
 -1.2767890e-03
 -6.0366504e-02
 -9.4488561e-03
 -5.7635410e-03
 -1.8520704e-02
  4.9496749e-03
  7.0056343e-03
  2.1636374e-03
 -4.0163677e-03
 -1.4223063e-02
 -4.9455985e-03
 -2.1541000e-03
 -1.2277162e-02
 -5.8459076e-03
 -3.1528462e-04
  1.4058388e-03
  1.1398250e-02
  3.1647978e-03
  3.3752320e-03
 -1.6248841e-02
 -1.9804562e-02
 -5.0970302e-03
  4.3406831e-03
  9.8868059e-03
 -6.4573311e-03
 -2.6359167e-03
 -4.8270025e-03
  8.1195300e-03
  3.2924500e-03
 -5.9050512e-02
 -1.8693869e-03
  1.4769792e-03
 -4.1143917e-03
 -1.8992767e-02
  4.5811865e-03
  6.8159611e-03
 -1.6535232e-03
  8.4751388e-03
  6.0000019e-03
 -1.6818261e-02
  3.0082685e-03
  1.8745931e-02
 -5.8035380e-03
  2.7012980e-01
 -1.7472073e-03
  1.8848595e-03
 -1.1678667e-02
  1.8367700e-02
  6.9174983e-02
 -8.8534914e-03
  1.3045005e-02
  4.2403869e-02
 -1.9500180e-03
  7.0511610e-03
 -2.9969009e-02
 -3.2107994e-02
  6.5615368e-03
  1.1564387e-02
 -8.7732598e-03
 -3.5112824e-03
 -2.1277096e-03
  3.0519962e-03
  4.9683875e-03
 -4.3530315e-03
  7.2198920e-03
 -2.2507265e-02
 -5.6681231e-02
 -1.5915783e-02
  1.0958989e-02
 -7.6925126e-03
 -8.8998340e-03
 -1.6014218e-02
  6.0665379e-03
 -2.9151853e-02
 -6.2830001e-03
 -2.6654607e-02
 -1.0188991e-02
 -4.5919282e-04
 -9.0678502e-03
 -4.7371246e-02
 -1.0604306e+00
  2.2528758e-03
 -1.4008130e-03
 -8.3546629e-03
 -1.0315829e-02
  7.5457520e-03
 -5.9136609e-04
  4.9202493e-03
 -2.0074118e-03
 -6.7547089e-03
  1.1058587e-02
  1.5884369e-03
  1.2920538e-02
  4.2512366e-03
  4.1419370e-03
 -3.1599465e-03
 -5.7308879e-02
 -1.7010240e-03
 -1.4109208e-02
 -6.3480419e-04
  9.4618695e-04
 -1.2374737e-02
  3.1411144e-01
  1.2947755e-02
 -1.0201218e-02
  9.6326172e-03
 -1.3170221e-02
  5.2173156e-03
 -5.1500206e-03
  4.1051363e-03
 -3.0369849e-03
 -2.7608182e-03
 -1.7616674e-04
 -1.0581743e-03
  4.6525709e-03
 -1.6058195e-02
 -4.3366258e-03
  5.1109907e-03
  6.1597973e-03
 -3.0417463e-02
 -4.0858095e-03
  1.9209459e-02
 -6.4492300e-03
 -3.8862792e-03
  2.6447987e-03
  4.1788234e-03
  2.6443932e-02
  2.5035366e-03
 -2.6045626e-02
 -3.6442091e-03
  2.1212732e-05
  3.3527601e-03
  9.2206476e-03
 -1.0786413e-02
 -3.6782488e-02
 -4.8930412e-03
  2.1117779e-04
 -2.1323742e-02
 -1.5614307e-02
 -6.2324987e-03
  5.4633133e-03
 -2.2145011e-03
 -6.5228497e-03
  9.4276452e-03
 -7.8663444e-03
  2.5437828e-02
  2.3466155e-03
 -3.7410231e-03
  2.5066379e-03
  1.1031033e-02
  1.0447761e-02
 -6.2105484e-02
  4.3632113e-03
  1.7765702e-03
 -3.0065090e-03
  4.4103484e-03
 -1.1590525e-01
 -6.3624114e-02
 -3.7388338e-03
 -9.8261395e-03
 -1.5829967e-02
  2.2448599e-02
 -3.3489536e-03
 -1.0022860e-02
 -1.5235865e-03
 -2.3013360e-03
 -2.6856831e-03
  1.4354853e-03
  1.8542332e-03
 -2.8239461e-02
 -2.5269091e-03
  1.1966902e-02
  3.0086585e-03
 -7.1309623e-03
  6.8772496e-03
 -5.7005808e-03
  1.3825849e-03
  1.6372355e-02
  3.9468377e-04
  5.2576512e-03
  2.2645709e-03
 -2.2464944e-03
  9.9543976e-03
  2.5886390e-03
  5.2728448e-03
  3.4335265e-03
 -3.2341636e-03
  1.0576091e-03
 -1.7177910e-02
  7.6050404e-03
  9.9819181e-03
  2.7211308e-03
  2.1455619e-03
  7.2241272e-03
 -3.7429316e-03
  1.2827905e-04
  6.2168557e-03
 -5.7412889e-03
 -1.5357014e-02
 -1.1154603e-02
  2.1762399e-03
 -6.9907801e-03
 -2.4330888e-03
  3.1955572e-04
 -1.2659982e-02
  2.9370934e-01
  5.1117209e-03
  1.7356548e-02
 -1.0824946e-03
  8.9356959e-02
  2.4213819e-01
  1.0190161e-02
 -3.4669987e-03
  2.1309674e-02
 -3.2711424e-02
 -4.7455985e-02
 -2.2061616e-02
  5.4006964e-01
  9.8292076e-04
 -2.8896120e-03
 -7.5708744e-03
  1.2814511e-02
 -5.4887282e-03
 -1.4940420e-03
  1.0791659e-02
 -2.0237099e-02
 -7.1340986e-03
  8.7677361e-03
 -3.1544082e-03
  1.6777385e-02
 -3.5623633e-04
 -1.1365799e-02
 -3.2485139e-03
 -1.8720236e-03
  1.0045478e-03
 -2.4914315e-03
  1.5118049e-03
 -7.5555508e-05
 -1.2431985e-02
 -8.1623169e-03
  3.4958643e-03
 -1.1229223e-03
  1.0334381e-02
 -4.8490735e-03
 -1.0660260e-02
  4.6181814e-03
 -3.2720699e-03
  1.2559710e-02
  4.2301803e-04
 -6.9653573e-03
 -1.0242869e-02
 -9.6116345e-03
  1.8687420e-02
 -8.5975771e-04
  9.7252624e-03
 -1.9069534e-02
  2.4808899e-03
  8.6688213e-03
  4.2880088e-02
 -1.9859198e-02
 -2.0617780e-03
  2.5362549e-03
  1.4045540e-02
 -4.9415357e-02
 -1.1081827e-01
 -4.4421614e-03
 -1.0660183e-01
  1.5373225e-03
  7.8433385e-04
  2.6437363e-02
  4.8891320e-03
  3.8239188e-03
  6.8592620e-03
 -1.2479993e-03
 -2.1771886e-03
  3.1293663e-03
 -5.6186332e-03
 -1.3661674e-02
  1.5103104e-02
  2.4980428e-03
 -6.0983858e-04
 -1.1299169e-01
  3.9160661e-03
 -4.5156901e-04
 -6.6823384e-04
  3.4893684e-02
  2.5882481e-03
  8.6744390e-03
 -5.9136818e-03
  1.4700622e-03
 -4.4577548e-04
  3.7524272e-02
 -7.3436503e-03
  2.4212481e-02
 -2.2852102e-01
  1.0610141e-02
 -7.7733072e-03
  1.9218882e-03
 -3.0321174e-03
  5.5939820e-02
  1.6473123e-03
  9.8801758e-03
 -1.6581209e-03
 -1.0550367e-03
 -2.3018289e-02
 -1.0019368e-03
  3.0592233e-03
  2.9130722e-03
 -6.2585245e-03
 -1.8469747e-03
  2.3027638e-03
 -2.6790616e-01
 -1.1862560e-02
 -1.1717334e-01
  6.3080207e-02
 -4.5519904e-03
 -1.5930959e-03
  4.1164659e-04
 -1.4188078e-02
 -7.7306046e-03
 -2.4799872e-02
  6.5859011e-03
 -2.3117727e-03
 -1.0674812e-03
  1.5465423e-02
  5.4920755e-02
  1.8648274e-03
 -2.9107106e-03
 -4.2323298e-03
  1.7114388e-02
 -2.0163245e-02
 -5.6857984e-03
  1.0926619e-02
  6.3986727e-03
  1.4841796e-03
  8.7257900e-04
 -5.8097159e-03
 -1.2476062e-02
 -6.7883916e-03
 -6.8427268e-03
  5.2265294e-02
  4.0943554e-04
 -6.8988320e-03
  8.0957413e-03
  9.7125694e-03
  1.7874729e-02
 -8.3150771e-03
  2.5917623e-02
 -4.0936149e-03
  2.9481160e-02
  1.9322042e-01
  6.2040309e-03
  5.5483161e-03
  2.3798166e-02
 -2.7665295e-04
 -3.1158137e-03
  5.0504445e-03
  9.0234019e-03
  3.6238590e-03
 -4.4311499e-03
  8.7800622e-03
 -4.5060650e-03
  1.1050841e-02
  6.6940570e-03
  4.3919906e-03
 -1.1568365e-01
 -9.8460128e-05
 -3.5372016e-01
 -1.3648311e+00
  2.2980967e+00
  3.7895944e-02
 -4.3409190e+00
  6.0708955e-02
  2.1369985e-01
  2.3543444e-03
  3.6630727e-02
 -1.3553483e-03
 -1.9809960e-03
 -6.9663608e-01
 -3.6352974e-01
 -1.9780502e-02
  7.9351049e-03
 -1.0715028e-02
  1.8234357e-02
  3.1959751e-01
 -4.5917240e-01
 -4.7198850e-01
  2.5152106e-02
  7.3561259e-02
 -7.9857679e-03
  1.2081121e-02
  1.1544806e+00
 -1.9828936e-01
 -1.3131838e-01
 -1.1206809e-02
  2.8432587e-01
 -1.3865045e-03
  4.1466257e-01
  9.2921293e-01
 -3.6981296e-02
  2.6552105e-01
 -1.1336543e-02
  3.6656991e-01
 -8.3106887e-03
 -1.7363220e-01
 -6.4817351e-01
  9.7080328e-02
 -3.5612431e-01
  4.9145475e-02
  1.5858784e-03
 -1.4604429e-03
 -2.0228175e-02
 -4.2915773e-02
  9.8325357e-02
 -2.2279361e-05
  1.8528980e-03
 -1.0491319e-02
 -1.3046943e-01
  1.0946720e-02
  5.1637762e-03
 -1.2382314e-02
 -5.0948620e-02
 -9.9975616e-03
  4.5867111e-03
  6.7108981e-03
 -1.8213595e-01
 -5.6474307e-03
  8.5070767e-03
 -1.9997882e-03
  7.9792202e-04
  2.6806621e-03
 -2.8980463e-03
  4.7136853e-03
 -8.9697000e-03
  6.0883192e-03
  2.9148986e-03
  7.0423451e-03
  9.5049422e-03
  6.5737166e-03
 -1.3147327e-03
  2.9263500e-04
  7.2690733e-03
  2.6476714e-01
  1.7972614e-03
 -1.1937795e-02
  3.9768917e-03
  3.5758493e-03
  1.1044174e-02
 -3.7783810e-03
  7.7873617e-02
 -5.1469030e-03
  1.5082446e-01
  2.2920910e-02
 -1.4650365e-02
  2.2309057e-03
  3.9492711e-01
  4.8247217e-03
 -8.2990777e-04
  1.5229391e-01
  1.2652212e-02
  5.7645077e-03
 -1.8801488e-04
  5.1984666e-03
 -1.2224484e-02
  5.1435898e-04
  5.6239301e-03
 -9.2367735e-03
  1.5865354e-02
 -4.5756553e-04
  4.2746714e-03
 -3.6063080e-03
 -2.4075797e-02
  8.2593849e-03
  2.0992219e-02
 -4.8628645e-03
 -1.7076539e+00
  1.1469324e+00
 -1.7940650e+00
  2.1736776e-03
  7.2386509e-01
 -2.5021356e-01
  1.5472102e-01
 -1.8656695e-04
 -7.3454177e-01
 -1.9893512e-01
 -1.0410292e-01
 -9.3893176e-03
  1.6344998e-02
 -9.0740430e-01
 -1.9504732e-01
  2.9144494e-03
 -3.7312182e-04
 -2.3366642e-01
  1.5984881e-01
 -1.2978156e-01
 -5.5229825e-01
 -4.4891223e-01
 -3.5468304e-01
 -1.6363885e-03
  3.2628623e-01
  8.6777555e-03
 -1.0551503e+00
  2.1287173e-01
  8.4254749e-02
 -1.1984288e-02
 -6.0493982e-01
  7.1249699e-04
 -3.9457029e-01
  9.0748005e-02
  6.2207837e-04
 -8.7836611e-01
  2.8399040e-03
  6.2465621e-03
 -1.9673748e-01
 -1.9669372e-01
 -1.4493620e-01
 -3.6213040e-01
 -2.2097836e-01
 -5.0756051e-03
  7.2446033e-02
  8.3110323e-03
 -6.7917787e-02
 -3.3243820e-02
  2.3294822e-03
 -1.3573480e-02
 -1.1177734e-02
 -3.8969174e-01
 -2.1354046e-02
  2.3678648e-03
  5.7997358e-01
  5.4459162e-03
 -2.8330900e-03
 -9.9042043e-02
  3.2462534e-02
  3.0045867e-02
  2.5202883e-03
 -1.0247851e-03
  8.5209966e-01
 -7.5359526e-04
 -1.6187032e-01
 -1.6183091e-02
 -2.1853454e-03
  7.5745485e-03
  8.7329028e-03
 -7.0731647e-02
  1.4136560e-02
 -2.8400630e-02
 -1.0581597e-02
 -7.9157628e-02
  1.0201507e-02
  3.6894034e-03
  3.5846909e-03
 -5.3015561e-03
  1.1075211e-03
  3.5247912e-03
 -2.0444889e-03
 -4.1081354e-02
 -1.2559733e-02
  1.7894307e-03
  8.0115963e-03
 -3.2315444e-02
 -2.6080791e-02
  3.2991029e-03
 -2.5700714e-02
  8.8304160e-03
 -1.5737291e-02
  7.4547246e-02
 -3.5619298e-03
  2.6069228e-03
 -2.5549465e-01
  4.9776776e-04
 -3.9926858e-04
  1.0612253e-03
  4.9328050e-03
  5.9691109e-03
  1.2039766e-02
  1.8037397e-02
 -4.9323478e-04
 -8.2165338e-03
 -1.5928796e-03
 -2.6193140e-03
  1.3041629e-02
 -1.1513812e-02
  1.5329416e-01
  4.1866391e-03
  2.4511920e-02
 -1.7678873e-05
  2.8460711e-02
  1.5405247e-01
  3.6916777e-03
  4.9241809e-03
  6.5360721e-03
  5.7751145e-03
 -3.1672963e-03
  2.6958055e-04
 -1.6000077e-02
 -1.0433806e-03
  2.3829559e-02
 -2.1640997e-02
 -2.4813556e-03
 -8.9901285e-03
  2.0159770e-02
 -1.0151042e-02
  7.6071578e-03
 -1.1949340e-02
  2.4342546e-03
  3.9013945e-03
 -1.3238969e-02
  2.2257196e-03
  4.7218674e-03
  6.3827308e-03
  1.7213940e-03
  4.5191683e-03
 -3.7872046e-03
 -2.0766284e-02
 -3.0352506e-03
  9.7801432e-04
  3.4279961e-03
  5.8432892e-03
 -1.2772721e-02
 -1.5874637e-02
  3.7509880e-03
 -1.2604161e-03
  3.9704307e-04
  4.3969308e-03
  6.5658558e-03
  9.7645381e-03
  3.8184749e-03
  4.3251002e-03
 -5.0497758e-03
  3.3771950e-03
 -1.8393219e-01
 -3.1555793e-03
 -4.9094851e-03
  1.2866452e-02
  2.8042388e-01
 -1.9895194e-02
  2.2819798e+00
  1.0182453e+00
 -1.1076959e+00
 -1.7510916e-01
  1.3251537e+00
  9.4097036e-01
 -2.3889981e-01
 -3.0096188e-02
 -1.1686326e+00
 -1.7269482e-01
  5.5549985e-01
  2.4684066e-01
  7.4303991e-01
 -5.5145942e-02
 -1.3845680e+00
  1.0963336e+00
 -1.5085038e-02
 -3.7307423e-01
  1.2729975e-03
  2.4884391e-01
  3.5111439e-01
 -3.7275534e-02
 -5.6304049e-01
 -3.3284910e-02
 -4.0531266e-02
  2.8713915e-02
  4.6185336e-01
  4.9209094e-01
  3.4613773e-01
 -1.3719709e-01
  3.2679626e-01
  2.8774435e-02
 -6.8214528e-02
 -1.8614577e-01
  6.4859077e-02
 -3.0263400e-01
  2.3688659e-01
 -8.9966232e-01
  1.6167870e-01
  2.5245147e-02
  4.4249848e-01
  3.9334405e-02
 -3.4447476e-02
 -1.2708126e-01
 -7.2690942e-03
 -5.7691687e-01
 -4.2705685e-01
 -5.6664658e-01
 -2.1424805e-01
  7.2093992e-03
  1.5926546e-01
 -1.3136093e-02
  2.9713269e-03
  1.3905753e-02
 -2.1580203e-02
 -9.9307683e-04
 -5.5766520e-03
 -8.9325681e-03
 -6.1944604e-02
 -7.1305804e-02
  1.1004898e-02
 -7.7162865e-03
  2.9197297e-04
 -9.3252296e-03
  2.4371622e-02
  1.3396137e-02
 -4.4968156e-03
 -5.8018544e-04
 -2.4370681e-03
 -5.2779815e-03
 -2.1263403e-03
 -1.4807727e-02
 -1.3774575e-02
 -1.3776397e-03
 -4.4695153e-03
  1.4189914e-02
 -1.7070720e-02
  6.6742516e-04
 -1.7792845e-02
  7.9960935e-03
 -1.5888439e-02
  3.7828628e-05
  1.1653887e-04
  6.7857662e-03
  2.2560766e-02
  4.1635334e-03
  1.3993061e-02
  5.3640981e-03
 -5.5192231e-04
 -3.8895837e-03
  1.4266340e-02
  1.3728524e-03
  3.9899708e-03
 -9.6000568e-04
  9.9389916e-03
 -7.5188694e-03
 -1.6759683e-03
 -9.7034480e-03
 -7.0585096e-03
 -6.4945794e-03
 -2.2252812e-03
  6.9113164e-03
  5.4277130e-03
  2.5945310e-03
  1.8050920e-03
  3.6396116e-03
 -7.5778365e-03
 -2.3781573e-03
  3.7109208e-01
  5.8372663e-03
  2.9023436e-03
  1.9914495e-02
  6.7841192e-04
  1.8639424e-01
  6.2926091e-02
  8.0603274e-04
  7.1054390e-03
  6.4866357e-03
 -2.7226340e-02
  9.9678114e-03
 -6.4129211e-02
 -6.7557441e-03
 -7.5519066e-03
 -9.7739706e-03
 -6.4371023e-03
  1.6878515e-03
 -6.3462681e-03
 -1.2899942e-03
 -8.4293224e-03
 -1.2146472e-02
  1.5955390e-02
 -2.0669781e-02
  4.7036847e-03
 -6.9153477e-03
 -9.8589696e-02
 -8.6054606e-03
 -1.9569311e-02
  1.2390963e-03
  9.3650713e-04
 -1.1590505e-01
 -4.9784535e-04
  2.8358777e-03
 -5.3583868e-03
  8.6604543e-03
 -6.6678990e-03
 -4.0792651e-03
 -3.2128971e-02
  7.2644651e-02
  3.7556473e-02
  7.4882731e-03
 -2.8318176e-03
 -1.1456550e-02
 -5.9815994e-03
  9.5057841e-03
 -4.3018307e-03
  7.2493344e-03
 -1.7827171e-03
 -5.7070580e-04
 -3.6718668e-03
  2.6443473e-03
  1.7276828e-01
  8.5712606e-03
 -6.1998055e-03
  8.3751632e-03
 -1.1991090e-01
 -7.7765551e-04
 -2.4449751e-02
 -6.9155723e-01
 -8.3589350e-04
 -1.6542798e-03
  1.4494765e-03
 -1.9787429e-03
  9.6191484e-03
  2.7674249e-01
  1.4836515e-02
 -4.1702813e-03
  7.4875890e-03
  3.5295883e-01
  1.4258966e-02
 -9.0189204e-02
 -5.5117875e-02
 -9.2799298e-02
 -1.5128698e-03
 -1.3460550e-02
 -9.5240995e-02
  8.5034706e-02
 -2.1669460e-03
 -1.3901172e-03
  4.4732684e-01
  5.0865624e-02
 -1.6307998e-02
 -2.2190586e-03
  1.2763759e-02
  4.0729451e-01
  1.5435394e-02
  2.6919387e-02
 -7.7645602e-03
 -1.7553918e-02
  2.4299163e-02
 -1.9356411e-02
  2.3808511e-01
  3.7423884e-03
 -1.0036245e-03
  5.6919659e-04
  4.0958384e-03
  1.3409801e-02
 -4.3258453e-03
  7.4271869e-04
  8.7429937e-03
  1.7459454e-01
  6.9686235e-04
  7.7141514e-03
  9.9297008e-03
 -7.8068033e-04
  5.9966235e-03
  6.8641482e-03
 -2.5842074e-01
  6.5412000e-04
 -1.3801985e-02
  1.8587943e-02
  9.8418463e-03
 -6.7215770e-02
 -1.5202654e-03
 -7.3158857e-03
 -1.9531962e-03
  2.6052222e-03
 -3.4022077e-03
 -5.2945237e-03
  3.1774694e-03
 -1.4458451e-02
  1.5240369e-03
  1.2523032e-02
  4.3099523e-03
  6.3627097e-04
  7.9669058e-03
  6.6866446e-04
  1.0847015e-02
 -7.3729274e-03
  2.3986718e-02
 -4.5036018e-04
 -5.6493781e-03
 -1.9214349e-03
  2.8636628e-03
  6.8711070e-03
  1.7009273e-02
  1.3175888e-03
  5.1562646e-03
  1.9537469e-03
  5.0411106e-04
  1.1256850e-02
  1.3277426e-05
  6.3168146e-03
  6.6275895e-03
 -3.4164614e-03
  2.7335945e-03
 -4.1847252e-03
  2.5987191e-02
  1.0647087e-03
 -1.0952192e-02
 -2.0216854e-04
  1.6058970e-02
  9.4564501e-03
  9.1503887e-03
  6.0419450e-03
 -1.2741078e-02
  5.4577265e-02
 -4.5585404e-03
 -7.8184186e-03
  4.3979906e-03
  1.6848915e-03
  8.0875829e-02
 -1.3003610e-02
  5.4601044e-03
  1.1730029e-02
  1.3426007e-02
  9.0759382e-02
 -2.0589610e-03
  7.2695053e-04
 -5.5945828e-03
  8.2386695e-03
 -1.4596140e-02
 -1.5461871e-03
 -3.9340187e-02
 -3.2356277e-03
  1.4717750e-02
 -1.7100303e-02
  1.1427437e-01
 -5.9537762e-03
  6.7824647e-03
 -9.4064781e-03
  5.5269647e-02
 -1.7778667e-02
 -5.9809578e-03
 -2.1103445e-02
 -1.9348362e-02
 -1.3240831e-02
 -1.6752690e-02
  4.9700367e-04
 -6.9146878e-03
  6.5828487e-03
 -6.3250563e-03
 -1.3926988e-02
 -1.6376326e-02
  1.5796050e-02
 -2.3307274e-03
 -3.3538791e-03
 -1.2132916e-02
  2.5826495e-04
  3.2328821e-03
  6.1266409e-04
 -2.1337355e-02
 -4.9304614e-05
  1.0938842e-03
 -1.2599370e-02
  5.9420005e-03
  2.7536202e-02
  6.1930355e-04
  3.7060895e-03
 -4.3180529e-03
  5.5087334e-03
 -5.1227495e-02
 -6.2935478e-03
 -5.3209487e-02
 -6.1388467e-03
 -1.7194825e+00
  6.0706893e-03
 -7.5045115e-01
  3.5978267e-03
  1.1875232e+00
 -3.8002491e+00
  5.2765636e+00
 -5.0826788e-01
  2.5988279e-03
 -4.7351990e-02
 -1.5332071e-03
 -3.8594233e-03
 -8.3161378e-03
 -2.7303216e-01
 -1.0961043e+00
  2.6711851e-01
 -4.4661496e-02
 -7.9827912e-02
 -1.2732646e-01
 -3.7119412e-01
  6.9116972e-02
  4.2324999e-01
 -1.7483921e-01
  1.1030807e+00
 -4.1678640e-01
 -3.7833101e-03
  2.1118772e+00
  7.5887097e-03
  4.9342859e-01
  6.8220752e-01
 -1.2189475e-02
 -7.2707391e-01
  6.0772818e-01
  5.0751580e-04
 -9.9475688e-01
  1.5386128e+00
  6.3890733e-02
  1.6086213e-01
 -3.9364803e-01
  1.0112674e+00
 -2.4273831e-01
  1.4521527e-01
  2.4707918e-03
 -2.5198746e-03
  1.1029441e-02
 -6.5542972e-01
  5.8851427e-01
 -2.5880712e-03
  1.9482663e-03
 -3.3126294e-03
  1.8859782e-03
  1.0596805e-02
  9.6404582e-01
 -2.4482224e+00
 -1.8525951e+00
  2.0705452e+00
 -2.0478735e+00
  1.3668447e+00
  4.3383449e-01
  2.1216924e+00
  1.6447090e+00
 -3.2627358e+00
  1.9309090e+00
  2.1151590e+00
 -1.8097204e+00
  2.3493009e+00
 -1.9700691e+00
  2.1949761e+00
 -2.0181909e+00
 -1.5987992e+00
 -1.1291202e+00
  2.2004859e+00
 -1.8988235e+00
  1.8467584e+00
  2.2545049e+00
 -2.0125027e+00
 -1.6598654e+00
 -2.1655965e+00
 -1.7614954e+00
  1.8441669e+00
 -1.6188757e+00
 -2.0006275e+00
  2.1633594e+00
 -1.5047020e+00
  2.1946807e+00
  1.5893586e+00
 -1.7802376e+00
 -2.2819774e+00
  2.0389512e+00
 -1.9923995e+00
  2.0049298e+00
  1.9717988e+00
 -2.1690600e+00
  1.9939239e+00
  2.4850850e+00
  1.7496327e+00
 -1.4441007e+00
  2.2707818e+00
 -2.7904801e+00
 -1.7904704e+00
  1.8547137e+00
 -2.6332345e+00
 -1.6501050e+00
  1.8692911e+00
  1.7988703e+00
 -1.2412940e+00
 -2.3872335e+00
  1.8454794e+00
 -1.8557153e+00
 -2.0494673e+00
  2.3110144e+00
  1.2429177e+00
  4.8327887e-01
 -9.1553822e+00
 -2.7277069e+00
  7.2408714e+00
 -2.1752701e+00
  9.2886013e-01
  7.7017994e+00
  6.4414096e+00
  8.9793224e+00
 -9.7262138e-01
  4.4427309e+00
  6.9158893e+00
 -2.7158837e+00
  5.8527141e+00
 -6.0010567e+00
  5.3640599e+00
 -8.3743696e+00
 -2.0486412e+00
 -1.9175314e+00
  1.0163933e+01
 -4.1768050e+00
  7.6968069e+00
  6.8123589e+00
 -5.4831533e+00
 -4.9436502e+00
 -5.1893840e+00
 -3.0787146e+00
  2.4948699e+00
 -3.3345013e+00
 -5.0250015e+00
  2.7559733e+00
 -1.2764280e+00
  1.1993133e+01
  1.4389704e+00
 -1.5368570e+00
 -5.2513471e+00
  5.6976762e+00
 -5.7205343e+00
  3.9074302e+00
  3.4442680e+00
 -7.6109819e+00
  3.5408273e+00
  1.1721824e+01
  2.1437869e+00
 -1.1498022e+00
  6.4736238e+00
 -1.1587868e+01
 -2.2208996e+00
  9.5603454e-01
 -7.6023870e+00
 -5.0287604e+00
  4.6013279e+00
  2.5618105e+00
 -1.3439460e+00
 -4.4518390e+00
  4.2059989e+00
 -8.8438206e+00
 -3.4626379e+00
  6.0686946e+00
 -8.1180477e-01
  1.4187321e-02
 -1.3409977e-02
  5.9676707e-02
 -2.1607056e-01
 -7.1356148e-03
 -3.0268601e-03
 -7.0845122e-03
 -1.8734449e-03
 -3.8296229e-03
 -5.5882927e-02
  1.9805295e-02
  2.8054839e-02
  5.2098720e-03
 -9.1875987e-03
  2.8924898e-03
  1.0816976e-02
  2.3475990e-03
 -4.8739044e-03
  5.8924519e-03
  6.2333290e-03
  3.3624268e-03
 -8.1603704e-03
  2.8959937e-02
 -7.6598558e-03
  4.4025881e-03
  1.7460248e-03
 -1.4420500e-03
  1.9846773e-02
  3.6242172e-02
 -2.1372738e-03
  3.4281049e-02
 -5.1024496e-03
 -2.6340527e-03
  6.3786827e-02
  4.1866258e-02
  6.6705518e-03
  1.0661394e-02
  7.5537741e-02
  2.1304307e-03
  1.9450709e-02
  8.6835928e-02
  6.0261320e-03
 -1.8164799e-02
 -3.3256102e-03
  9.7911144e-03
 -1.1966601e-02
  9.2582963e-03
  9.4309513e-04
  7.5677224e-03
 -2.3376271e-02
  2.7797229e-03
 -5.1845312e-03
 -1.0115012e-03
  3.4026458e-04
 -7.0474055e-03
 -2.2188183e-03
 -2.6078317e-03
  2.1081917e-01
  4.0660426e-03
  1.0154971e-03
 -3.5245179e-03
  8.1978366e-03
  3.4911605e-03
  1.2664913e-02
 -3.6320392e-02
 -8.0203591e-04
  5.1679807e-03
  3.2780480e-03
  1.1665204e-03
  2.1296281e-03
  7.8273527e-03
 -3.3831224e-03
 -1.8063327e-02
 -2.4675964e-03
 -6.1737990e-04
  3.1655973e-03
 -8.5212607e-03
  4.5140809e-03
  1.7665343e-02
 -1.2208124e-03
 -1.0820928e-03
 -4.5395128e-02
 -1.0374756e-02
 -6.1223288e-03
 -9.8794058e-04
 -2.4885864e-03
 -7.8897347e-04
 -7.1579949e-03
 -2.3121694e-03
  2.8824022e-03
 -3.3715863e-02
 -9.6958682e-02
  7.3942225e-03
 -1.0228707e-03
 -9.7167470e-02
 -8.0015957e-03
 -1.1820354e-03
  1.0392093e-03
  8.0289003e-03
 -6.9470971e-04
 -5.9772502e-03
  1.2518753e-03
 -2.1268230e-05
  4.3344134e-03
  7.6686614e-04
 -3.7494074e-03
 -2.8102961e-03
 -1.0048484e-02
  5.6018102e-01
  4.2280352e-01
 -1.2892345e-01
 -2.5488986e-03
 -1.8153995e-01
  5.2537844e-02
  1.4057152e-02
  7.6735902e-01
 -9.5276898e-01
  1.2417808e+00
  7.4458683e-01
 -2.2283606e-01
 -7.3749506e-01
  3.5705906e-01
 -5.3028017e-01
 -2.3386335e-01
  1.3196161e+00
 -1.0795212e-02
 -6.2331721e-02
  7.4446565e-01
  8.8464487e-01
 -6.2150419e-01
  5.4878511e-02
  1.1404990e-01
 -1.6085449e-01
  5.1350963e-01
  3.0531019e-03
  1.9497143e-02
  1.6691571e-01
  2.3534677e-03
 -1.7503145e-01
  4.3177736e-01
  4.2569107e-01
 -9.0096599e-01
 -3.7863892e-01
  4.2134266e+00
 -1.2832078e+00
  1.1605766e-01
  3.2414221e-03
  3.0754844e-02
 -4.3016560e-02
  5.6907866e-02
 -3.5933670e-01
 -2.2953764e-01
  2.4591923e-02
 -1.7947918e-01
  3.7140712e-02
 -1.9058704e-03
  1.0028898e-01
  2.3928016e-02
 -9.8938439e-03
  1.4937554e-01
  7.3411618e-03
 -1.3573634e-03
 -3.2801821e-03
 -3.0592424e-03
  2.3865746e-02
  4.5081127e-01
 -9.1341056e-04
 -3.6796078e-03
  6.0700336e-03
  5.3294748e-02
  4.8630559e-03
  1.1911159e-03
 -3.0746539e-03
  3.6499405e-03
 -4.0188069e-03
 -9.2663988e-03
 -6.5076575e-03
  6.7144261e-05
 -4.2930413e-03
  6.8653589e-03
 -1.5080304e-02
 -1.9552082e-01
 -1.7751735e-03
 -3.4320503e-04
  2.0231868e-03
  3.2373024e-03
  5.4215849e-03
  1.0447073e-03
  8.7316623e-03
 -2.1996275e-03
  3.4446071e-03
  1.2828187e-02
  3.2357189e-03
 -1.5001843e+00
 -4.1060281e-04
 -1.6065788e-02
  2.4896724e-02
 -2.8915689e-03
  3.3081598e-03
 -1.4699981e-02
  5.3203176e-03
 -1.0197157e-02
 -6.2038237e-03
  1.1292465e-03
  3.9039655e-03
 -4.7683329e-03
 -4.6389699e-03
  9.7897174e-03
  2.0114782e-01
 -5.8215908e-03
 -1.5227761e-02
 -5.2200392e-04
 -3.2541656e-03
 -3.2716950e-03
 -5.0558959e-04
 -1.2200895e-03
  4.4422839e-03
  2.3888192e-01
 -2.2785850e-03
  9.3464655e-01
  1.1500534e-02
  1.7122467e-03
 -4.4353660e-03
  2.9532995e-02
  1.4726869e-02
  2.0650642e-01
  4.0421821e-03
 -1.0541834e-02
 -2.7240079e-02
 -9.6463840e-03
 -3.0076314e-02
 -1.3670658e-02
 -6.5135326e-05
  3.9360565e-04
 -3.0081995e-02
 -1.4496496e-01
  4.7105621e-03
 -4.7072317e-03
 -1.6763108e-02
 -6.3692131e-03
 -6.0171704e-03
 -7.1621169e-03
  5.9033050e-03
 -1.7328036e-01
 -2.8938629e-02
  1.8263353e-02
 -4.0979989e-02
 -8.8519543e-02
 -2.9974946e-01
 -8.3582760e-05
 -2.8757423e-01
 -2.5417667e-03
 -8.8740848e-03
 -2.5858101e-02
  8.0128573e-03
  2.8717669e-03
 -1.2001838e-02
 -4.7265035e-03
 -8.9860586e-03
  3.9273039e-03
 -1.4255657e-02
  4.8676040e-03
 -1.4562567e-02
 -8.6412497e-02
 -1.7423917e-02
 -4.7261021e-03
 -1.1854898e-02
  1.5896617e-02
  3.4291884e-03
  1.5343051e-02
  1.8942248e-02
  8.5489787e-03
 -1.3861087e-03
  1.2179371e-01
 -5.1804758e-03
 -3.9839791e-03
  2.3988437e-02
  7.1154232e-03
  3.0799368e-03
 -3.7607826e-02
 -6.0790155e-02
 -3.5496415e-03
  2.5272388e-02
  2.6873318e-02
  6.0838275e-04
 -3.6340789e-03
 -8.9455396e-03
 -1.4925350e-01
 -5.5056759e-03
 -1.1886830e-02
 -2.1117300e-02
 -2.3358040e-03
  8.2724905e-03
 -6.6647273e-03
  1.2753814e-02
 -2.3781630e-04
  7.0710399e-04
 -9.5955096e-02
 -1.1797723e-03
 -3.2061534e-03
 -1.9281723e-02
 -4.6832461e-02
 -2.0294642e-02
 -4.7839716e-02
  8.9136204e-03
 -1.7606605e-02
  7.1516857e-03
 -3.2505028e-02
 -2.5909925e-03
  4.4286600e-03
 -1.7537184e-02
  9.4722966e-03
 -1.5073176e-02
  1.0796406e-02
 -1.0300100e-02
 -3.5572702e-03
 -1.4336715e-03
 -5.4745609e-03
  1.3386544e-04
 -2.2179917e-03
  2.3470746e-02
  3.2480380e-03
 -1.3450750e-02
  4.9443678e-03
 -1.7540083e-03
  1.2802180e-04
  1.5070904e-02
  7.0638669e-01
  4.9772836e-02
  1.4128853e-01
 -4.3258062e-03
  3.5522974e-03
  1.2072881e-03
  2.0866880e-02
 -3.8429733e-02
  3.6434820e-03
 -1.8971267e-03
 -3.5626948e-04
  3.9205779e-03
  4.9756509e-03
 -2.9509647e-03
  8.1250714e-03
 -2.1799939e-02
 -2.6905385e-01
 -1.2592500e-03
 -1.4713389e-02
 -9.7150244e-03
 -1.4244764e-02
 -1.7008156e-02
 -1.3996569e-03
  4.6504494e-03
 -3.1398796e-02
 -1.5733788e-02
  2.2112278e-03
 -8.9287102e-02
 -3.1774484e-02
  1.4618341e-02
 -2.7696718e-02
 -9.2715092e-02
  6.8437862e-03
  9.9845545e-04
 -6.5954842e-02
  7.1001905e-03
 -3.8071002e-03
 -1.0979250e-02
 -1.5203425e-02
 -4.3071369e-03
  1.3759034e-03
 -1.5108461e-02
  1.5053791e-03
  2.5853142e-04
 -1.0214678e-03
 -7.5140607e-04
 -6.5372279e-04
  3.3554540e-03
 -6.0533881e-03
 -1.2217914e-02
  8.0733364e-03
  2.2106832e-03
 -1.3425544e-02
 -5.8530988e-03
 -4.9966109e-01
  3.4140013e-03
  2.1898176e-03
  5.1951944e-03
 -6.3226499e-02
  3.5235910e-03
 -8.8760890e-03
  2.6235377e-02
 -1.6027344e-04
 -4.8374804e-03
  7.2669312e-03
 -1.3410841e-02
  3.5156354e-02
  9.2390934e-03
  1.1940330e-02
  2.2072051e-02
  1.3328836e-03
  2.5515847e-03
  1.9816447e-02
  1.8113656e-02
 -1.7315737e-03
  7.5269756e-03
  2.7584883e-03
 -7.7133201e-02
  6.6753179e-02
  1.5511647e-02
  1.6892182e-02
  6.0710530e-03
  1.4855531e-02
  4.3786556e-04
 -2.1337478e-03
  8.3272289e-03
 -1.9392528e-03
  1.8444665e-02
  7.8316648e-03
 -1.5140826e-02
 -7.8743882e-03
  2.1765245e-02
 -1.7988543e-03
  1.7895378e-02
 -2.3584327e-02
  6.6009001e-04
 -1.4686166e-01
  2.4815151e-03
  2.7967144e-03
 -1.4533509e-02
  7.3570865e-03
  8.2696741e-03
 -4.9235350e-03
 -4.9345293e-03
 -5.0720125e-03
  2.1295361e-03
 -4.6994467e-03
 -3.1870159e-03
  6.1188346e-01
  7.9620298e-04
 -1.0124360e-03
  1.5458521e-03
  1.4122025e-03
  3.4193590e-03
  3.4505937e-02
 -5.5469992e-04
  2.8310823e-03
  3.6253978e-03
 -1.5898203e-03
  8.8090580e-03
 -3.6138059e-03
 -5.1733302e-03
  6.0533579e-03
  5.6100409e-03
 -1.5340513e-01
  1.4641475e-02
 -3.4519944e-02
  6.9920912e-02
  2.6522169e-03
 -1.3421489e-03
  1.2344526e-02
 -9.3688192e-03
 -1.5509656e-01
 -1.0075615e-01
  3.4468821e-03
 -2.3289353e-03
 -3.0491116e-02
 -3.8660592e-03
 -6.6423766e-02
 -4.0808599e-02
  7.1167438e-03
 -1.1591081e-02
 -5.8817498e-02
  6.1602972e-04
 -1.7858563e-03
 -4.7320496e-02
  1.2933462e-02
 -6.5181823e-03
  4.0002041e-03
  4.4574839e-04
 -2.7115513e-03
 -1.1199578e-02
  6.7100925e-03
  4.2422898e-03
 -1.1794326e-02
  1.0948832e-03
 -5.1330705e-03
 -1.0181842e-02
 -1.0334203e-02
 -3.5006931e-01
 -2.6383669e+00
  3.7792130e+00
 -3.1516294e+00
  3.5374990e+00
  3.6344030e-01
 -4.0497035e-01
 -1.4408740e+00
  8.2305431e+00
 -2.6871264e-01
 -1.0097024e-03
 -9.2312485e-02
 -6.6054128e-02
  8.5966027e-01
 -3.9787689e-01
  4.4779763e-01
 -2.9153235e-02
  2.9779337e-03
  1.0000404e+00
  8.2148439e-01
  3.9126407e-03
 -2.3785841e-01
  5.1016587e-01
  1.2288033e+00
  4.2320043e-01
  1.1862683e+00
  3.3650170e-03
 -1.3687801e-02
  2.4673775e-02
  3.1845838e-02
  1.0085289e+00
  2.7771257e-02
  1.2407737e+00
 -5.5717815e-02
  1.2141166e+00
  1.4612194e-02
  7.1177346e-01
 -2.9589538e-03
 -1.0052619e-02
  1.6320996e-01
 -9.3209630e-01
  1.4857140e-02
 -6.6457338e-05
  1.3698431e+00
 -3.9922385e-03
 -1.6971710e-01
  3.5406289e-01
 -5.7719126e-03
  1.6726743e-02
  1.8497439e-01
  1.7149226e-03
 -5.3632569e-01
  1.1561245e-02
  7.2495750e-04
 -1.4444417e-04
  8.5721835e-02
  6.3907243e-03
 -4.2745838e-01
  8.5240612e-03
 -3.2846317e-02
 -1.3401958e-03
  2.2631732e-03
  2.2892026e-02
 -3.0290475e-04
 -2.6690703e-02
  4.8490535e-03
  1.7804917e-02
  3.4123249e-03
  1.4744074e-02
 -2.6268591e-03
 -2.3421902e-02
  2.9798284e-01
 -1.3994629e-04
  2.0056439e-03
 -1.5313342e-03
  3.3160319e-04
  2.4660244e-03
 -1.8986003e-02
  5.2585481e-03
  1.5764734e-03
  9.9303806e-03
 -3.2930821e-02
  2.0477341e-03
  5.4973490e-03
 -1.3884005e-02
 -9.7566680e-04
 -1.3782682e-01
  4.1709323e-03
  8.9544345e-05
 -4.7065201e-03
 -6.2661674e-03
 -4.9404250e-03
 -7.2884280e-03
 -4.3605104e-02
 -2.1102899e-01
 -6.6753197e-03
  1.2293844e-03
 -2.2791078e-02
 -2.3614566e-03
 -1.4137009e-02
  1.2778427e-03
  1.4582430e-02
 -2.1979181e-02
 -1.1568285e-02
 -6.7654146e-05
 -1.1607000e-03
 -4.7534062e-03
  8.8914149e-03
 -4.5880922e-03
 -1.9490497e+00
 -5.1844829e-01
 -1.2063820e+00
  2.0804205e+00
 -1.0571089e+00
 -3.5304384e-04
  3.6112260e-02
  3.7040765e+00
 -5.1751608e-01
  4.6961007e-01
  1.4933761e-03
 -1.5792170e+00
  5.3509814e-01
 -5.7242346e-01
  1.5631300e+00
 -1.2444049e-03
  6.6129756e-01
  5.0247200e-03
  1.2161391e+00
  2.1529993e-01
 -7.3447317e-01
  2.1924302e-01
  2.0896175e-03
  2.1501181e-01
  1.2683285e+00
  6.4988190e-01
 -1.0917038e-01
  2.4433548e+00
 -9.9391036e-02
 -1.0919943e+00
 -2.3571555e-01
 -5.5359919e-02
  4.4635713e-01
  1.8516674e+00
  3.6004955e-01
  7.4680048e-01
  1.1009647e+00
 -2.3349939e-01
 -1.8149374e-01
  9.8714513e-01
 -1.2229712e-01
 -1.3038608e-01
  1.2171938e+00
  1.3534282e-02
  3.8761648e-03
  6.3706517e-02
 -3.1359259e-02
  5.0879582e-03
  3.8254936e-03
 -6.2893112e-03
  1.7662441e-02
 -8.9701125e-04
  7.3925755e-03
  5.6708581e-03
  7.3990770e-02
 -2.4629252e-02
 -2.5558096e-01
  1.1923934e-03
 -1.8056173e-02
 -1.1109576e-02
  2.4935834e-02
  1.5557619e-03
 -9.1728577e-03
 -7.2816615e-03
 -2.4156451e-02
  1.8771593e-02
 -6.1390130e-03
 -6.0249893e-03
 -2.7138429e-02
  3.7563837e+00
 -2.1653483e-03
  8.4950393e-03
 -7.2331995e-02
 -2.7791164e-03
  4.0346034e-02
  8.0487588e-03
  3.5958821e-01
  8.1210725e-02
 -4.4412641e-03
 -1.0651814e-02
 -1.5641445e-02
  6.7283196e-04
 -9.6771261e-03
  5.5615883e-03
  1.2657476e-02
  1.1485667e-02
 -2.4265718e-02
  2.5707940e-03
 -5.0240592e-03
 -6.1628823e-03
 -3.1518436e-03
  1.8126938e-03
 -4.0764444e-02
 -5.0988831e-02
  4.2704269e-03
 -1.0943398e-02
  9.0060525e-02
  1.7120859e-02
  1.4711072e-03
 -4.5113284e-03
  8.0531910e-03
 -7.0417393e-03
  1.6833393e-02
 -6.9162389e-04
  2.2555562e-03
  1.3670337e-02
  1.6469156e-02
  2.3402713e-02
  9.5502339e-02
 -8.9798439e-03
 -1.9861142e-01
 -3.8550189e-04
 -5.4811230e-03
  4.3021664e-03
  2.6911747e-01
  1.5849982e-01
 -1.0811773e-02
 -4.8155632e-02
 -1.8184308e-02
  7.2751534e-03
  5.7035778e-03
  2.4956997e-04
 -2.8619310e-03
  7.5926962e-03
  7.3763467e-03
 -3.7054301e-03
 -8.2547208e-03
  1.8461588e-03
 -5.3559855e-04
 -1.4306319e-02
  2.9592484e-04
  2.8502678e-03
 -5.9220833e-03
  1.3998928e-02
 -2.0386003e-01
 -1.9885163e-01
 -4.1673490e-04
 -1.0055069e-02
  1.1168610e-02
 -3.1824734e-02
 -1.6514348e-02
 -4.5454804e-02
  6.5585561e-03
 -6.0012013e-02
 -1.1412338e-02
 -1.7958499e-02
 -1.0312548e-02
 -3.2827534e-02
  8.9024818e-03
 -3.3898462e-02
  7.7333460e-03
  1.2161428e-03
  4.1516554e-03
  1.8917914e-02
 -2.0421825e-03
 -4.2854752e-03
 -3.0423811e-04
 -1.2513936e-03
  1.2568424e-02
 -2.7434460e-03
  1.7690165e-03
  1.5029234e-03
  2.1932973e-02
 -1.3111283e-02
  4.2557433e-01
  3.6364202e-03
 -1.1758339e-03
  2.4057552e-03
  7.0155975e-03
  2.3710139e-02
  2.7079873e-02
 -1.5517886e-02
 -7.3286565e-03
 -1.1579881e-03
  5.6089596e-03
 -1.3238190e-04
  9.5160510e-03
  2.7297933e-03
 -2.3081624e-03
 -4.5658365e-02
 -2.5975781e-02
  8.3924823e-02
 -7.3645022e-03
 -3.2359061e-03
 -6.0712327e-03
  6.8471869e-03
 -2.0341733e-03
 -3.9435667e-03
 -3.1556648e-03
 -1.0471830e-02
  1.6467729e-04
 -8.4128901e-03
 -1.3135444e-02
 -6.0858106e-04
 -3.7351165e-03
 -5.0023142e-03
 -1.7673814e-03
  2.1366642e-03
 -3.7643072e-01
 -4.5694308e-03
 -1.3215953e-02
 -1.9142367e-02
 -2.9639984e-02
  1.3196311e-03
 -2.6758714e-03
  2.3339943e-03
 -1.0589230e-02
  1.1847389e-02
  1.4624802e-03
  6.1319757e-04
 -5.3242831e-03
  8.0554839e-03
  8.7740608e-03
 -2.3295702e-03
 -3.7269013e-03
  3.0519541e-02
 -5.0120610e-01
  1.1201688e-01
  4.0107293e+00
 -4.8166412e-01
 -3.2666862e-01
 -1.9664960e-03
  3.0724020e+00
 -4.3771610e+00
  5.1643384e-01
 -5.6464851e-01
 -2.5126569e-03
  4.3062100e-01
  4.4930902e-01
  3.8431987e-01
 -1.5780760e-02
  2.5094908e-02
  3.9693162e-02
 -4.1187862e-01
 -2.8401139e+00
 -4.1626349e-02
 -1.5303741e-01
 -5.1411593e-01
 -1.0910904e-03
  1.5581459e-02
 -1.3807923e-01
 -1.5584545e-01
 -4.4025490e-01
 -6.6810060e-01
  5.8449529e-02
 -2.9530689e-01
 -1.2467860e-01
  2.9775539e-02
 -9.8273240e-02
 -8.3369714e-01
  1.7715290e-03
 -7.8338722e-04
 -6.1477989e-01
  1.6996628e-02
  5.6180466e-02
  5.9441209e-02
 -1.3109705e-03
  3.9378940e-03
 -7.2699535e-01
  1.1903002e-03
 -2.4300280e-03
 -3.9918039e-02
 -2.7274208e-03
 -8.9428939e-02
 -3.8990881e-03
 -3.5684838e-04
 -6.5148488e-04
 -4.7367583e-03
 -3.0616242e-03
  1.6408576e-02
  7.9203612e-01
  4.8674124e-01
  1.7542675e-02
  2.7402282e-01
  7.2452780e-03
  2.7052299e-03
  2.5179780e-01
  1.0940717e-03
  7.6039203e-02
 -6.6553794e-02
 -9.3091425e-04
 -9.5546991e-04
  1.5472609e-02
  1.0008832e-02
 -9.3049081e-03
  6.8443217e-03
  1.9807424e-03
  2.6185371e-04
 -6.8014455e-01
 -2.1887631e-03
  4.9002161e-03
  5.3313322e-02
 -6.5692505e-03
 -3.7956520e-03
  1.2082795e-02
  2.4815055e-02
 -3.7826668e-02
  2.4119807e-02
  2.5899014e-03
 -2.1863198e-01
 -7.5973901e-03
  5.2771030e-04
 -4.6598274e-02
 -1.9222578e-02
  1.2949469e-03
 -4.4549373e-03
 -2.2367199e-03
  5.6657032e-03
 -6.9075846e-04
 -2.9914004e-01
  1.0495193e-02
  5.9147207e-03
 -7.3015346e-04
  9.7391633e-03
 -7.1576429e-03
  8.3271600e-03
  1.9005027e-03
  1.2837118e-02
 -4.4940426e-03
 -4.0822939e-04
  2.4664358e-03
 -1.4777755e-03
 -5.7686106e-03
  8.2062865e-03
 -6.0706469e-03
 -9.4077864e-04
 -8.7390207e-02
 -2.5569623e-02
  1.0380806e-02
  2.1184454e-02
 -7.0191459e-03
  1.5520498e-04
 -3.9646883e-02
 -1.1189594e-03
  1.3538367e-02
  1.2732442e-03
  1.3129174e-02
 -2.4201986e-03
 -1.4230373e-02
 -6.4301766e-03
  4.2142030e-03
  3.5069395e-02
  2.1530045e-03
  3.8173713e-02
  3.7515508e-03
  2.6576982e-03
 -3.8067675e-03
  2.6870684e-03
  1.5728779e-02
 -1.2327277e-02
  3.3193454e-02
 -1.8946793e-03
 -1.1069044e-02
  4.0227134e-02
 -1.4770943e-02
 -6.4452593e-03
  5.9176702e-04
  6.6329734e-03
  4.9034669e-03
  1.6287366e-02
  1.5908420e-02
 -1.0494488e-02
 -1.5758861e-04
  3.4482868e-03
 -1.9579562e-03
  1.3780901e-02
 -1.9759491e-02
  1.0089640e-03
 -1.1765153e-02
 -6.0661468e-03
  2.5451079e-03
  1.2088680e-02
 -4.5163399e-03
 -7.9067359e-03
  8.4821884e-05
  9.6784513e-03
  7.2466070e-04
  8.3612597e-01
  1.1702160e+00
  4.0241650e-01
 -8.7611496e-01
  3.1534404e-01
  2.3236203e+00
 -1.4623431e+00
 -3.2037231e-01
 -1.8992460e-01
  2.5912800e-03
 -1.1782925e-02
 -7.4943766e-02
  2.5595149e-01
 -7.3727190e-01
  5.4674143e-01
 -8.5048181e-01
 -7.0785983e-03
 -9.7391382e-04
  8.0304317e-02
 -1.3411903e+00
  4.9346626e-01
 -4.2651406e-01
  1.7862950e-01
  2.3296233e-02
  1.9917710e-01
 -5.3813457e-01
  1.1800840e+00
  2.1444227e-01
 -9.4047022e-01
 -1.1589588e-02
  3.9999053e-02
 -6.6886693e-01
 -1.4149587e-03
  1.1436714e+00
 -1.0478633e-02
  3.1328779e-02
 -2.9338123e-03
 -5.5747193e-01
  1.5270843e-01
 -5.8522987e-01
  5.4696936e-02
 -1.8912625e-02
  6.7979254e-02
  4.1234502e-01
  4.1920656e-01
 -3.5491951e-03
  1.8660150e-03
  3.9735734e-03
 -1.0262117e+00
  1.1872714e-03
  8.1931446e-03
  4.1103985e-02
 -1.5068381e-01
 -9.8209493e-03
 -1.0853441e-02
 -1.2470809e-03
  1.9112125e-03
 -5.8239704e-01
 -2.1970721e-03
 -1.9885840e-05
  2.7929442e-03
  1.7614318e-02
 -3.1755242e-02
  6.2296879e-03
  2.8937127e-02
 -7.0010457e-04
  2.1687655e-02
  1.0833655e-02
  4.9846761e-02
  9.5895166e-03
 -2.7566855e-03
 -1.0371341e-03
  5.0115231e-03
  3.8029633e-03
 -3.6005343e-03
 -1.3302821e-02
  2.3116794e-01
  2.6510495e-03
  2.1470473e-03
  3.6470122e-03
 -2.3356913e-02
  2.3954863e-02
  7.9995357e-02
  9.4841054e-04
  2.3262434e+00
  1.2843501e-02
  2.8841344e-03
 -7.0253732e-03
 -1.8033385e-02
  7.0132366e-03
  1.4534860e-02
  3.6050968e-02
  1.2219721e-04
  2.9278655e-02
  1.9797474e-02
 -8.4951855e-03
 -2.0091297e-02
 -6.6897636e-03
 -8.9056119e-03
 -5.2327202e-03
 -1.3859392e-02
 -6.1862534e-03
  4.5673400e-03
 -1.0159721e-02
 -3.0682157e-03
  2.0647734e-02
  1.0694559e-02
 -3.9029526e-04
  5.6189355e-03
  1.1919314e-03
 -3.1020497e-03
  2.4363893e-01
  1.8899930e-03
 -7.1594240e-03
 -6.1801854e-03
 -3.3009043e-03
  2.1981057e-03
  2.6152885e-04
  3.1661883e-02
  2.4174072e-03
  1.5307706e-02
  1.1249159e-02
  3.7418965e-03
 -3.5968835e-03
  3.3056303e-03
 -3.1388113e-03
 -7.9072211e-03
 -2.1222275e-02
  1.4396948e-03
 -8.4771978e-04
 -1.4106489e-03
 -8.5159913e-03
  9.6028466e-03
 -3.1745280e-03
  1.4406048e-02
 -4.4340637e-02
 -4.2232931e-02
 -2.3400415e-04
 -6.4110062e-03
 -7.5675189e-03
  7.5324080e-03
 -5.4795593e-03
 -2.2788610e-02
  2.8817516e-02
 -6.0471166e-02
  5.5505172e-03
  3.0062741e-02
 -5.3135171e-03
 -1.1141252e-02
  7.9392577e-03
 -6.2034116e-03
  5.4873968e-04
  6.9499835e-03
  3.1586464e-03
 -1.2537029e-02
 -8.3968317e-04
 -3.4496631e-04
 -4.8463698e-03
 -6.9843624e-03
  1.2976564e-02
 -7.7081677e-03
  1.0638123e-02
 -2.1061732e-03
  2.3466228e-02
 -4.6120356e-03
 -7.7398166e-02
 -1.3508534e-02
 -3.6532970e-03
 -2.5737027e-02
  3.7791278e-02
  1.4991846e-03
  8.4289582e-03
 -1.2430457e-02
 -1.0508785e-02
  8.0146128e-03
  3.3748883e-03
 -4.2890254e-03
 -1.4304168e-02
  1.8371461e-02
 -7.1087452e-03
  3.4373614e-03
 -1.9503844e-03
  1.3781274e-02
  6.5458757e-03
 -5.9312619e-02
 -5.8269212e-03
  1.8874411e-03
  1.1824346e-03
  1.4087382e-03
 -1.2658955e-02
 -2.5121233e-01
  6.0836854e-04
 -3.5899058e-02
 -5.1642107e-03
 -3.5342488e-03
  1.2541012e-02
 -4.6577035e-03
  4.6190834e-03
 -4.4994831e-02
 -3.6129482e-02
  8.0696605e-03
 -2.5469347e-04
 -3.4949623e-02
 -2.5950796e-03
  6.4696507e-03
  2.5987245e-02
  9.0368940e-03
  1.1173795e-02
 -1.7353343e-02
  2.3920082e-03
 -4.0493696e-03
 -5.6441049e-03
  4.1526668e-03
  1.1887319e-03
  5.7175998e-03
  4.3008071e-03
 -1.0114963e-03
  1.4226176e-01
 -8.8093225e-03
  8.1933275e-02
  1.5121683e-02
  5.1884218e-03
 -4.5027295e-03
  1.6544504e-01
  1.2793778e-01
  1.1835993e-02
 -2.0530412e-02
 -1.7212410e-02
  9.5375255e-03
 -7.7032973e-03
 -2.8259784e-03
 -7.7344298e-02
  4.8564056e-01
  9.2274752e-03
  6.9753872e-04
 -9.2643052e-02
  2.7623542e-03
  9.2754513e-03
 -2.7060744e-03
  2.7442037e-03
  1.0176747e-02
 -6.9857794e-03
 -8.2448218e-03
 -6.5070108e-02
 -1.5052643e-01
  1.8026102e-03
 -2.2868118e-03
 -6.2097062e-04
  2.0379811e-03
 -4.5980170e-02
 -6.6233084e-02
  5.8746375e-03
 -8.0502078e-02
 -1.0057323e-01
  4.3586041e-03
 -1.1771764e-01
 -4.2533677e-02
 -3.8338839e-03
 -3.4469720e-02
  4.2984984e-04
  3.6141444e-02
  2.2534728e-03
  6.6245841e-03
  2.3982858e-03
  2.7736319e-02
 -2.6886729e-03
  2.4505859e-04
  6.8580490e-03
  1.7401457e-02
 -1.6007399e-02
 -8.1082028e-01
  2.5421605e-03
 -4.3482846e-03
  9.5070142e-01
 -1.5446087e-03
 -1.2857259e-02
  6.3016112e-03
  2.1990828e-02
  2.6456772e-03
 -5.8358326e-04
 -2.2706155e-02
  1.4920982e-02
 -6.1587119e-03
  1.1418898e-02
  8.9893090e-03
 -5.9782555e-03
  4.9934736e-03
 -1.1865500e-03
 -1.2946926e-01
 -8.7987289e-02
 -5.9504402e-03
 -1.9413393e-02
  3.4469678e-03
  2.1692510e-03
  3.1135131e-03
  3.0349931e-03
  5.2749552e-02
 -1.1641961e-01
 -5.5311061e-03
 -4.9770886e-01
 -1.3759526e-02
 -5.7608332e-02
  8.1718778e-03
 -3.2467365e-02
 -6.5614991e-02
 -8.8978466e-03
 -1.8872002e-02
 -2.3622144e-02
 -1.2191449e-03
  2.5152802e-03
  3.9404924e-03
  1.6366239e-03
  6.2660103e-05
 -9.1389278e-03
  6.8529095e-03
 -6.7547103e-03
 -2.1043770e-02
 -2.5105658e-03
 -5.3373384e-03
 -1.1156178e-03
  1.2350847e-03
  2.5391327e-02
 -1.1456755e-02
 -2.0327098e-03
 -9.4023375e-03
 -1.2873442e-01
 -2.0517670e-03
 -3.2452151e-02
  9.8430766e-03
  2.0768049e-03
 -1.6283427e-01
 -1.4719595e-02
  2.7289628e-03
 -1.2632468e-02
  1.3518153e-02
  6.5116850e-03
 -1.0806165e-02
 -2.6240434e-02
  1.0527308e-02
  5.4499059e-04
 -6.2021945e-04
 -7.9630977e-03
 -2.0177162e-04
  7.4702450e-03
  7.4436888e-03
  9.9419523e-03
  1.4282315e-02
 -3.5750947e-03
 -1.0225236e-01
 -5.7122326e-03
 -5.7875365e-03
  6.2183220e-02
  5.9709080e-02
 -7.2074233e-04
  1.4236458e-02
  2.9980890e-02
 -1.2563169e-02
  2.4998773e-02
  2.2081751e-03
  7.1844636e-03
  6.4884007e-02
  2.1826969e-02
  1.1367255e-02
 -5.9953835e-03
  1.5875055e-01
 -6.8336772e-03
  8.0338254e-04
  7.8906834e-02
  7.2987372e-04
 -7.4332178e-04
 -4.8581557e-03
  3.5895534e-02
  6.3889045e-03
  3.5344754e-05
 -1.2163240e-02
 -1.8425288e-03
  2.8487511e-05
  3.9324388e-03
 -7.8675197e-03
 -6.2550377e-04
 -4.3300721e-03
 -8.1096273e-03
 -5.5908374e-03
  1.4087257e-03
  1.2583582e-03
 -5.3191947e-05
  1.3903582e-03
  7.5898872e-04
 -3.7520304e-03
 -7.9504075e-03
  3.1379189e-03
  3.4903614e-03
 -1.6478361e-03
 -2.9847310e-03
 -2.3273542e-03
  8.5738311e-03
  3.9329473e-03
  2.6748088e-04
  2.7231399e-03
  7.7318068e-04
  5.8512641e-03
  1.4355436e-03
 -3.6834698e-02
  4.5735165e-03
  4.2573041e-03
  4.7162748e-03
  1.6303914e-02
 -8.9209273e-02
 -1.0090785e-02
  1.4666913e-02
 -7.2750710e-03
  2.8105512e-02
  3.7146141e-03
  5.4380330e-03
  1.5973218e-03
 -9.4119022e-03
  5.0640921e-03
  1.0464662e-03
  2.0759026e-02
  5.7485704e-03
  3.2660894e-03
 -7.8301542e-03
 -7.0621101e-03
  3.5773899e-04
  1.8823857e-03
  2.0197884e-03
  2.6626319e-03
  1.4725564e-03
 -2.1591310e-03
  1.0797596e-02
 -9.6369954e-03
 -9.9839247e-04
 -1.7100642e-02
 -1.9403048e-01
 -5.6098280e-03
 -1.1409146e-01
 -5.7961117e-04
  3.5167731e-02
 -1.3965754e-02
 -2.3531813e-02
 -8.2682252e-02
 -3.5262068e-03
  1.9881649e-02
 -3.7852705e-03
 -9.7515620e-03
  2.6117079e-04
  1.1211567e-02
 -1.6515600e-02
 -5.0302432e-03
 -9.1433655e-03
 -8.3570248e-03
  7.3091902e-02
  2.7940620e-02
  1.0813232e-02
  1.2339825e-02
 -6.1235838e-03
 -5.9324135e-03
  5.9485757e-03
 -1.3225179e-02
  8.4747471e-02
  2.0924976e-01
  3.4902941e-03
  5.6081448e-02
  1.4414821e-02
 -1.0105938e-02
  2.4249049e-02
  2.2924814e-02
  3.1628795e-03
  8.0112051e-03
 -2.2983144e-03
  3.4014427e-03
  6.1558071e-03
  9.5943630e-02
  1.4023848e-03
 -3.8907244e-03
 -1.2249008e-02
 -9.3711093e-03
  6.6673062e-03
  3.4332753e-03
 -3.0501827e-03
 -4.4549545e-03
 -6.8706009e-03
 -1.1397852e-03
  3.0570360e-02
 -4.9264729e-03
  1.4670215e-03
 -4.5783985e-03
  7.1679428e-03
  2.7960083e-01
 -1.0843673e-01
  9.1314357e-04
  1.3626995e-02
  2.7867365e-03
 -1.0534986e-01
 -3.3926144e-02
  4.8712944e-03
  1.7076245e-02
  2.0484759e-02
  1.4764366e-03
 -4.4702860e-03
  2.6377790e-02
  5.7417233e-03
 -7.2507113e-02
  1.9540226e-03
 -2.8466384e-03
  7.8853324e-02
  6.5086875e-04
 -2.3138323e-03
 -7.6665008e-04
  6.3591991e-03
 -4.8042545e-03
 -3.8752253e-03
 -4.2556101e-03
  1.5316232e-02
  3.6009237e-02
 -6.4867376e-03
 -1.3644680e-02
 -5.5929390e-03
 -1.4659835e-03
  2.7537700e-03
 -3.9015699e-03
  4.4853762e-03
  1.6045714e-02
  5.3333011e-03
 -8.2814321e-03
  4.3582497e-03
  4.3789133e-02
 -4.5832349e-03
  1.6730687e-02
 -1.9273993e-03
  3.8993414e-03
  1.3070156e-05
 -8.3138226e-03
 -1.8471368e-02
  1.1046049e-02
 -1.1653610e-02
 -7.6497849e-03
 -1.7323546e-02
  1.2735072e-02
  3.0058591e-02
  1.0521617e-02
 -2.0601491e-03
 -1.8041298e-02
  2.5135711e-02
  2.8914085e-03
  1.3475703e-03
 -1.0199821e-02
  2.2358205e-03
  5.6543360e-03
  2.5478851e-02
  9.5829573e-03
 -1.6346281e-02
 -8.6840028e-03
 -6.4925319e-03
 -4.0147817e-03
 -5.0676852e-03
  1.7079742e-03
  6.2432936e-03
  6.0987459e-03
  2.0073604e-02
  1.4080014e-02
  4.3360312e-03
 -1.2890110e-03
  6.0986909e-03
 -2.5578358e-03
  3.1202121e-04
  1.0728464e-02
 -1.1071323e-03
 -8.2441401e-01
  5.2207173e-03
  6.4376391e-02
  8.9551369e-03
 -1.0144932e-02
  8.0622490e-03
 -1.2223782e-02
 -1.9066112e-02
  5.6321002e-03
 -9.2235915e-03
 -5.5752653e-03
 -2.8924407e-03
 -1.0701960e-02
  1.0707975e-02
 -3.8320553e-03
 -6.4961007e-04
  9.7642653e-05
  1.2465977e-03
 -5.0518545e-03
  2.3668816e-03
 -1.2524305e-03
  1.2409843e-02
  4.1123196e-03
  5.7043890e-03
 -3.7494123e-03
  7.3965862e-03
 -1.5400207e-02
  2.0975463e-02
  2.1509064e-02
  5.3644530e-03
 -1.3094458e-02
 -9.2950184e-03
  3.4399724e-03
  1.4183355e-02
  9.3717864e-03
  1.6735094e-02
 -5.7147238e-03
 -2.0783120e-03
 -1.9619295e-02
  1.2279188e-02
  6.0281991e-03
 -4.1521544e-04
 -5.9968792e-03
 -4.5392332e-03
 -2.1725583e-03
 -1.1820280e-01
 -1.8173639e-03
  1.6587507e-02
  2.4129534e-03
 -7.3321565e-04
 -1.8145766e-03
  5.1009504e-04
 -2.4910148e-03
 -3.6099709e-03
 -1.9754080e-02
  3.7619729e-02
 -3.9125546e-03
  4.1756299e-03
 -8.7254103e-03
 -3.3041246e-02
 -1.0773155e-01
  6.3224831e-03
 -1.3050734e-02
 -2.8626956e-02
 -8.2289428e-03
 -1.2949525e-02
 -1.8302892e-01
 -2.6991817e-03
 -1.7718257e-03
 -3.5718239e-03
 -1.1276998e-01
  2.0821821e-03
  4.8798239e-03
  1.3421241e-02
  4.3459628e-03
 -2.4849188e-03
 -1.0064991e-02
 -1.6650346e-03
  1.9343618e-02
 -3.3105994e-03
 -9.5134890e-03
  9.3222296e-01
  7.8773852e-03
  1.2238805e-01
  2.4047866e-03
 -1.5774189e-02
  1.4404044e-03
  5.2014906e-03
 -1.3820775e-03
  3.5357394e-03
 -3.3455468e-03
 -1.4392145e-02
  1.3728192e-02
 -5.5440338e-03
 -9.0897083e-03
 -1.2595860e-03
  1.9469759e-03
 -3.4380120e-03
 -4.7746431e-03
 -2.8865334e-02
  4.0080389e-03
  1.5038250e-02
 -4.3535014e-03
  9.8348106e-04
 -1.3089160e-03
  2.7381231e-03
  1.6100837e-02
 -3.9003950e-02
 -3.3600636e-02
 -7.2680279e-03
 -3.2893050e-02
 -5.1256889e-03
 -5.7519479e-03
 -3.3916533e-02
 -5.2700252e-03
  7.1941107e-03
 -4.1853562e-03
 -1.7724168e-02
 -2.3082500e-02
  2.8335880e-03
 -1.1912102e-02
 -7.2489185e-03
 -1.0590518e-02
 -1.8625410e-02
 -1.9644428e-02
 -4.1301656e-03
 -5.7951557e-03
  1.0010275e-02
 -8.5926056e-03
  3.6464427e-03
 -7.8428835e-03
  1.1564293e-03
 -3.4561716e-02
 -1.8038878e-02
 -5.4701556e-02
  3.1425664e+00
 -3.3462275e-02
  2.8422942e+00
 -2.8928247e-01
  1.1997420e+00
 -1.0230093e-02
  1.6589270e+00
  2.4658735e-01
  1.0531656e-02
 -5.6080252e-01
  1.2124566e-01
  1.6885835e-01
  1.4406080e-02
 -3.4773493e-01
 -1.3599145e-02
 -3.4097977e-02
 -2.0675104e-04
  8.2442146e-03
 -3.7324913e-03
 -3.9535842e-04
  3.1547407e-03
  4.3914554e-01
  7.0737445e-01
  3.4983732e-02
  4.7238059e-03
 -3.4503854e-04
 -3.9109215e-02
  5.0695022e-03
 -1.5661245e-02
 -8.3299243e-01
  6.3683385e-01
  2.4244313e-03
 -6.1145157e-01
 -5.7140189e-01
 -5.0895673e-04
 -4.0674976e-01
  3.5779250e-03
  4.6022362e-03
 -1.3565429e-01
 -3.6947164e-01
 -1.3163515e+00
  7.6182359e-01
  7.8846967e-01
  3.9813932e-04
 -4.7127991e-03
  4.8978735e-02
  2.5107118e-03
  8.0053285e-02
  8.8919349e-02
 -5.0359201e-03
 -4.9719522e-03
 -9.3212612e-03
  9.7102195e-04
  5.2098017e-03
 -6.2355593e-02
 -3.4735610e-03
  6.0218755e-02
 -2.7802004e-03
 -1.0339153e-03
  1.3776285e-02
  4.3539875e-03
  4.1987609e-02
 -3.2504001e-03
 -6.1029084e-03
 -7.0398673e-03
  2.1998729e-03
  3.7009947e-03
 -5.7806969e-03
 -8.4356191e-03
 -3.7803464e-02
  7.4283620e-03
 -2.7395820e-02
 -5.3800936e-03
  9.1341455e-03
 -8.9866854e-03
  9.1907755e-03
  1.4926947e-04
 -2.2438990e-03
 -5.5255578e-03
 -9.1629419e-03
  1.6519316e-03
 -1.8652000e-02
  5.7372850e-01
  1.2327406e-03
 -1.0117617e-02
 -7.7982340e-03
 -2.9216476e-03
 -1.9012911e-02
  2.7255854e-03
  4.1976948e-03
 -8.0830622e-03
 -7.7701784e-03
 -7.0189298e-03
 -4.5659388e-03
 -7.4811713e-03
 -9.6186157e-03
  1.0405382e-02
  4.1624526e-03
  4.1575213e-03
 -4.7352407e-03
 -2.6535043e-03
  3.0558966e-03
 -1.8706629e-03
  1.1227924e-02
 -1.4110617e-02
 -2.4426854e-03
  2.1663199e-03
 -6.0812063e-03
 -2.9811943e-02
  2.3826079e-03
 -3.7807775e-01
  3.4867148e-03
  2.7463315e-02
 -1.5533363e-02
 -2.5708890e-02
 -2.4132108e-02
 -8.1776693e-02
  7.8277603e-02
  8.0818897e-03
 -3.3081737e-03
  1.1065156e-02
  1.2204355e-02
  3.8892052e-03
 -6.7991256e-03
  6.8469173e-03
 -1.2442004e-02
  9.0162270e-02
  6.8014115e-03
  1.0727802e-02
 -1.0231494e-02
 -2.2273159e-02
  4.6939705e-03
  8.8259606e-03
 -7.1927153e-02
  1.8798426e-01
  9.7397566e-02
  5.0976793e-03
 -4.3878756e-02
 -5.9807501e-03
 -1.2027464e-03
  3.8206831e-01
  8.3096800e-03
 -1.3133913e-03
  1.9905539e-02
  8.4820248e-02
 -1.7613925e-02
  1.8965544e-02
  3.7187967e-02
  1.0035997e-02
 -8.5663935e-03
 -8.1439503e-03
 -1.6246191e-03
 -7.9263025e-04
  1.3284743e-02
  2.1372451e-03
 -2.7899127e-03
  1.2249626e-02
 -2.2749766e-03
 -4.5889555e-03
  2.2848290e-03
  2.7933319e-03
  2.7326439e-03
  4.7347271e-03
  7.2179109e-01
  1.2034019e+00
  2.9047731e-02
  1.7046753e-02
  1.3759128e-02
  9.4098030e-03
 -1.2151627e-03
  2.3488015e-01
 -2.4371881e-02
  4.3449625e-03
 -2.1871503e-03
  2.2205399e-02
 -3.7178747e-02
 -8.9790076e-03
  1.4695940e-02
  1.4922486e-02
 -4.2054065e-02
 -9.8915987e-02
  2.1714576e-02
 -1.2368484e-02
 -1.2961072e-03
 -3.9622388e-03
 -1.6733788e-02
  1.1520365e-02
  1.1265989e-03
 -9.4794832e-02
 -3.7191546e-01
  8.9147389e-03
 -8.2066254e-04
 -7.9895547e-03
  1.0223535e-02
 -8.3555050e-02
 -5.7171721e-02
  7.2452924e-03
 -2.0931193e-03
 -4.3245178e-02
 -1.4303632e-04
 -1.4243267e-02
 -3.7852831e-03
 -5.7597092e-04
  1.6197287e-02
  8.6706644e-03
 -1.0090010e-02
 -8.0117714e-03
  1.6454039e-03
 -2.5749576e-04
  1.4335276e-02
 -7.9948660e-03
  1.9899574e-03
  1.7653492e-01
 -1.6523398e-02
 -3.2150864e-03
  7.4615642e-02
  1.5392857e-02
  6.5969834e-03
  3.4073201e-01
  9.9015869e-03
 -1.4306976e-02
  1.0581941e-02
  1.5912713e-02
 -1.1358178e-02
 -1.9526031e-03
 -4.0799744e-02
 -5.5009960e-03
 -5.9649195e-03
 -1.3649659e-02
  9.7178831e-04
 -2.0947554e-03
 -2.7621428e-03
  1.7273667e-03
 -1.3597907e-02
 -7.3380088e-03
  2.6587583e-03
  6.5209898e-03
 -1.3068737e-02
  5.1073567e-03
 -1.2800230e-02
 -3.4393142e-03
 -8.6184358e-03
 -4.0679970e-03
 -3.6821276e-02
  1.1252454e-02
 -5.7986027e-01
  4.3135160e-03
 -6.3559306e-03
 -8.0341895e-05
 -4.5895181e-03
  7.2315303e-03
 -3.3104214e-01
 -4.0522791e-03
 -1.2265607e-03
  5.5924580e-03
 -1.7806545e-02
  1.9933584e-03
 -5.6803399e-03
 -3.0109829e-03
  3.7662996e-04
 -5.9429547e-03
 -7.0344200e-03
 -1.1065586e-02
 -7.9013342e-03
  1.5774003e-03
 -1.6663125e-02
 -8.5996604e-03
  2.0572732e-03
  6.0344697e-04
  4.5062886e-03
  8.3059408e-03
 -3.1395485e-03
  5.3387941e-03
 -1.8627400e-03
 -2.4516718e-02
 -2.8197117e-02
  3.2557853e-02
  6.5954924e-02
  1.4744353e-02
 -2.6827810e-02
  4.1214586e-03
  2.4701778e-03
 -2.8481628e-03
  1.8027365e-02
 -1.3165465e-04
 -7.7750860e-03
  6.8651848e-03
 -3.5245700e-03
 -3.0143706e-03
  9.2423111e-03
 -1.9747289e-02
  2.3082895e-02
  4.3815825e-04
 -4.7764559e-03
 -1.0332514e-02
 -5.7265111e-03
 -2.8266464e-04
  2.9693560e-03
 -8.3852764e-03
 -1.6724041e-02
 -3.5419076e-04
 -4.2197742e-03
 -1.4912740e-03
 -4.2782938e-03
 -2.0154652e-03
  6.8239742e-03
 -8.6284623e-02
  4.7233593e-04
 -7.8888712e-03
 -7.3836679e-03
  1.8025091e-03
 -2.6838269e-02
  1.1864652e-02
  3.0375596e-03
  4.7368635e-03
 -5.5688387e-03
  8.8945851e-03
  1.8367277e-02
 -1.0435721e-02
  2.0504644e-02
  1.4619478e-03
 -1.1289259e-02
  1.1224797e-02
 -2.0865042e-02
  5.9940811e-02
  1.1774976e-03
  1.3721851e+00
 -2.2665779e-03
  1.4309163e-03
  1.1837911e-02
 -2.5852589e-04
  9.6077872e-03
  9.5953699e-03
 -2.4102263e-03
  9.5031634e-03
  8.5606240e-05
  5.8249934e-03
  2.2863325e-02
 -8.5461857e-03
 -3.3814590e-03
  1.5122406e-03
 -9.7362585e-03
 -1.4298548e-01
  1.0189853e-03
 -3.0527428e-02
 -7.9937220e-02
 -2.5608465e-03
  6.1974855e-04
 -1.2838082e-02
 -3.1062434e-03
 -2.2999808e-01
  6.8879174e-03
  3.5953689e-03
 -5.0225938e-03
 -1.3915330e-01
  2.3395575e-03
 -2.7067794e-03
  2.9408094e-03
  5.9813913e-03
 -7.4430313e-03
 -7.5616725e-02
 -1.2599614e-03
  7.6662889e-04
  1.7912110e-04
  8.5932678e-03
  6.5927780e-03
 -1.8047752e-02
  8.5914545e-03
  8.7751081e-04
 -4.5724045e-03
 -4.7594551e-03
 -1.1279169e-02
 -6.3948398e-03
 -1.6380589e-02
  1.6771927e-02
  1.1531882e-02
  6.3407882e-03
  5.2173785e-04
  4.6945438e-02
  1.2443646e-02
  1.6765797e-01
  1.6033779e-03
 -5.0669615e-03
 -4.1875700e-03
  9.4505697e-02
  2.4216886e-01
  3.5387254e-03
 -3.0843493e-02
  1.7850028e-03
  5.0889468e-03
 -8.5703740e-03
 -5.6292457e-03
  1.7502609e-03
  7.9434095e-03
  2.6062843e-03
 -1.1012384e-02
 -6.1819073e-02
  5.3965580e-03
  7.4104458e-04
 -6.0356391e-04
  5.4887775e-03
 -8.5938852e-03
 -5.3457087e-03
  1.8324218e-03
 -1.4186355e-01
 -1.0644135e-01
 -2.7701268e-03
 -2.7665820e-03
 -5.7460298e-03
 -3.6438801e-03
 -1.5124172e-02
 -1.2777072e-02
  1.7712243e-04
 -1.0998853e-02
 -7.2611729e-03
 -1.2590237e-03
 -6.8964921e-02
 -1.7649125e-01
 -2.3482303e-04
 -3.5854287e-03
  3.7461685e-03
  2.0124862e-02
 -3.1695638e-02
 -1.6007982e-02
  1.3480919e-02
  1.5330936e-03
 -1.9088197e-02
 -2.6467364e-02
 -1.0459480e-03
  8.4979804e-03
  1.7624544e-03
 -1.3709344e-03
  9.2026489e-03
 -9.0567563e-03
  4.6298796e-01
  4.4856519e-03
 -1.9106796e-04
 -5.2643468e-04
  4.0356375e-02
 -4.9275360e-03
  1.5970273e-02
 -2.1633593e-02
 -2.7284457e-03
 -4.9985810e-03
  2.1997575e-02
  2.2239853e-03
 -1.2564176e-03
 -5.0255633e-03
 -5.3778925e-04
 -1.0436870e-02
 -3.3164661e-02
  4.6941359e-03
 -1.0581238e-02
 -2.5823324e-03
  5.3493637e-03
 -1.3111546e-02
  6.1407839e-03
  1.6204758e-02
 -7.1790896e-02
  2.4958345e-04
 -2.4890241e-03
 -5.8293127e-02
  1.0963324e-02
  3.5176578e-03
  1.0440951e-03
 -3.6252100e-02
  8.3339080e-05
 -2.3059895e-02
 -3.2366384e-02
 -1.0907758e-02
 -1.0048002e-02
 -1.9295262e-03
  1.5976906e-03
  1.9983083e-05
  3.2626970e-03
  1.1023703e-02
  5.7541919e-03
 -6.6218590e-03
 -4.2479406e-03
 -2.3461243e-03
  3.5995860e-03
 -1.2403105e-02
 -5.1570474e-03
  2.8110705e-03
 -1.4288020e-03
  1.2623870e-03
  7.0360579e-02
 -1.6080718e-03
  5.3568006e-01
  2.8817707e-03
 -6.0011195e-03
 -1.4592664e-04
  1.5076190e-02
  1.1001280e-02
  1.3803940e-01
 -5.7464272e-02
 -4.4348121e-02
 -7.3144333e-03
  5.6941099e-02
 -1.8160095e-02
 -3.7048936e-03
  1.9219112e-02
  1.7825937e-02
 -5.4267701e-03
 -4.8219893e-02
 -1.0610453e-02
 -8.8184129e-04
 -2.5661767e-02
  4.8293900e-03
 -1.3807412e-03
 -7.5443229e-03
 -5.0818874e-03
 -1.2376348e-01
  9.4822876e-04
  2.5213305e-03
 -7.6156072e-02
  5.3361640e-03
 -6.8062088e-03
 -1.8783249e-02
 -1.0434354e-01
 -1.1886405e-02
 -5.3124953e-02
 -2.9855069e-02
 -8.0424122e-04
  2.9754409e-04
 -4.4600025e-02
  6.3166744e-03
  4.4635851e-03
  2.4025710e-03
  5.9055560e-03
  4.0057120e-01
 -3.2984375e-03
  5.8213011e-03
 -2.5569878e-03
 -9.7288555e-03
 -2.0496070e-03
 -1.6010068e-02
  4.1932453e-04
 -2.8977559e-03
 -3.2255047e-03
 -9.8080374e-03
  1.0011515e-02
 -8.9422077e-02
  3.1914390e-04
  4.0614731e-03
  3.7714466e-03
 -1.1517271e-02
 -1.6531058e-03
 -9.5846830e-03
  5.4937368e-03
  9.9362084e-04
  1.1829237e-02
  5.0057471e-03
 -2.9107938e-03
  1.2943871e-02
 -7.8114669e-04
 -1.2899330e-02
 -2.3813646e-03
  2.5293690e-01
 -6.5537817e-03
  4.4057672e-03
 -1.0159076e-04
  2.2757833e-03
 -4.5550033e-04
 -1.4096399e-02
 -1.4286875e-02
  2.2972496e-02
  2.5744172e-02
 -1.6839307e-02
  1.0522327e-02
  3.5495200e-04
 -1.2108617e-02
  1.5294854e-02
  2.6112583e-02
  2.5067781e-03
 -2.1957429e-03
  1.6179226e-02
 -3.0983568e-03
  1.1274028e-02
  2.4331696e-01
  3.6600564e-04
  4.0808726e-02
 -1.3006753e-02
 -1.1844545e-04
 -9.7197630e-03
  2.5805309e-02
 -2.1682542e-03
 -1.2561460e-02
  2.0056684e-01
 -1.3132019e-02
 -5.0885002e-03
  1.3889329e-02
  4.7410508e-03
  3.5313825e-04
 -3.0248629e-02
 -8.2956916e-03
 -5.4239787e-02
 -7.3754117e-02
  4.6773567e-03
 -5.7810321e-03
 -3.9366972e-01
 -2.6020909e-02
 -3.3356600e-02
  4.1244872e-02
  3.7013281e-02
  3.4520484e-03
 -3.7869278e-03
  7.2369259e-03
 -7.7905571e-03
 -1.3642303e-03
  4.5533134e-03
  4.2902233e-04
  2.5390700e-02
  2.4361171e-02
  4.4274586e-03
  1.5555443e-02
  1.1639750e-03
 -5.6731231e-03
 -7.8832870e-03
 -5.3283391e-03
  1.8819090e-02
  3.3252144e-01
  3.7613299e-03
  3.7384804e-03
  3.8772345e-02
  5.8036447e-03
  5.0030113e-03
  5.7819327e-03
 -5.1239422e-03
  7.6191120e-02
  3.9347541e-02
 -3.0229133e-04
  2.4087893e-02
  1.7722133e-01
  4.1794917e-03
  5.5405176e-03
  1.5021409e-03
 -1.4505937e-02
 -9.4207181e-03
  1.1759251e-02
 -5.9295651e-03
 -4.3537337e-03
 -8.0031651e-04
  6.3915566e-02
 -1.7544649e-03
  1.1270631e-02
 -6.7295707e-03
 -9.1231270e-03
 -1.2319962e-02
  2.5005448e-03
 -1.4798197e-01
 -2.4436936e-03
  5.4440301e-02
 -9.0008667e-03
 -4.3307985e-03
 -3.9709031e-04
 -2.0746053e-03
  1.4969811e-03
 -5.3846762e-02
  1.3806294e-03
 -2.0905174e-03
 -5.0939661e-03
  1.4154959e-02
  6.7541716e-03
 -1.7298233e-03
 -7.3660729e-03
  8.4619056e-03
  8.4837563e-03
 -1.9272926e-03
 -1.1661183e-04
  2.3350548e-03
  6.9100996e-03
 -4.2401636e-03
 -3.6273627e-03
  1.4927062e-02
  7.9897270e-03
 -6.4594455e-02
  2.0122143e-02
  8.6948117e-03
  2.9115847e-03
  2.1601273e-02
  4.5331852e-03
 -9.7635301e-04
  1.6623540e-02
  2.3711536e-03
  5.6857667e-03
  6.7160297e-03
  6.0130801e-02
 -4.1382634e-03
  8.4384447e-03
  5.7813046e-03
 -5.4640125e-04
 -1.6502010e-04
  6.7614559e-03
 -3.6352405e-03
 -1.9059982e-03
 -1.0102204e-03
 -2.2767412e-02
 -2.5971986e-03
 -2.4278009e-02
 -4.6790587e-03
  2.2462577e-02
  7.0691863e-03
  2.9403102e-04
  3.9331013e-04
  2.7603166e-02
 -4.4789375e-03
 -4.4406317e-03
  2.7166831e-01
  3.5399355e-02
  5.9624999e-03
 -7.9034893e-03
  1.5652630e-03
 -1.9582619e-03
 -2.6085773e-03
 -1.4259527e-03
 -4.0868358e-03
 -1.9588536e-03
 -6.1844098e-03
  6.8276032e-04
 -2.3241401e-02
  1.8226568e-02
 -5.1313611e-03
 -4.0744308e-02
  4.6205977e-03
 -9.9384028e-04
 -8.0218641e-03
  9.6527049e-03
 -5.2740645e-02
 -8.7296024e-02
 -1.5834760e-02
 -1.2481113e-02
  6.0268454e-03
  1.3708696e-03
 -7.0270835e-03
 -1.2409964e-02
  4.5467123e-02
 -9.7932247e-03
 -1.3023316e-02
 -1.0175855e-03
 -1.6542312e-02
 -2.5278882e-03
 -2.0143015e-03
  5.8621638e-03
  4.1937102e-03
  7.3160511e-03
 -4.2742663e-03
  4.1555697e-03
 -1.9241575e-02
 -5.8369837e-03
 -1.9531711e-03
  3.6180370e-02
  1.7674770e-03
  1.1845549e-03
 -5.2961116e-03
  3.6117360e-02
  8.2784045e-01
  1.6943216e-01
 -7.9807468e-02
  1.2732692e+00
  4.5068823e-02
 -1.1907439e-01
  1.5009991e+00
  4.3862498e-01
  1.1756331e+00
 -3.9137587e-01
 -4.6062350e-01
  6.5878972e-02
  6.4231222e-03
 -7.0422423e-01
 -2.6098476e-03
  1.6063659e-02
  1.5574674e-02
  2.8366211e-01
 -5.4190719e-01
 -6.2087495e-03
 -1.9184522e-01
 -3.5220753e-02
  3.1270708e-03
  1.1222127e-01
 -7.6523095e-02
  2.4088023e-02
 -7.8005737e-01
 -4.2885748e-01
  9.6284971e-02
  2.3074115e-02
  4.8705116e-02
 -2.5428021e-02
 -4.6334663e-01
 -5.9460497e-01
  3.0934528e-02
 -1.7639703e-01
 -8.5837567e-01
 -4.4034715e-03
 -9.7278631e-01
 -1.2331544e-02
 -5.9665780e-04
 -1.3402227e-01
  3.6042314e-03
  3.0284054e-03
 -2.9142410e-02
 -4.2561212e-01
  1.0030706e-02
 -2.3543815e-01
 -5.2190441e-01
  1.6986085e-02
  1.8812481e-01
  5.8559454e-03
 -6.3104774e-03
 -1.5290383e-02
  1.3203921e-02
 -3.5192173e-03
  2.9903786e-02
  1.0507613e-02
  1.3487633e-02
  7.8537807e-02
  2.4235694e-02
  1.5672041e-02
 -1.8523339e-03
 -1.1360226e-02
  3.2397010e-03
 -1.8617954e-02
  8.1465794e-03
 -3.0936170e-03
  5.5333534e-03
 -1.6632592e-02
  4.3962634e-04
 -6.3961404e-03
 -6.7673563e-03
 -2.7219264e-03
  5.8133304e-03
 -2.0327289e-02
  1.3933382e-02
  1.5698479e-03
  1.2404458e-02
  1.1477263e-02
 -3.4518681e-02
  4.1700094e-03
 -4.9075410e-03
 -1.5921567e-02
 -1.7100038e-02
 -1.0824423e-02
 -7.6276967e-03
 -1.7627660e-02
 -4.8328536e-03
 -2.1848509e-02
 -2.4340891e-03
 -1.0576096e-02
 -1.3076958e-02
 -1.0039980e-01
  1.4149460e-02
 -2.1735420e-02
 -6.8184538e-03
  2.5657082e-02
  6.0571409e-03
  1.7459143e-03
 -1.2004200e-03
 -6.5624161e-04
  1.2555820e-02
  6.3345423e-03
 -4.6640960e-03
  6.4487214e-04
 -2.4454799e-03
  2.1415407e-02
  6.1778720e-03
 -3.5721678e-03
  4.1330194e-01
  1.7559699e-03
  2.8744307e-03
 -3.1789509e-03
  1.5590613e-03
  6.1609861e-02
  3.3759486e-03
 -1.1822488e-02
 -7.7825217e-03
  3.5647268e-03
  4.8676835e-04
 -1.2347767e-02
  4.9503860e-03
 -2.3825221e-02
  1.6449768e-02
  7.0787538e-03
 -1.1954760e-01
  4.0613371e-03
 -4.6898047e-03
  7.2195986e-03
 -1.8754817e-03
 -2.0608813e-02
  2.4487493e-03
  7.7635972e-03
 -1.7645614e-01
 -4.6016868e-02
  5.4513956e-03
 -2.8204401e-03
 -4.0816341e-02
 -8.3007989e-03
  8.9829892e-04
 -2.4233548e-02
  9.5429504e-03
 -7.3949113e-02
 -7.4383572e-02
 -3.1384029e-03
 -2.2770572e-03
 -8.3704507e-03
 -4.9265404e-03
 -1.4800373e-02
  5.7925965e-04
  9.2687448e-03
 -6.0827094e-03
 -2.5119837e-03
 -2.3038399e-03
  6.5223216e-03
  4.2033354e-03
 -5.1368130e-03
 -2.1754790e-03
 -1.2842226e-02
 -2.2393696e-03
 -2.1753525e-03
  1.2251777e-02
 -3.7585818e-05
  6.8766274e-02
 -4.3172841e-03
 -1.8103959e-02
 -1.2383548e-02
 -2.1828355e-03
  8.0110980e-03
  1.3367383e-02
 -5.1592533e-03
  2.6670074e-02
  1.6707772e-03
 -7.0448637e-01
 -7.4507198e-03
  1.1286881e-02
 -1.6073211e-03
 -4.0185717e-03
  2.1785334e-01
 -2.3800189e-02
 -6.7229117e-03
  1.5747761e-02
 -8.5083686e-02
  5.6394685e-02
  1.3833169e-02
  7.6687657e-03
  1.9035310e-02
 -8.4455013e-03
 -5.7517182e-02
  7.0328903e-03
 -1.9520437e-02
 -2.6071705e-02
 -3.4805562e-03
 -3.4778606e-02
 -1.5516261e-02
  2.4701433e-02
  7.7496497e-03
 -5.2980538e-02
  2.7468696e-02
 -1.6231822e-03
  3.3656179e-03
 -8.2899174e-03
  2.4319859e-03
 -2.8569225e-04
  4.1987463e-03
 -9.3647335e-03
 -5.3462121e-03
  1.8085761e-03
 -9.5524536e-03
  8.0826264e-03
  1.7418478e-02
  8.1448135e-04
 -1.4192096e-02
  5.2413368e-03
 -4.0634954e-03
  3.2853797e-02
 -2.7572915e-03
  1.4505750e-02
 -1.5861209e-02
  1.3773382e-02
 -5.7219865e-04
  6.5367490e-02
  6.5734215e-02
 -1.2122127e-02
 -5.4211460e-02
 -8.3787851e-03
 -4.7910563e-03
  7.7323015e-03
  5.3798058e-03
 -2.1798072e-02
  6.9844164e-03
  2.1354076e-02
 -1.7519924e-03
 -3.4542498e-03
 -6.2248539e-03
 -2.2921738e-01
 -8.1921183e-03
  1.0269085e-02
  6.8041179e-03
 -3.8354751e-03
  3.3905450e-02
 -3.8203131e-02
 -7.7057160e-02
 -1.2609078e-02
 -2.0032672e-02
  4.5276113e-02
 -5.5371027e-04
  1.3245615e-03
 -6.8194522e-03
 -6.1278758e-03
 -2.0574635e-02
 -3.1572882e-02
 -6.8133539e-03
 -4.1308366e-03
 -1.4216148e-02
 -4.8259324e-03
 -1.4364632e-02
  5.4480908e-03
 -2.2302794e-03
  6.8472587e-03
 -1.6744579e-03
 -5.0051562e-03
  4.5394236e-03
  1.3254942e-02
 -3.8728835e-03
  7.7707325e-03
 -2.6066704e-03
  1.1425150e-02
 -9.1944367e-02
 -8.1817672e-02
 -4.4408929e-02
 -2.6007153e-02
  1.4713115e-01
  3.6065541e-02
  5.9078354e-03
  3.6470261e-01
  3.1333011e-01
 -6.0541654e-01
 -7.9596162e-01
 -7.2668106e-03
  7.2319672e-02
  1.0583379e+00
  9.6005017e-01
 -3.3706220e-04
 -3.3527378e-03
  1.6073215e-01
  3.7279290e-01
 -8.5905157e-02
 -4.0955119e-02
  6.2143010e-01
 -2.0829237e-01
  6.1149138e-01
  4.1301534e-01
 -8.0301267e-01
  4.8279884e-01
 -2.9553375e-01
 -1.2238829e+00
  1.7599264e-01
  3.8140693e-01
  1.6264020e-02
 -1.9477411e-03
 -1.3118693e+00
 -1.4257944e-01
  2.6290151e-01
 -3.7949300e-01
 -2.6662225e-02
  6.3120395e-02
  3.3823475e-01
 -1.2357439e-01
  3.3594185e-01
 -1.1760971e-01
 -4.3310389e-01
  5.2920483e-02
  3.9058587e-01
 -1.2978598e-02
  4.3524923e-03
 -4.7526953e-01
 -2.5124669e-01
 -5.3427280e-03
  1.1035657e-02
 -5.6051856e-01
 -3.6787078e-02
  1.6692880e-03
 -1.0459352e-03
 -1.2547404e-03
  1.1490674e+00
  2.8234418e-03
  6.6292929e-03
 -1.8520964e-02
  2.4394246e-03
  3.4457343e-03
  5.7158064e-02
 -3.1680565e-03
 -1.1893347e-03
 -2.8575188e-03
  6.8705915e-03
  1.1612643e-02
  5.1771887e-03
  1.1090505e-02
  1.3716842e-02
 -1.5868805e-01
 -5.9778225e-02
 -1.1142984e-02
 -6.9403802e-03
 -7.3052337e-03
 -3.0845341e-03
 -7.4330792e-02
 -3.3442641e-03
  2.6257956e-02
 -1.6557407e-01
 -2.0260507e-02
 -6.2073520e-03
 -5.9822830e-03
 -4.0908590e-02
 -8.3312759e-04
 -2.4666000e-04
 -1.5298273e-01
 -7.1812258e-03
 -1.5315875e-02
  1.1653212e-03
  5.8979169e-03
 -3.0013155e-03
  4.9872077e-03
  7.6480466e-03
 -5.3939894e-03
 -6.7554228e-04
  1.5306162e-03
  9.0907523e-03
 -2.3191951e-02
  2.1009296e-03
  2.2396019e-03
 -8.8412575e-03
  2.6634643e-03
  4.7305468e-03
 -1.5523822e-02
 -4.1151210e-03
  3.3457601e-01
  3.7680334e-01
  3.7394099e-02
 -1.0940907e+00
  4.2767744e+00
  2.4494867e+00
 -4.5835698e-01
  2.2992122e+00
  2.3079593e+00
 -8.6575943e-01
  2.1380402e-01
 -2.2269886e-02
 -3.7073216e-01
  9.7679502e-01
  3.6739919e-01
  2.5607765e+00
  1.6690402e+00
  1.1092126e+00
 -6.7110419e-01
  9.9449623e-01
  7.8377044e-01
 -2.8218850e-01
  3.1247818e-01
  1.9422881e-01
  7.7638149e-01
  1.2983439e+00
  6.4189833e-01
  2.2015055e-01
  1.0123889e+00
  8.1631875e-01
 -9.9628165e-02
  4.5725301e-01
  5.9045415e-02
 -2.0192276e-01
  1.7703774e+00
  1.2365865e+00
  1.1108578e+00
  6.8335885e-01
  1.8964663e+00
  9.1164619e-02
  2.4849327e-01
  2.8951105e-01
 -2.6338744e-01
  6.5661383e-01
  6.6147214e-01
 -1.6340557e-02
 -5.7081985e-01
 -1.4094646e-02
 -8.3638085e-03
 -1.2016264e-01
  3.7476072e-01
 -3.2045162e-01
 -6.0080462e-03
 -2.5634676e-01
 -2.6184566e+00
  1.7182260e+00
 -2.4787362e+00
 -2.4390688e+00
  2.4571052e+00
  2.1428995e+00
 -9.0602881e-01
  8.7107545e-01
  2.1480107e+00
 -1.6402664e+00
  2.8430769e+00
  1.3455728e+00
 -1.1564238e+00
  1.1120458e+00
 -1.3830924e+00
  1.8737870e+00
  6.4200878e-01
 -1.5073647e+00
 -3.6805299e-01
  2.8150697e+00
  1.9434142e+00
 -9.9696100e-01
